{"learner":{"attributes":{"scikit_learn":"{\"_estimator_type\": \"regressor\"}"},"feature_names":[],"feature_types":[],"gradient_booster":{"model":{"gbtree_model_param":{"num_parallel_tree":"1","num_trees":"800"},"iteration_indptr":[0,1,2,3,4,5,6,7,8,9,10,11,12,13,14,15,16,17,18,19,20,21,22,23,24,25,26,27,28,29,30,31,32,33,34,35,36,37,38,39,40,41,42,43,44,45,46,47,48,49,50,51,52,53,54,55,56,57,58,59,60,61,62,63,64,65,66,67,68,69,70,71,72,73,74,75,76,77,78,79,80,81,82,83,84,85,86,87,88,89,90,91,92,93,94,95,96,97,98,99,100,101,102,103,104,105,106,107,108,109,110,111,112,113,114,115,116,117,118,119,120,121,122,123,124,125,126,127,128,129,130,131,132,133,134,135,136,137,138,139,140,141,142,143,144,145,146,147,148,149,150,151,152,153,154,155,156,157,158,159,160,161,162,163,164,165,166,167,168,169,170,171,172,173,174,175,176,177,178,179,180,181,182,183,184,185,186,187,188,189,190,191,192,193,194,195,196,197,198,199,200,201,202,203,204,205,206,207,208,209,210,211,212,213,214,215,216,217,218,219,220,221,222,223,224,225,226,227,228,229,230,231,232,233,234,235,236,237,238,239,240,241,242,243,244,245,246,247,248,249,250,251,252,253,254,255,256,257,258,259,260,261,262,263,264,265,266,267,268,269,270,271,272,273,274,275,276,277,278,279,280,281,282,283,284,285,286,287,288,289,290,291,292,293,294,295,296,297,298,299,300,301,302,303,304,305,306,307,308,309,310,311,312,313,314,315,316,317,318,319,320,321,322,323,324,325,326,327,328,329,330,331,332,333,334,335,336,337,338,339,340,341,342,343,344,345,346,347,348,349,350,351,352,353,354,355,356,357,358,359,360,361,362,363,364,365,366,367,368,369,370,371,372,373,374,375,376,377,378,379,380,381,382,383,384,385,386,387,388,389,390,391,392,393,394,395,396,397,398,399,400,401,402,403,404,405,406,407,408,409,410,411,412,413,414,415,416,417,418,419,420,421,422,423,424,425,426,427,428,429,430,431,432,433,434,435,436,437,438,439,440,441,442,443,444,445,446,447,448,449,450,451,452,453,454,455,456,457,458,459,460,461,462,463,464,465,466,467,468,469,470,471,472,473,474,475,476,477,478,479,480,481,482,483,484,485,486,487,488,489,490,491,492,493,494,495,496,497,498,499,500,501,502,503,504,505,506,507,508,509,510,511,512,513,514,515,516,517,518,519,520,521,522,523,524,525,526,527,528,529,530,531,532,533,534,535,536,537,538,539,540,541,542,543,544,545,546,547,548,549,550,551,552,553,554,555,556,557,558,559,560,561,562,563,564,565,566,567,568,569,570,571,572,573,574,575,576,577,578,579,580,581,582,583,584,585,586,587,588,589,590,591,592,593,594,595,596,597,598,599,600,601,602,603,604,605,606,607,608,609,610,611,612,613,614,615,616,617,618,619,620,621,622,623,624,625,626,627,628,629,630,631,632,633,634,635,636,637,638,639,640,641,642,643,644,645,646,647,648,649,650,651,652,653,654,655,656,657,658,659,660,661,662,663,664,665,666,667,668,669,670,671,672,673,674,675,676,677,678,679,680,681,682,683,684,685,686,687,688,689,690,691,692,693,694,695,696,697,698,699,700,701,702,703,704,705,706,707,708,709,710,711,712,713,714,715,716,717,718,719,720,721,722,723,724,725,726,727,728,729,730,731,732,733,734,735,736,737,738,739,740,741,742,743,744,745,746,747,748,749,750,751,752,753,754,755,756,757,758,759,760,761,762,763,764,765,766,767,768,769,770,771,772,773,774,775,776,777,778,779,780,781,782,783,784,785,786,787,788,789,790,791,792,793,794,795,796,797,798,799,800],"tree_info":[0,0,0,0,0,0,0,0,0,0,0,0,0,0,0,0,0,0,0,0,0,0,0,0,0,0,0,0,0,0,0,0,0,0,0,0,0,0,0,0,0,0,0,0,0,0,0,0,0,0,0,0,0,0,0,0,0,0,0,0,0,0,0,0,0,0,0,0,0,0,0,0,0,0,0,0,0,0,0,0,0,0,0,0,0,0,0,0,0,0,0,0,0,0,0,0,0,0,0,0,0,0,0,0,0,0,0,0,0,0,0,0,0,0,0,0,0,0,0,0,0,0,0,0,0,0,0,0,0,0,0,0,0,0,0,0,0,0,0,0,0,0,0,0,0,0,0,0,0,0,0,0,0,0,0,0,0,0,0,0,0,0,0,0,0,0,0,0,0,0,0,0,0,0,0,0,0,0,0,0,0,0,0,0,0,0,0,0,0,0,0,0,0,0,0,0,0,0,0,0,0,0,0,0,0,0,0,0,0,0,0,0,0,0,0,0,0,0,0,0,0,0,0,0,0,0,0,0,0,0,0,0,0,0,0,0,0,0,0,0,0,0,0,0,0,0,0,0,0,0,0,0,0,0,0,0,0,0,0,0,0,0,0,0,0,0,0,0,0,0,0,0,0,0,0,0,0,0,0,0,0,0,0,0,0,0,0,0,0,0,0,0,0,0,0,0,0,0,0,0,0,0,0,0,0,0,0,0,0,0,0,0,0,0,0,0,0,0,0,0,0,0,0,0,0,0,0,0,0,0,0,0,0,0,0,0,0,0,0,0,0,0,0,0,0,0,0,0,0,0,0,0,0,0,0,0,0,0,0,0,0,0,0,0,0,0,0,0,0,0,0,0,0,0,0,0,0,0,0,0,0,0,0,0,0,0,0,0,0,0,0,0,0,0,0,0,0,0,0,0,0,0,0,0,0,0,0,0,0,0,0,0,0,0,0,0,0,0,0,0,0,0,0,0,0,0,0,0,0,0,0,0,0,0,0,0,0,0,0,0,0,0,0,0,0,0,0,0,0,0,0,0,0,0,0,0,0,0,0,0,0,0,0,0,0,0,0,0,0,0,0,0,0,0,0,0,0,0,0,0,0,0,0,0,0,0,0,0,0,0,0,0,0,0,0,0,0,0,0,0,0,0,0,0,0,0,0,0,0,0,0,0,0,0,0,0,0,0,0,0,0,0,0,0,0,0,0,0,0,0,0,0,0,0,0,0,0,0,0,0,0,0,0,0,0,0,0,0,0,0,0,0,0,0,0,0,0,0,0,0,0,0,0,0,0,0,0,0,0,0,0,0,0,0,0,0,0,0,0,0,0,0,0,0,0,0,0,0,0,0,0,0,0,0,0,0,0,0,0,0,0,0,0,0,0,0,0,0,0,0,0,0,0,0,0,0,0,0,0,0,0,0,0,0,0,0,0,0,0,0,0,0,0,0,0,0,0,0,0,0,0,0,0,0,0,0,0,0,0,0,0,0,0,0,0,0,0,0,0,0,0,0,0,0,0,0,0,0,0,0,0,0,0,0,0,0,0,0,0,0,0,0,0,0,0,0,0,0,0,0,0,0,0,0,0,0,0,0,0,0,0,0,0,0,0,0,0,0,0,0,0,0,0,0,0,0,0,0,0,0,0,0,0,0,0,0,0,0,0,0,0,0,0,0,0,0,0,0,0,0,0,0,0,0,0,0,0,0,0,0,0,0,0,0,0,0,0,0,0,0,0,0,0,0,0,0,0,0,0,0,0,0,0,0,0,0,0,0,0,0,0,0,0,0,0,0,0,0,0,0,0,0,0,0,0,0,0,0,0,0],"trees":[{"base_weights":[-1.9742288E-2,-9.8736745E-1,4.0390217E-1,-2.6386347E-1,-1.5968133E0,2.3846743E-1,9.777072E-1,-7.319368E-3,1.7868363E-3,-6.97488E-3,-1.7635206E-2,3.6434906E-3,-4.8369006E-3,1.0423258E-2,6.88324E-4],"categories":[],"categories_nodes":[],"categories_segments":[],"categories_sizes":[],"default_left":[0,0,0,0,0,0,0,0,0,0,0,0,0,0,0],"id":0,"left_children":[1,3,5,7,9,11,13,-1,-1,-1,-1,-1,-1,-1,-1],"loss_changes":[3.7702343E1,1.1924883E1,5.8421946E0,3.0308082E0,1.0188255E0,4.812457E0,7.5047874E-1,0E0,0E0,0E0,0E0,0E0,0E0,0E0,0E0],"parents":[2147483647,0,0,1,1,2,2,3,3,4,4,5,5,6,6],"right_children":[2,4,6,8,10,12,14,-1,-1,-1,-1,-1,-1,-1,-1],"split_conditions":[-4.3029463E-1,-1.628457E-1,1.2853425E0,-2.0839916E-1,-6.1970454E-1,4.0355086E-1,1.1158807E0,-7.319368E-3,1.7868363E-3,-6.97488E-3,-1.7635206E-2,3.6434906E-3,-4.8369006E-3,1.0423258E-2,6.88324E-4],"split_indices":[8,16,8,14,10,9,2,0,0,0,0,0,0,0,0],"split_type":[0,0,0,0,0,0,0,0,0,0,0,0,0,0,0],"sum_hessian":[9E1,2.7E1,6.3E1,1.3E1,1.4E1,5E1,1.3E1,6E0,7E0,3E0,1.1E1,4.3E1,7E0,1.2E1,1E0],"tree_param":{"num_deleted":"0","num_feature":"20","num_nodes":"15","size_leaf_vector":"1"}},{"base_weights":[1.021415E-3,-8.406823E-1,4.0782785E-1,-9.008205E-2,-1.2943779E0,6.451345E-1,1.4901674E-1,-4.488662E-3,3.4351316E-3,-4.230231E-3,-1.5131205E-2,7.3246746E-3,-4.141291E-3,3.07095E-3,-3.2408545E-3],"categories":[],"categories_nodes":[],"categories_segments":[],"categories_sizes":[],"default_left":[0,0,0,0,0,0,0,0,0,0,0,0,0,0,0],"id":1,"left_children":[1,3,5,7,9,11,13,-1,-1,-1,-1,-1,-1,-1,-1],"loss_changes":[3.0474977E1,9.759176E0,3.5889196E0,2.0209966E0,2.7907581E0,3.1711035E0,2.3431406E0,0E0,0E0,0E0,0E0,0E0,0E0,0E0,0E0],"parents":[2147483647,0,0,1,1,2,2,3,3,4,4,5,5,6,6],"right_children":[2,4,6,8,10,12,14,-1,-1,-1,-1,-1,-1,-1,-1],"split_conditions":[-3.88934E-1,-4.4090924E-1,-5.540344E-1,-1.0750266E-1,-5.294667E-1,1.1333797E0,2.335931E-1,-4.488662E-3,3.4351316E-3,-4.230231E-3,-1.5131205E-2,7.3246746E-3,-4.141291E-3,3.07095E-3,-3.2408545E-3],"split_indices":[8,16,9,4,1,12,13,0,0,0,0,0,0,0,0],"split_type":[0,0,0,0,0,0,0,0,0,0,0,0,0,0,0],"sum_hessian":[8.7E1,2.8E1,5.9E1,1.1E1,1.7E1,3E1,2.9E1,6E0,5E0,4E0,1.3E1,2.8E1,2E0,2.2E1,7E0],"tree_param":{"num_deleted":"0","num_feature":"20","num_nodes":"15","size_leaf_vector":"1"}},{"base_weights":[1.6679661E-2,2.136915E-1,-1.4625771E0,-1.1475716E-2,6.384865E-1,-5.329884E-1,-1.7848311E-2,1.1733699E-3,-6.113266E-3,8.2908925E-3,2.694675E-5,-7.5222726E-4,-6.6050272E-3],"categories":[],"categories_nodes":[],"categories_segments":[],"categories_sizes":[],"default_left":[0,0,0,0,0,0,0,0,0,0,0,0,0],"id":2,"left_children":[1,3,5,7,9,11,-1,-1,-1,-1,-1,-1,-1],"loss_changes":[2.4792753E1,7.181069E0,2.044342E0,3.9351523E0,3.1485434E0,1.8380189E-1,0E0,0E0,0E0,0E0,0E0,0E0,0E0],"parents":[2147483647,0,0,1,1,2,2,3,3,4,4,5,5],"right_children":[2,4,6,8,10,12,-1,-1,-1,-1,-1,-1,-1],"split_conditions":[1.2526733E0,3.24361E-1,-4.0275764E-1,3.402716E-1,-1.1720451E-1,9.0287364E-1,-1.7848311E-2,1.1733699E-3,-6.113266E-3,8.2908925E-3,2.694675E-5,-7.5222726E-4,-6.6050272E-3],"split_indices":[2,8,4,16,15,1,0,0,0,0,0,0,0],"split_type":[0,0,0,0,0,0,0,0,0,0,0,0,0],"sum_hessian":[8.3E1,7.4E1,9E0,4.9E1,2.5E1,3E0,6E0,4.1E1,8E0,1.9E1,6E0,1E0,2E0],"tree_param":{"num_deleted":"0","num_feature":"20","num_nodes":"13","size_leaf_vector":"1"}},{"base_weights":[-6.424877E-2,1.9185935E-1,-1.4429493E0,-4.4300875E-1,4.2144665E-1,-7.951454E-1,-1.7864691E-2,1.1381797E-3,-1.1225825E-2,1.5039709E-3,7.060032E-3,-1.8793741E-3,-1.00044105E-2],"categories":[],"categories_nodes":[],"categories_segments":[],"categories_sizes":[],"default_left":[0,0,0,0,0,0,0,0,0,0,0,0,0],"id":3,"left_children":[1,3,5,7,9,11,-1,-1,-1,-1,-1,-1,-1],"loss_changes":[3.3821003E1,1.1993074E1,1.9175014E0,8.452677E0,4.521553E0,6.8457985E-1,0E0,0E0,0E0,0E0,0E0,0E0,0E0],"parents":[2147483647,0,0,1,1,2,2,3,3,4,4,5,5],"right_children":[2,4,6,8,10,12,-1,-1,-1,-1,-1,-1,-1],"split_conditions":[1.2526733E0,-5.876876E-1,-4.0275764E-1,-1.0049465E-1,3.24361E-1,-6.690394E-1,-1.7864691E-2,1.1381797E-3,-1.1225825E-2,1.5039709E-3,7.060032E-3,-1.8793741E-3,-1.00044105E-2],"split_indices":[2,8,4,16,8,7,0,0,0,0,0,0,0],"split_type":[0,0,0,0,0,0,0,0,0,0,0,0,0],"sum_hessian":[9.4E1,8E1,1.4E1,2.1E1,5.9E1,6E0,8E0,1.2E1,9E0,3.1E1,2.8E1,2E0,4E0],"tree_param":{"num_deleted":"0","num_feature":"20","num_nodes":"13","size_leaf_vector":"1"}},{"base_weights":[7.1499564E-2,3.4327194E-1,-1.1476886E0,1.2768638E-1,6.882662E-1,5.81517E-3,-1.2921089E0,2.2887192E-3,-4.068502E-3,8.43006E-3,-2.2308596E-3,-5.2933227E-3,-1.4274163E-2],"categories":[],"categories_nodes":[],"categories_segments":[],"categories_sizes":[],"default_left":[0,0,0,0,0,0,0,0,0,0,0,0,0],"id":4,"left_children":[1,3,5,7,9,-1,11,-1,-1,-1,-1,-1,-1],"loss_changes":[3.0877405E1,5.5646772E0,4.99683E0,2.6893103E0,4.277713E0,0E0,8.9577484E-1,0E0,0E0,0E0,0E0,0E0,0E0],"parents":[2147483647,0,0,1,1,2,2,3,3,4,4,6,6],"right_children":[2,4,6,8,10,-1,12,-1,-1,-1,-1,-1,-1],"split_conditions":[1.1073864E0,3.24361E-1,-1.6666763E0,1.3654929E0,-8.466773E-2,5.81517E-3,-3.3263135E-1,2.2887192E-3,-4.068502E-3,8.43006E-3,-2.2308596E-3,-5.2933227E-3,-1.4274163E-2],"split_indices":[0,8,1,6,15,0,1,0,0,0,0,0,0],"split_type":[0,0,0,0,0,0,0,0,0,0,0,0,0],"sum_hessian":[9.1E1,7.5E1,1.6E1,4.7E1,2.8E1,1E0,1.5E1,4E1,7E0,2.4E1,4E0,3E0,1.2E1],"tree_param":{"num_deleted":"0","num_feature":"20","num_nodes":"13","size_leaf_vector":"1"}},{"base_weights":[-1.1308129E-2,2.40262E-1,-1.2841752E0,3.3770213E-1,-1.0340232E0,-1.4352974E0,-6.646466E-3,1.2732878E-3,7.1477485E-3,-1.86704E-3,-1.4110067E-2,-5.2361614E-3,-1.565272E-2],"categories":[],"categories_nodes":[],"categories_segments":[],"categories_sizes":[],"default_left":[0,0,0,0,0,0,0,0,0,0,0,0,0],"id":5,"left_children":[1,3,5,7,9,11,-1,-1,-1,-1,-1,-1,-1],"loss_changes":[3.104921E1,1.0406678E1,5.4402924E-1,5.937768E0,1.6531119E0,6.023426E-1,0E0,0E0,0E0,0E0,0E0,0E0,0E0],"parents":[2147483647,0,0,1,1,2,2,3,3,4,4,5,5],"right_children":[2,4,6,8,10,12,-1,-1,-1,-1,-1,-1,-1],"split_conditions":[1.1073864E0,1.2526733E0,-4.5910192E-1,3.2960787E-1,-6.690394E-1,-2.7263284E-1,-6.646466E-3,1.2732878E-3,7.1477485E-3,-1.86704E-3,-1.4110067E-2,-5.2361614E-3,-1.565272E-2],"split_indices":[0,2,8,8,7,1,0,0,0,0,0,0,0],"split_type":[0,0,0,0,0,0,0,0,0,0,0,0,0],"sum_hessian":[9.5E1,8E1,1.5E1,7.5E1,5E0,1.1E1,4E0,4.9E1,2.6E1,2E0,3E0,2E0,9E0],"tree_param":{"num_deleted":"0","num_feature":"20","num_nodes":"13","size_leaf_vector":"1"}},{"base_weights":[5.606465E-2,2.6916885E-1,-1.6543753E0,6.8224645E-1,7.6773595E-3,-1.737531E0,-4.529872E-3,8.164348E-3,-1.7882051E-3,-4.1700504E-3,2.3908964E-3,-5.002365E-3,-1.8296633E-2],"categories":[],"categories_nodes":[],"categories_segments":[],"categories_sizes":[],"default_left":[0,0,0,0,0,0,0,0,0,0,0,0,0],"id":6,"left_children":[1,3,5,7,9,11,-1,-1,-1,-1,-1,-1,-1],"loss_changes":[3.288598E1,8.636063E0,2.1194267E-1,3.7278986E0,5.013538E0,1.10687256E-1,0E0,0E0,0E0,0E0,0E0,0E0,0E0],"parents":[2147483647,0,0,1,1,2,2,3,3,4,4,5,5],"right_children":[2,4,6,8,10,12,-1,-1,-1,-1,-1,-1,-1],"split_conditions":[1.3224809E0,-5.303895E-1,2.2315345E0,3.6468E-1,-4.128698E-1,5.875143E-1,-4.529872E-3,8.164348E-3,-1.7882051E-3,-4.1700504E-3,2.3908964E-3,-5.002365E-3,-1.8296633E-2],"split_indices":[2,9,1,12,11,9,0,0,0,0,0,0,0],"split_type":[0,0,0,0,0,0,0,0,0,0,0,0,0],"sum_hessian":[8.8E1,7.9E1,9E0,3E1,4.9E1,8E0,1E0,2.6E1,4E0,1.7E1,3.2E1,1E0,7E0],"tree_param":{"num_deleted":"0","num_feature":"20","num_nodes":"13","size_leaf_vector":"1"}},{"base_weights":[-5.1734995E-2,3.6486307E-1,-1.0111253E0,7.933987E-2,7.3518807E-1,6.9890595E-3,-1.182749E0,-3.2552544E-3,3.047272E-3,8.407346E-3,-3.542477E-3,-1.2970429E-2,-2.8701853E-3],"categories":[],"categories_nodes":[],"categories_segments":[],"categories_sizes":[],"default_left":[0,0,0,0,0,0,0,0,0,0,0,0,0],"id":7,"left_children":[1,3,5,7,9,-1,11,-1,-1,-1,-1,-1,-1],"loss_changes":[3.4341736E1,6.2858534E0,8.457159E0,3.2929995E0,3.2874708E0,0E0,2.0847626E0,0E0,0E0,0E0,0E0,0E0,0E0],"parents":[2147483647,0,0,1,1,2,2,3,3,4,4,6,6],"right_children":[2,4,6,8,10,-1,12,-1,-1,-1,-1,-1,-1],"split_conditions":[4.984796E-1,3.2960787E-1,-1.5258048E0,-7.5516395E-2,1.625143E0,6.9890595E-3,9.974425E-1,-3.2552544E-3,3.047272E-3,8.407346E-3,-3.542477E-3,-1.2970429E-2,-2.8701853E-3],"split_indices":[0,8,1,14,18,0,11,0,0,0,0,0,0],"split_type":[0,0,0,0,0,0,0,0,0,0,0,0,0],"sum_hessian":[8.4E1,5.9E1,2.5E1,3.4E1,2.5E1,2E0,2.3E1,1.2E1,2.2E1,2.3E1,2E0,2E1,3E0],"tree_param":{"num_deleted":"0","num_feature":"20","num_nodes":"13","size_leaf_vector":"1"}},{"base_weights":[3.2352523E-3,2.5506246E-1,-1.2225394E0,3.6292344E-1,-1.0098727E0,-5.99234E-3,-1.3947202E0,6.4300597E-3,1.1088116E-3,-1.7583306E-3,-1.3829343E-2,-4.805088E-3,-1.5444884E-2],"categories":[],"categories_nodes":[],"categories_segments":[],"categories_sizes":[],"default_left":[0,0,0,0,0,0,0,0,0,0,0,0,0],"id":8,"left_children":[1,3,5,7,9,-1,11,-1,-1,-1,-1,-1,-1],"loss_changes":[2.716728E1,1.0326421E1,7.740536E-1,4.729003E0,1.6237235E0,0E0,7.6397896E-1,0E0,0E0,0E0,0E0,0E0,0E0],"parents":[2147483647,0,0,1,1,2,2,3,3,4,4,6,6],"right_children":[2,4,6,8,10,-1,12,-1,-1,-1,-1,-1,-1],"split_conditions":[1.1073864E0,1.2526733E0,-2.7263284E-1,-5.303895E-1,-6.690394E-1,-5.99234E-3,-1.2768973E0,6.4300597E-3,1.1088116E-3,-1.7583306E-3,-1.3829343E-2,-4.805088E-3,-1.5444884E-2],"split_indices":[0,2,1,9,7,0,10,0,0,0,0,0,0],"split_type":[0,0,0,0,0,0,0,0,0,0,0,0,0],"sum_hessian":[8.6E1,7.2E1,1.4E1,6.7E1,5E0,4E0,1E1,3.1E1,3.6E1,2E0,3E0,2E0,8E0],"tree_param":{"num_deleted":"0","num_feature":"20","num_nodes":"13","size_leaf_vector":"1"}},{"base_weights":[2.8835615E-2,2.1449074E-1,-1.5892476E0,3.6349255E-1,-5.8841103E-1,-1.8558374E-2,-7.254037E-3,1.6134019E-3,6.386929E-3,3.594404E-3,-1.0034955E-2],"categories":[],"categories_nodes":[],"categories_segments":[],"categories_sizes":[],"default_left":[0,0,0,0,0,0,0,0,0,0,0],"id":9,"left_children":[1,3,5,7,9,-1,-1,-1,-1,-1,-1],"loss_changes":[2.9179804E1,1.0622025E1,9.566879E-1,4.013752E0,5.868837E0,0E0,0E0,0E0,0E0,0E0,0E0],"parents":[2147483647,0,0,1,1,2,2,3,3,4,4],"right_children":[2,4,6,8,10,-1,-1,-1,-1,-1,-1],"split_conditions":[1.3224809E0,6.872958E-1,-5.527459E-1,3.2960787E-1,-4.54666E-1,-1.8558374E-2,-7.254037E-3,1.6134019E-3,6.386929E-3,3.594404E-3,-1.0034955E-2],"split_indices":[2,0,8,8,7,0,0,0,0,0,0],"split_type":[0,0,0,0,0,0,0,0,0,0,0],"sum_hessian":[9.5E1,8.6E1,9E0,7.3E1,1.3E1,6E0,3E0,4.3E1,3E1,4E0,9E0],"tree_param":{"num_deleted":"0","num_feature":"20","num_nodes":"11","size_leaf_vector":"1"}},{"base_weights":[1.0720647E-2,2.0827287E-1,-1.5706717E0,3.8636845E-1,-6.1730534E-1,-1.801204E-2,-3.5551786E-1,1.2398071E-3,7.0065726E-3,6.1438703E-3,-9.488026E-3,-5.33762E-4,-4.799006E-3],"categories":[],"categories_nodes":[],"categories_segments":[],"categories_sizes":[],"default_left":[0,0,0,0,0,0,0,0,0,0,0,0,0],"id":10,"left_children":[1,3,5,7,9,-1,11,-1,-1,-1,-1,-1,-1],"loss_changes":[3.0943073E1,1.3177309E1,2.4410934E0,5.933115E0,7.115774E0,0E0,8.712834E-2,0E0,0E0,0E0,0E0,0E0,0E0],"parents":[2147483647,0,0,1,1,2,2,3,3,4,4,6,6],"right_children":[2,4,6,8,10,-1,12,-1,-1,-1,-1,-1,-1],"split_conditions":[1.3224809E0,6.872958E-1,1.1025444E0,3.2960787E-1,-1.4944923E0,-1.801204E-2,9.584614E-1,1.2398071E-3,7.0065726E-3,6.1438703E-3,-9.488026E-3,-5.33762E-4,-4.799006E-3],"split_indices":[2,0,10,8,1,0,0,0,0,0,0,0,0],"split_type":[0,0,0,0,0,0,0,0,0,0,0,0,0],"sum_hessian":[9.7E1,8.7E1,1E1,7.2E1,1.5E1,8E0,2E0,4E1,3.2E1,3E0,1.2E1,1E0,1E0],"tree_param":{"num_deleted":"0","num_feature":"20","num_nodes":"13","size_leaf_vector":"1"}},{"base_weights":[-8.112489E-2,2.64128E-1,-1.0383015E0,3.459263E-1,-1.5144132E-2,5.746646E-3,-1.1377392E0,1.6993402E-3,6.58188E-3,-1.2129403E-2,-2.5715146E-3],"categories":[],"categories_nodes":[],"categories_segments":[],"categories_sizes":[],"default_left":[0,0,0,0,0,0,0,0,0,0,0],"id":11,"left_children":[1,3,5,7,-1,-1,9,-1,-1,-1,-1],"loss_changes":[2.869449E1,9.834703E0,4.342779E0,3.2954025E0,0E0,0E0,1.1449623E0,0E0,0E0,0E0,0E0],"parents":[2147483647,0,0,1,1,2,2,3,3,6,6],"right_children":[2,4,6,8,-1,-1,10,-1,-1,-1,-1],"split_conditions":[6.872958E-1,1.3224809E0,-1.6666763E0,4.2661428E-1,-1.5144132E-2,5.746646E-3,9.974425E-1,1.6993402E-3,6.58188E-3,-1.2129403E-2,-2.5715146E-3],"split_indices":[0,2,1,4,0,0,11,0,0,0,0],"split_type":[0,0,0,0,0,0,0,0,0,0,0],"sum_hessian":[8.5E1,6.3E1,2.2E1,6.1E1,2E0,1E0,2.1E1,4E1,2.1E1,1.9E1,2E0],"tree_param":{"num_deleted":"0","num_feature":"20","num_nodes":"11","size_leaf_vector":"1"}},{"base_weights":[-3.2490943E-2,-8.380856E-1,3.708479E-1,-2.173486E-1,-1.3676462E0,7.629938E-2,6.4393204E-1,-6.9479095E-3,1.781453E-3,-6.3360236E-3,-1.5595271E-2,5.1189396E-3,-1.0536656E-3,8.654318E-3,9.2239137E-4],"categories":[],"categories_nodes":[],"categories_segments":[],"categories_sizes":[],"default_left":[0,0,0,0,0,0,0,0,0,0,0,0,0,0,0],"id":12,"left_children":[1,3,5,7,9,11,13,-1,-1,-1,-1,-1,-1,-1,-1],"loss_changes":[2.9229359E1,9.56428E0,4.7770596E0,2.9561567E0,1.2654648E0,2.4279175E0,3.7083702E0,0E0,0E0,0E0,0E0,0E0,0E0,0E0,0E0],"parents":[2147483647,0,0,1,1,2,2,3,3,4,4,5,5,6,6],"right_children":[2,4,6,8,10,12,14,-1,-1,-1,-1,-1,-1,-1,-1],"split_conditions":[-3.88934E-1,-1.628457E-1,3.24361E-1,-2.0839916E-1,-6.1970454E-1,-4.0739158E-1,7.6154655E-1,-6.9479095E-3,1.781453E-3,-6.3360236E-3,-1.5595271E-2,5.1189396E-3,-1.0536656E-3,8.654318E-3,9.2239137E-4],"split_indices":[8,16,8,14,10,7,16,0,0,0,0,0,0,0,0],"split_type":[0,0,0,0,0,0,0,0,0,0,0,0,0,0,0],"sum_hessian":[8.8E1,2.9E1,5.9E1,1.4E1,1.5E1,2.9E1,3E1,6E0,8E0,4E0,1.1E1,8E0,2.1E1,2.1E1,9E0],"tree_param":{"num_deleted":"0","num_feature":"20","num_nodes":"15","size_leaf_vector":"1"}},{"base_weights":[1.5689606E-2,2.905523E-1,-1.2908888E0,8.2498156E-2,6.442702E-1,-4.225601E-1,-1.4587677E0,1.9765922E-3,-4.51291E-3,8.4197875E-3,4.4751406E-4,-4.8349617E-4,-5.311804E-3,-7.5786454E-3,-1.8020991E-2],"categories":[],"categories_nodes":[],"categories_segments":[],"categories_sizes":[],"default_left":[0,0,0,0,0,0,0,0,0,0,0,0,0,0,0],"id":13,"left_children":[1,3,5,7,9,11,13,-1,-1,-1,-1,-1,-1,-1,-1],"loss_changes":[3.305587E1,5.5398765E0,1.7159691E0,3.101317E0,3.2811604E0,1.3690501E-1,1.762598E0,0E0,0E0,0E0,0E0,0E0,0E0,0E0,0E0],"parents":[2147483647,0,0,1,1,2,2,3,3,4,4,5,5,6,6],"right_children":[2,4,6,8,10,12,14,-1,-1,-1,-1,-1,-1,-1,-1],"split_conditions":[1.1158807E0,3.2960787E-1,-4.4090924E-1,3.7660548E-1,1.0570012E0,9.584614E-1,1.0423523E0,1.9765922E-3,-4.51291E-3,8.4197875E-3,4.4751406E-4,-4.8349617E-4,-5.311804E-3,-7.5786454E-3,-1.8020991E-2],"split_indices":[2,8,16,16,1,0,9,0,0,0,0,0,0,0,0],"split_type":[0,0,0,0,0,0,0,0,0,0,0,0,0,0,0],"sum_hessian":[9E1,7.5E1,1.5E1,4.8E1,2.7E1,3E0,1.2E1,4E1,8E0,2E1,7E0,1E0,2E0,5E0,7E0],"tree_param":{"num_deleted":"0","num_feature":"20","num_nodes":"15","size_leaf_vector":"1"}},{"base_weights":[-5.8555927E-2,1.4896858E-1,-1.5409353E0,-4.289481E-1,3.6676276E-1,-1.7863305E-2,-8.401156E-3,9.7602046E-5,-1.0441158E-2,1.7013269E-3,6.226349E-3],"categories":[],"categories_nodes":[],"categories_segments":[],"categories_sizes":[],"default_left":[0,0,0,0,0,0,0,0,0,0,0],"id":14,"left_children":[1,3,5,7,9,-1,-1,-1,-1,-1,-1],"loss_changes":[3.0069664E1,1.0981874E1,5.6301117E-1,6.4872904E0,3.063736E0,0E0,0E0,0E0,0E0,0E0,0E0],"parents":[2147483647,0,0,1,1,2,2,3,3,4,4],"right_children":[2,4,6,8,10,-1,-1,-1,-1,-1,-1],"split_conditions":[1.3224809E0,-3.88934E-1,-5.527459E-1,-1.0049465E-1,3.2960787E-1,-1.7863305E-2,-8.401156E-3,9.7602046E-5,-1.0441158E-2,1.7013269E-3,6.226349E-3],"split_indices":[2,8,8,16,8,0,0,0,0,0,0],"split_type":[0,0,0,0,0,0,0,0,0,0,0],"sum_hessian":[9.6E1,8.5E1,1.1E1,2.3E1,6.2E1,7E0,4E0,1.4E1,9E0,3.6E1,2.6E1],"tree_param":{"num_deleted":"0","num_feature":"20","num_nodes":"11","size_leaf_vector":"1"}},{"base_weights":[2.1273838E-2,3.5118434E-1,-9.006128E-1,4.0498623E-1,-9.3158466E-1,2.9087663E-1,-1.2294719E0,1.8809848E-3,6.8487013E-3,-2.0666742E-3,-1.1907096E-2,6.1624646E-3,-2.399087E-3,-1.3815707E-2,-6.6966256E-3],"categories":[],"categories_nodes":[],"categories_segments":[],"categories_sizes":[],"default_left":[0,0,0,0,0,0,0,0,0,0,0,0,0,0,0],"id":15,"left_children":[1,3,5,7,9,11,13,-1,-1,-1,-1,-1,-1,-1,-1],"loss_changes":[2.7688889E1,5.0013113E0,9.761597E0,3.8168964E0,3.1745148E-1,1.1840521E0,6.925926E-1,0E0,0E0,0E0,0E0,0E0,0E0,0E0,0E0],"parents":[2147483647,0,0,1,1,2,2,3,3,4,4,5,5,6,6],"right_children":[2,4,6,8,10,12,14,-1,-1,-1,-1,-1,-1,-1,-1],"split_conditions":[6.872958E-1,1.2526733E0,-4.54666E-1,3.2960787E-1,4.5796904E-1,-1.4944923E0,-6.456253E-1,1.8809848E-3,6.8487013E-3,-2.0666742E-3,-1.1907096E-2,6.1624646E-3,-2.399087E-3,-1.3815707E-2,-6.6966256E-3],"split_indices":[0,2,7,8,0,1,8,0,0,0,0,0,0,0,0],"split_type":[0,0,0,0,0,0,0,0,0,0,0,0,0,0,0],"sum_hessian":[8.9E1,6.6E1,2.3E1,6.4E1,2E0,5E0,1.8E1,3.7E1,2.7E1,1E0,1E0,3E0,2E0,1.3E1,5E0],"tree_param":{"num_deleted":"0","num_feature":"20","num_nodes":"15","size_leaf_vector":"1"}},{"base_weights":[-1.9786502E-3,2.0937529E-1,-1.2699374E0,3.2051158E-1,-4.3606332E-1,-2.9739714E-1,-1.4347057E0,4.237153E-3,-3.3432331E-3,5.0852317E-3,-7.02474E-3,-3.797674E-4,-4.0811896E-3,-2.0563412E-3,-1.548421E-2],"categories":[],"categories_nodes":[],"categories_segments":[],"categories_sizes":[],"default_left":[0,0,0,0,0,0,0,0,0,0,0,0,0,0,0],"id":16,"left_children":[1,3,5,7,9,11,13,-1,-1,-1,-1,-1,-1,-1,-1],"loss_changes":[2.2508904E1,5.3044415E0,1.4962482E0,4.331706E0,3.1253517E0,7.067147E-2,1.0792332E0,0E0,0E0,0E0,0E0,0E0,0E0,0E0,0E0],"parents":[2147483647,0,0,1,1,2,2,3,3,4,4,5,5,6,6],"right_children":[2,4,6,8,10,12,14,-1,-1,-1,-1,-1,-1,-1,-1],"split_conditions":[1.2526733E0,6.872958E-1,-4.4090924E-1,9.5835906E-1,-1.4944923E0,9.584614E-1,1.3224809E0,4.237153E-3,-3.3432331E-3,5.0852317E-3,-7.02474E-3,-3.797674E-4,-4.0811896E-3,-2.0563412E-3,-1.548421E-2],"split_indices":[2,0,16,10,1,0,2,0,0,0,0,0,0,0,0],"split_type":[0,0,0,0,0,0,0,0,0,0,0,0,0,0,0],"sum_hessian":[8.2E1,7.1E1,1.1E1,6.1E1,1E1,2E0,9E0,5.3E1,8E0,2E0,8E0,1E0,1E0,1E0,8E0],"tree_param":{"num_deleted":"0","num_feature":"20","num_nodes":"15","size_leaf_vector":"1"}},{"base_weights":[-2.2455351E-2,-5.9569395E-1,4.1634387E-1,-1.4763457E-1,-1.1668512E0,6.588266E-1,1.1609971E-1,1.6933468E-3,-7.6311873E-3,-1.2928415E-2,-1.4794874E-3,8.420465E-3,-1.5332055E-3,2.5144457E-3,-3.318423E-3],"categories":[],"categories_nodes":[],"categories_segments":[],"categories_sizes":[],"default_left":[0,0,0,0,0,0,0,0,0,0,0,0,0,0,0],"id":17,"left_children":[1,3,5,7,9,11,13,-1,-1,-1,-1,-1,-1,-1,-1],"loss_changes":[2.2634775E1,9.808311E0,3.6365166E0,4.6162825E0,1.9910488E0,4.2955446E0,1.5384796E0,0E0,0E0,0E0,0E0,0E0,0E0,0E0,0E0],"parents":[2147483647,0,0,1,1,2,2,3,3,4,4,5,5,6,6],"right_children":[2,4,6,8,10,12,14,-1,-1,-1,-1,-1,-1,-1,-1],"split_conditions":[-1.252546E-1,7.395215E-1,8.100721E-2,1.9451481E-1,9.974425E-1,7.9461755E-3,9.5835906E-1,1.6933468E-3,-7.6311873E-3,-1.2928415E-2,-1.4794874E-3,8.420465E-3,-1.5332055E-3,2.5144457E-3,-3.318423E-3],"split_indices":[8,2,6,6,11,15,10,0,0,0,0,0,0,0,0],"split_type":[0,0,0,0,0,0,0,0,0,0,0,0,0,0,0],"sum_hessian":[8.8E1,3.8E1,5E1,2.2E1,1.6E1,2.7E1,2.3E1,1.5E1,7E0,1.4E1,2E0,2.2E1,5E0,1.8E1,5E0],"tree_param":{"num_deleted":"0","num_feature":"20","num_nodes":"15","size_leaf_vector":"1"}},{"base_weights":[3.2641422E-2,2.8439084E-1,-1.1779319E0,4.2200025E-2,5.858106E-1,-5.3391443E-3,-1.36358235E-2,6.345786E-3,-1.6936011E-3,6.3063204E-3,-4.0182685E-3],"categories":[],"categories_nodes":[],"categories_segments":[],"categories_sizes":[],"default_left":[0,0,0,0,0,0,0,0,0,0,0],"id":18,"left_children":[1,3,5,7,9,-1,-1,-1,-1,-1,-1],"loss_changes":[2.6544453E1,5.2313576E0,1.0653934E0,5.2457438E0,1.66996E0,0E0,0E0,0E0,0E0,0E0,0E0],"parents":[2147483647,0,0,1,1,2,2,3,3,4,4],"right_children":[2,4,6,8,10,-1,-1,-1,-1,-1,-1],"split_conditions":[1.1073864E0,1.6432908E-1,-2.7263284E-1,-7.6514494E-1,2.371012E0,-5.3391443E-3,-1.36358235E-2,6.345786E-3,-1.6936011E-3,6.3063204E-3,-4.0182685E-3],"split_indices":[0,4,1,0,1,0,0,0,0,0,0],"split_type":[0,0,0,0,0,0,0,0,0,0,0],"sum_hessian":[8.5E1,7.1E1,1.4E1,4E1,3.1E1,4E0,1E1,1E1,3E1,3E1,1E0],"tree_param":{"num_deleted":"0","num_feature":"20","num_nodes":"11","size_leaf_vector":"1"}},{"base_weights":[3.9431367E-2,2.2104833E-1,-1.1140953E0,-1.69953E-1,4.526731E-1,-4.9274835E-1,-1.4875218E-2,2.675394E-4,-9.284553E-3,-1.6466123E-3,5.6208777E-3,-5.7681785E-3,-3.6200284E-4],"categories":[],"categories_nodes":[],"categories_segments":[],"categories_sizes":[],"default_left":[0,0,0,0,0,0,0,0,0,0,0,0,0],"id":19,"left_children":[1,3,5,7,9,11,-1,-1,-1,-1,-1,-1,-1],"loss_changes":[1.8472769E1,6.9599185E0,2.0513563E0,4.351717E0,3.3347359E0,2.0940983E-1,0E0,0E0,0E0,0E0,0E0,0E0,0E0],"parents":[2147483647,0,0,1,1,2,2,3,3,4,4,5,5],"right_children":[2,4,6,8,10,12,-1,-1,-1,-1,-1,-1,-1],"split_conditions":[1.2526733E0,-1.0526219E-1,-4.0275764E-1,3.0548674E-1,-1.2123852E0,-1.0076262E0,-1.4875218E-2,2.675394E-4,-9.284553E-3,-1.6466123E-3,5.6208777E-3,-5.7681785E-3,-3.6200284E-4],"split_indices":[2,8,4,1,18,4,0,0,0,0,0,0,0],"split_type":[0,0,0,0,0,0,0,0,0,0,0,0,0],"sum_hessian":[8.6E1,7.5E1,1.1E1,2.8E1,4.7E1,5E0,6E0,2.3E1,5E0,7E0,4E1,4E0,1E0],"tree_param":{"num_deleted":"0","num_feature":"20","num_nodes":"13","size_leaf_vector":"1"}},{"base_weights":[1.3807014E-2,2.5875705E-1,-1.0676671E0,2.2754675E-2,6.540913E-1,5.746169E-3,-1.2062235E0,-4.7487626E-3,1.6620692E-3,8.721536E-3,-8.3625315E-7,-6.0562235E-3,-1.4241674E-2],"categories":[],"categories_nodes":[],"categories_segments":[],"categories_sizes":[],"default_left":[0,0,0,0,0,0,0,0,0,0,0,0,0],"id":20,"left_children":[1,3,5,7,9,-1,11,-1,-1,-1,-1,-1,-1],"loss_changes":[2.4382818E1,6.9826026E0,4.561445E0,3.5054693E0,3.994297E0,0E0,1.2318516E0,0E0,0E0,0E0,0E0,0E0,0E0],"parents":[2147483647,0,0,1,1,2,2,3,3,4,4,6,6],"right_children":[2,4,6,8,10,-1,12,-1,-1,-1,-1,-1,-1],"split_conditions":[1.1073864E0,3.2960787E-1,-1.6666763E0,-6.093309E-1,1.0570012E0,5.746169E-3,2.753442E-1,-4.7487626E-3,1.6620692E-3,8.721536E-3,-8.3625315E-7,-6.0562235E-3,-1.4241674E-2],"split_indices":[0,8,1,14,1,0,15,0,0,0,0,0,0],"split_type":[0,0,0,0,0,0,0,0,0,0,0,0,0],"sum_hessian":[9E1,7.4E1,1.6E1,4.7E1,2.7E1,1E0,1.5E1,1E1,3.7E1,2E1,7E0,5E0,1E1],"tree_param":{"num_deleted":"0","num_feature":"20","num_nodes":"13","size_leaf_vector":"1"}},{"base_weights":[-4.4750966E-2,2.2412936E-1,-1.3323932E0,5.7661396E-1,1.2363874E-2,-4.7539854E-3,-1.5070252E-2,6.4861164E-3,-2.1557189E-3,1.5079444E-3,-6.6403067E-3],"categories":[],"categories_nodes":[],"categories_segments":[],"categories_sizes":[],"default_left":[0,0,0,0,0,0,0,0,0,0,0],"id":21,"left_children":[1,3,5,7,9,-1,-1,-1,-1,-1,-1],"loss_changes":[3.007369E1,5.367244E0,1.5284443E0,1.6797838E0,4.4072814E0,0E0,0E0,0E0,0E0,0E0,0E0],"parents":[2147483647,0,0,1,1,2,2,3,3,4,4],"right_children":[2,4,6,8,10,-1,-1,-1,-1,-1,-1],"split_conditions":[1.1189145E0,-5.303895E-1,-2.7263284E-1,7.1405387E-1,5.2425367E-1,-4.7539854E-3,-1.5070252E-2,6.4861164E-3,-2.1557189E-3,1.5079444E-3,-6.6403067E-3],"split_indices":[0,9,1,18,2,0,0,0,0,0,0],"split_type":[0,0,0,0,0,0,0,0,0,0,0],"sum_hessian":[8.5E1,7.1E1,1.4E1,2.6E1,4.5E1,3E0,1.1E1,2.4E1,2E0,3.8E1,7E0],"tree_param":{"num_deleted":"0","num_feature":"20","num_nodes":"11","size_leaf_vector":"1"}},{"base_weights":[-5.4550383E-2,2.1938483E-1,-1.1041672E0,3.011904E-1,-9.5340896E-1,5.7412074E-3,-1.2293011E0,8.67052E-4,6.3162274E-3,-1.5645282E-3,-1.4325621E-2,-5.309852E-3,-1.3908924E-2],"categories":[],"categories_nodes":[],"categories_segments":[],"categories_sizes":[],"default_left":[0,0,0,0,0,0,0,0,0,0,0,0,0],"id":22,"left_children":[1,3,5,7,9,-1,11,-1,-1,-1,-1,-1,-1],"loss_changes":[2.6407198E1,7.2908554E0,4.6959686E0,4.835461E0,1.6851916E0,0E0,1.2926083E0,0E0,0E0,0E0,0E0,0E0,0E0],"parents":[2147483647,0,0,1,1,2,2,3,3,4,4,6,6],"right_children":[2,4,6,8,10,-1,12,-1,-1,-1,-1,-1,-1],"split_conditions":[1.1073864E0,1.1945603E0,-2.4026136E0,3.24361E-1,-4.0275764E-1,5.7412074E-3,-6.1970454E-1,8.67052E-4,6.3162274E-3,-1.5645282E-3,-1.4325621E-2,-5.309852E-3,-1.3908924E-2],"split_indices":[0,2,3,8,4,0,10,0,0,0,0,0,0],"split_type":[0,0,0,0,0,0,0,0,0,0,0,0,0],"sum_hessian":[9E1,7.2E1,1.8E1,6.8E1,4E0,1E0,1.7E1,4.2E1,2.6E1,2E0,2E0,4E0,1.3E1],"tree_param":{"num_deleted":"0","num_feature":"20","num_nodes":"13","size_leaf_vector":"1"}},{"base_weights":[-3.1653006E-2,3.0819482E-1,-8.486329E-1,5.887058E-1,6.5874726E-2,-1.6242744E-1,-1.2427286E0,6.937888E-3,-2.6778113E-3,1.5139771E-3,-9.2534395E-3,3.6166725E-3,-6.594509E-3,-5.9702755E-3,-1.5406538E-2],"categories":[],"categories_nodes":[],"categories_segments":[],"categories_sizes":[],"default_left":[0,0,0,0,0,0,0,0,0,0,0,0,0,0,0],"id":23,"left_children":[1,3,5,7,9,11,13,-1,-1,-1,-1,-1,-1,-1,-1],"loss_changes":[2.552759E1,4.3794928E0,7.0997715E0,2.8858519E0,3.1918857E0,3.1038623E0,2.3504887E0,0E0,0E0,0E0,0E0,0E0,0E0,0E0,0E0],"parents":[2147483647,0,0,1,1,2,2,3,3,4,4,5,5,6,6],"right_children":[2,4,6,8,10,12,14,-1,-1,-1,-1,-1,-1,-1,-1],"split_conditions":[4.984796E-1,-5.303895E-1,-1.0049465E-1,1.1333797E0,1.7370197E0,2.0177358E-1,-6.1970454E-1,6.937888E-3,-2.6778113E-3,1.5139771E-3,-9.2534395E-3,3.6166725E-3,-6.594509E-3,-5.9702755E-3,-1.5406538E-2],"split_indices":[0,9,16,12,1,3,10,0,0,0,0,0,0,0,0],"split_type":[0,0,0,0,0,0,0,0,0,0,0,0,0,0,0],"sum_hessian":[9E1,6.4E1,2.6E1,2.9E1,3.5E1,1E1,1.6E1,2.6E1,3E0,3.3E1,2E0,5E0,5E0,6E0,1E1],"tree_param":{"num_deleted":"0","num_feature":"20","num_nodes":"15","size_leaf_vector":"1"}},{"base_weights":[2.0186901E-2,2.3722196E-1,-1.0518652E0,3.1814516E-1,-9.4314706E-1,5.6944177E-3,-1.2083472E0,1.0460203E-3,6.5435814E-3,-1.5712006E-3,-1.4147917E-2,-1.3693406E-2,-4.6352837E-3],"categories":[],"categories_nodes":[],"categories_segments":[],"categories_sizes":[],"default_left":[0,0,0,0,0,0,0,0,0,0,0,0,0],"id":24,"left_children":[1,3,5,7,9,-1,11,-1,-1,-1,-1,-1,-1],"loss_changes":[2.0724741E1,7.3684797E0,4.493664E0,4.9572716E0,1.6313343E0,0E0,1.0440254E0,0E0,0E0,0E0,0E0,0E0,0E0],"parents":[2147483647,0,0,1,1,2,2,3,3,4,4,6,6],"right_children":[2,4,6,8,10,-1,12,-1,-1,-1,-1,-1,-1],"split_conditions":[9.584614E-1,1.2526733E0,-2.4026136E0,3.2960787E-1,-4.0275764E-1,5.6944177E-3,6.8900263E-1,1.0460203E-3,6.5435814E-3,-1.5712006E-3,-1.4147917E-2,-1.3693406E-2,-4.6352837E-3],"split_indices":[0,2,3,8,4,0,7,0,0,0,0,0,0],"split_type":[0,0,0,0,0,0,0,0,0,0,0,0,0],"sum_hessian":[8.7E1,7.3E1,1.4E1,6.9E1,4E0,1E0,1.3E1,4.3E1,2.6E1,2E0,2E0,1E1,3E0],"tree_param":{"num_deleted":"0","num_feature":"20","num_nodes":"13","size_leaf_vector":"1"}},{"base_weights":[-2.9112771E-2,2.6025355E-1,-1.0115026E0,4.53009E-1,-1.4590337E-2,5.0248257E-3,-1.2076389E0,6.763935E-5,5.6435894E-3,4.2317375E-3,-2.3274287E-3,-3.5976472E-3,-1.29113775E-2],"categories":[],"categories_nodes":[],"categories_segments":[],"categories_sizes":[],"default_left":[0,0,0,0,0,0,0,0,0,0,0,0,0],"id":25,"left_children":[1,3,5,7,9,-1,11,-1,-1,-1,-1,-1,-1],"loss_changes":[2.4994781E1,3.6090899E0,6.545765E0,1.983757E0,2.8679717E0,0E0,8.0983543E-1,0E0,0E0,0E0,0E0,0E0,0E0],"parents":[2147483647,0,0,1,1,2,2,3,3,4,4,6,6],"right_children":[2,4,6,8,10,-1,12,-1,-1,-1,-1,-1,-1],"split_conditions":[5.3164035E-1,8.100721E-2,-1.4944923E0,-4.7516862E-1,-7.6277906E-1,5.0248257E-3,-4.6204445E-1,6.763935E-5,5.6435894E-3,4.2317375E-3,-2.3274287E-3,-3.5976472E-3,-1.29113775E-2],"split_indices":[0,6,1,14,0,0,1,0,0,0,0,0,0],"split_type":[0,0,0,0,0,0,0,0,0,0,0,0,0],"sum_hessian":[8.6E1,6.7E1,1.9E1,3.9E1,2.8E1,2E0,1.7E1,8E0,3.1E1,9E0,1.9E1,2E0,1.5E1],"tree_param":{"num_deleted":"0","num_feature":"20","num_nodes":"13","size_leaf_vector":"1"}},{"base_weights":[-4.486477E-2,-7.386231E-1,3.2671064E-1,-1.4848544E-1,-1.3582042E0,4.0503392E-1,-3.0179253E-1,5.8422815E-3,-3.4722607E-3,-4.441563E-3,-1.4646611E-2,9.941633E-4,5.7798293E-3,2.3525239E-3,-4.305087E-3],"categories":[],"categories_nodes":[],"categories_segments":[],"categories_sizes":[],"default_left":[0,0,0,0,0,0,0,0,0,0,0,0,0,0,0],"id":26,"left_children":[1,3,5,7,9,11,13,-1,-1,-1,-1,-1,-1,-1,-1],"loss_changes":[2.2926268E1,1.113311E1,2.9773698E0,2.6783988E0,8.0906105E-1,2.6910648E0,5.851628E-1,0E0,0E0,0E0,0E0,0E0,0E0,0E0,0E0],"parents":[2147483647,0,0,1,1,2,2,3,3,4,4,5,5,6,6],"right_children":[2,4,6,8,10,12,14,-1,-1,-1,-1,-1,-1,-1,-1],"split_conditions":[-3.88934E-1,-1.0049465E-1,4.0355086E-1,-1.5258048E0,-7.069706E-2,-3.071756E-1,-1.253735E0,5.8422815E-3,-3.4722607E-3,-4.441563E-3,-1.4646611E-2,9.941633E-4,5.7798293E-3,2.3525239E-3,-4.305087E-3],"split_indices":[8,16,9,1,15,14,7,0,0,0,0,0,0,0,0],"split_type":[0,0,0,0,0,0,0,0,0,0,0,0,0,0,0],"sum_hessian":[8.7E1,3E1,5.7E1,1.6E1,1.4E1,5.1E1,6E0,3E0,1.3E1,2E0,1.2E1,1.9E1,3.2E1,1E0,5E0],"tree_param":{"num_deleted":"0","num_feature":"20","num_nodes":"15","size_leaf_vector":"1"}},{"base_weights":[3.7631367E-3,1.7382586E-1,-1.2643193E0,-1.495672E-1,5.008669E-1,-1.5270406E0,-4.227968E-1,-3.836719E-3,3.4604734E-3,6.773807E-3,1.12063E-3,-1.6416492E-2,-3.6239028E-3,-5.466764E-3,-2.5578975E-4],"categories":[],"categories_nodes":[],"categories_segments":[],"categories_sizes":[],"default_left":[0,0,0,0,0,0,0,0,0,0,0,0,0,0,0],"id":27,"left_children":[1,3,5,7,9,11,13,-1,-1,-1,-1,-1,-1,-1,-1],"loss_changes":[2.0059898E1,8.747465E0,1.7863178E0,5.005848E0,2.7378902E0,4.7291183E-1,1.8284535E-1,0E0,0E0,0E0,0E0,0E0,0E0,0E0,0E0],"parents":[2147483647,0,0,1,1,2,2,3,3,4,4,5,5,6,6],"right_children":[2,4,6,8,10,12,14,-1,-1,-1,-1,-1,-1,-1,-1],"split_conditions":[1.3224809E0,-3.1570935E-1,1.1025444E0,-4.865436E-2,-1.2601669E-1,2.2315345E0,1.6606413E0,-3.836719E-3,3.4604734E-3,6.773807E-3,1.12063E-3,-1.6416492E-2,-3.6239028E-3,-5.466764E-3,-2.5578975E-4],"split_indices":[2,5,10,19,15,1,2,0,0,0,0,0,0,0,0],"split_type":[0,0,0,0,0,0,0,0,0,0,0,0,0,0,0],"sum_hessian":[9.1E1,8.1E1,1E1,4.1E1,4E1,7E0,3E0,2.8E1,1.3E1,2.7E1,1.3E1,6E0,1E0,2E0,1E0],"tree_param":{"num_deleted":"0","num_feature":"20","num_nodes":"15","size_leaf_vector":"1"}},{"base_weights":[1.5407706E-2,2.918103E-1,-9.665919E-1,4.6073705E-1,-1.3233614E-1,4.945116E-3,-1.1564096E0,2.3906638E-3,6.489233E-3,4.8794452E-4,-7.217129E-3,-1.26861585E-2,-4.4653392E-3],"categories":[],"categories_nodes":[],"categories_segments":[],"categories_sizes":[],"default_left":[0,0,0,0,0,0,0,0,0,0,0,0,0],"id":28,"left_children":[1,3,5,7,9,-1,11,-1,-1,-1,-1,-1,-1],"loss_changes":[2.4710512E1,5.1480994E0,6.118725E0,1.9723492E0,2.277053E0,0E0,8.672619E-1,0E0,0E0,0E0,0E0,0E0,0E0],"parents":[2147483647,0,0,1,1,2,2,3,3,4,4,6,6],"right_children":[2,4,6,8,10,-1,12,-1,-1,-1,-1,-1,-1],"split_conditions":[6.872958E-1,3.473001E-1,-1.4944923E0,-1.4856304E-1,2.9239717E-1,4.945116E-3,-2.6071668E-1,2.3906638E-3,6.489233E-3,4.8794452E-4,-7.217129E-3,-1.26861585E-2,-4.4653392E-3],"split_indices":[0,10,1,5,16,0,5,0,0,0,0,0,0],"split_type":[0,0,0,0,0,0,0,0,0,0,0,0,0],"sum_hessian":[8.9E1,7E1,1.9E1,5E1,2E1,2E0,1.7E1,2.4E1,2.6E1,1.6E1,4E0,1.4E1,3E0],"tree_param":{"num_deleted":"0","num_feature":"20","num_nodes":"13","size_leaf_vector":"1"}},{"base_weights":[2.7062574E-2,-6.0036314E-1,3.1184605E-1,-8.001611E-2,-1.1893301E0,4.8920682E-1,3.753949E-2,5.872041E-3,-3.3048417E-3,-5.575726E-3,-1.3862757E-2,6.354577E-3,4.5867485E-4,2.5068324E-3,-3.4987323E-3],"categories":[],"categories_nodes":[],"categories_segments":[],"categories_sizes":[],"default_left":[0,0,0,0,0,0,0,0,0,0,0,0,0,0,0],"id":29,"left_children":[1,3,5,7,9,11,13,-1,-1,-1,-1,-1,-1,-1,-1],"loss_changes":[1.7161867E1,9.09885E0,3.1926155E0,3.0350566E0,9.689579E-1,2.5644045E0,2.3172216E0,0E0,0E0,0E0,0E0,0E0,0E0,0E0,0E0],"parents":[2147483647,0,0,1,1,2,2,3,3,4,4,5,5,6,6],"right_children":[2,4,6,8,10,12,14,-1,-1,-1,-1,-1,-1,-1,-1],"split_conditions":[-3.88934E-1,-1.0049465E-1,8.100721E-2,-1.5258048E0,-6.1970454E-1,7.3030585E-1,6.859424E-2,5.872041E-3,-3.3048417E-3,-5.575726E-3,-1.3862757E-2,6.354577E-3,4.5867485E-4,2.5068324E-3,-3.4987323E-3],"split_indices":[8,16,6,1,10,18,17,0,0,0,0,0,0,0,0],"split_type":[0,0,0,0,0,0,0,0,0,0,0,0,0,0,0],"sum_hessian":[9.4E1,2.9E1,6.5E1,1.6E1,1.3E1,3.9E1,2.6E1,4E0,1.2E1,4E0,9E0,2.9E1,1E1,1.7E1,9E0],"tree_param":{"num_deleted":"0","num_feature":"20","num_nodes":"15","size_leaf_vector":"1"}},{"base_weights":[-4.7546204E-2,1.6011593E-1,-1.2011248E0,-5.674455E-2,5.718429E-1,-1.4457529E0,-4.716436E-1,7.961879E-4,-6.374324E-3,8.372565E-3,-5.201282E-4,-1.9805026E-3,-1.5623809E-2,-5.808267E-3,-1.7455577E-4],"categories":[],"categories_nodes":[],"categories_segments":[],"categories_sizes":[],"default_left":[0,0,0,0,0,0,0,0,0,0,0,0,0,0,0],"id":30,"left_children":[1,3,5,7,9,11,13,-1,-1,-1,-1,-1,-1,-1,-1],"loss_changes":[2.1991785E1,6.996859E0,1.8164406E0,4.1683474E0,4.514203E0,1.1457424E0,2.3780966E-1,0E0,0E0,0E0,0E0,0E0,0E0,0E0,0E0],"parents":[2147483647,0,0,1,1,2,2,3,3,4,4,5,5,6,6],"right_children":[2,4,6,8,10,12,14,-1,-1,-1,-1,-1,-1,-1,-1],"split_conditions":[1.2526733E0,3.2960787E-1,1.1025444E0,1.0383135E0,1.0570012E0,1.3224809E0,1.6606413E0,7.961879E-4,-6.374324E-3,8.372565E-3,-5.201282E-4,-1.9805026E-3,-1.5623809E-2,-5.808267E-3,-1.7455577E-4],"split_indices":[2,8,10,10,1,2,2,0,0,0,0,0,0,0,0],"split_type":[0,0,0,0,0,0,0,0,0,0,0,0,0,0,0],"sum_hessian":[9E1,7.7E1,1.3E1,5.1E1,2.6E1,9E0,4E0,4.2E1,9E0,1.8E1,8E0,1E0,8E0,3E0,1E0],"tree_param":{"num_deleted":"0","num_feature":"20","num_nodes":"15","size_leaf_vector":"1"}},{"base_weights":[-1.9911977E-2,2.7518106E-1,-8.217685E-1,3.399593E-1,-8.462607E-3,-1.002562E-2,-1.1368893E0,9.927922E-4,6.353111E-3,3.1226578E-3,-6.5126657E-3,-4.7258157E-3,-1.2929357E-2],"categories":[],"categories_nodes":[],"categories_segments":[],"categories_sizes":[],"default_left":[0,0,0,0,0,0,0,0,0,0,0,0,0],"id":31,"left_children":[1,3,5,7,-1,9,11,-1,-1,-1,-1,-1,-1],"loss_changes":[2.1995384E1,5.227556E0,6.3835297E0,4.5574713E0,0E0,1.8567001E0,1.2549133E0,0E0,0E0,0E0,0E0,0E0,0E0],"parents":[2147483647,0,0,1,1,2,2,3,3,5,5,6,6],"right_children":[2,4,6,8,-1,10,12,-1,-1,-1,-1,-1,-1],"split_conditions":[4.984796E-1,1.7370197E0,-4.54666E-1,3.2960787E-1,-8.462607E-3,-1.0049465E-1,-2.7263284E-1,9.927922E-4,6.353111E-3,3.1226578E-3,-6.5126657E-3,-4.7258157E-3,-1.2929357E-2],"split_indices":[0,1,7,8,0,16,1,0,0,0,0,0,0],"split_type":[0,0,0,0,0,0,0,0,0,0,0,0,0],"sum_hessian":[9.1E1,6.7E1,2.4E1,6.4E1,3E0,7E0,1.7E1,3.6E1,2.8E1,5E0,2E0,4E0,1.3E1],"tree_param":{"num_deleted":"0","num_feature":"20","num_nodes":"13","size_leaf_vector":"1"}},{"base_weights":[-3.4188077E-2,2.561601E-1,-8.433189E-1,3.2640386E-1,-1.3511744E-2,1.6538124E-1,-1.053328E0,9.462575E-3,2.4732961E-3,-2.1210273E-3,4.877381E-3,-3.8626872E-3,-1.1483226E-2],"categories":[],"categories_nodes":[],"categories_segments":[],"categories_sizes":[],"default_left":[0,0,0,0,0,0,0,0,0,0,0,0,0],"id":32,"left_children":[1,3,5,7,-1,9,11,-1,-1,-1,-1,-1,-1],"loss_changes":[2.1359694E1,8.005676E0,5.2582703E0,2.9519024E0,0E0,7.118734E-1,8.2377815E-1,0E0,0E0,0E0,0E0,0E0,0E0],"parents":[2147483647,0,0,1,1,2,2,3,3,5,5,6,6],"right_children":[2,4,6,8,-1,10,12,-1,-1,-1,-1,-1,-1],"split_conditions":[6.872958E-1,1.3224809E0,-4.54666E-1,-1.427181E0,-1.3511744E-2,9.584614E-1,-3.3263135E-1,9.462575E-3,2.4732961E-3,-2.1210273E-3,4.877381E-3,-3.8626872E-3,-1.1483226E-2],"split_indices":[0,2,7,6,0,0,1,0,0,0,0,0,0],"split_type":[0,0,0,0,0,0,0,0,0,0,0,0,0],"sum_hessian":[8.9E1,6.6E1,2.3E1,6.4E1,2E0,4E0,1.9E1,6E0,5.8E1,2E0,2E0,3E0,1.6E1],"tree_param":{"num_deleted":"0","num_feature":"20","num_nodes":"13","size_leaf_vector":"1"}},{"base_weights":[3.9072968E-2,2.7463692E-1,-7.480008E-1,5.4361027E-2,6.453207E-1,1.1438837E-1,-9.5764464E-1,2.3305905E-3,-2.536745E-3,7.994929E-3,-1.6210135E-3,5.0673983E-3,-1.1038446E-3,-4.127002E-3,-1.2173689E-2],"categories":[],"categories_nodes":[],"categories_segments":[],"categories_sizes":[],"default_left":[0,0,0,0,0,0,0,0,0,0,0,0,0,0,0],"id":33,"left_children":[1,3,5,7,9,11,13,-1,-1,-1,-1,-1,-1,-1,-1],"loss_changes":[1.6891987E1,5.6806083E0,3.90623E0,2.536162E0,3.3661327E0,4.9688596E-1,1.9036903E0,0E0,0E0,0E0,0E0,0E0,0E0,0E0,0E0],"parents":[2147483647,0,0,1,1,2,2,3,3,4,4,5,5,6,6],"right_children":[2,4,6,8,10,12,14,-1,-1,-1,-1,-1,-1,-1,-1],"split_conditions":[6.3374054E-1,3.2960787E-1,-9.587158E-2,5.2995086E-1,3.9245848E-2,3.749716E-2,-3.481755E-1,2.3305905E-3,-2.536745E-3,7.994929E-3,-1.6210135E-3,5.0673983E-3,-1.1038446E-3,-4.127002E-3,-1.2173689E-2],"split_indices":[2,8,15,3,2,1,16,0,0,0,0,0,0,0,0],"split_type":[0,0,0,0,0,0,0,0,0,0,0,0,0,0,0],"sum_hessian":[8.9E1,6.9E1,2E1,4.4E1,2.5E1,4E0,1.6E1,2.8E1,1.6E1,2.1E1,4E0,1E0,3E0,6E0,1E1],"tree_param":{"num_deleted":"0","num_feature":"20","num_nodes":"15","size_leaf_vector":"1"}},{"base_weights":[-2.9427703E-2,1.8851423E-1,-1.1462345E0,4.8025554E-1,-1.7529693E-1,-3.8615812E-3,-1.2334648E0,3.176127E-3,8.311534E-3,3.0135433E-3,-4.370869E-3,-1.3337107E-2,-4.547415E-3],"categories":[],"categories_nodes":[],"categories_segments":[],"categories_sizes":[],"default_left":[0,0,0,0,0,0,0,0,0,0,0,0,0],"id":34,"left_children":[1,3,5,7,9,-1,11,-1,-1,-1,-1,-1,-1],"loss_changes":[2.2365393E1,8.25687E0,5.182133E-1,2.1900702E0,4.4991064E0,0E0,4.0833664E-1,0E0,0E0,0E0,0E0,0E0,0E0],"parents":[2147483647,0,0,1,1,2,2,3,3,4,4,6,6],"right_children":[2,4,6,8,10,-1,12,-1,-1,-1,-1,-1,-1],"split_conditions":[1.1189145E0,8.100721E-2,-9.952506E-1,9.674378E-1,-3.204144E-1,-3.8615812E-3,-4.5910192E-1,3.176127E-3,8.311534E-3,3.0135433E-3,-4.370869E-3,-1.3337107E-2,-4.547415E-3],"split_indices":[0,6,6,8,7,0,8,0,0,0,0,0,0],"split_type":[0,0,0,0,0,0,0,0,0,0,0,0,0],"sum_hessian":[9E1,7.6E1,1.4E1,4.2E1,3.4E1,2E0,1.2E1,3E1,1.2E1,1.2E1,2.2E1,1E1,2E0],"tree_param":{"num_deleted":"0","num_feature":"20","num_nodes":"13","size_leaf_vector":"1"}},{"base_weights":[-3.1245338E-2,-7.6249486E-1,3.049224E-1,-1.0176598E-1,-1.2516812E0,1.8154737E-1,7.0614237E-1,-5.0346246E-3,3.1446852E-3,-1.3764123E-2,-5.333845E-3,-2.6289464E-4,4.086E-3,8.218583E-3,-3.9908215E-3],"categories":[],"categories_nodes":[],"categories_segments":[],"categories_sizes":[],"default_left":[0,0,0,0,0,0,0,0,0,0,0,0,0,0,0],"id":35,"left_children":[1,3,5,7,9,11,13,-1,-1,-1,-1,-1,-1,-1,-1],"loss_changes":[2.1864882E1,8.92277E0,2.8913336E0,2.3319223E0,6.9934654E-1,2.275857E0,2.1184773E0,0E0,0E0,0E0,0E0,0E0,0E0,0E0,0E0],"parents":[2147483647,0,0,1,1,2,2,3,3,4,4,5,5,6,6],"right_children":[2,4,6,8,10,12,14,-1,-1,-1,-1,-1,-1,-1,-1],"split_conditions":[-3.88934E-1,-1.0049465E-1,1.1687317E0,-5.048015E-1,-2.6071668E-1,2.845407E-2,2.371012E0,-5.0346246E-3,3.1446852E-3,-1.3764123E-2,-5.333845E-3,-2.6289464E-4,4.086E-3,8.218583E-3,-3.9908215E-3],"split_indices":[8,16,8,11,5,4,1,0,0,0,0,0,0,0,0],"split_type":[0,0,0,0,0,0,0,0,0,0,0,0,0,0,0],"sum_hessian":[8.7E1,2.7E1,6E1,1.2E1,1.5E1,4.7E1,1.3E1,6E0,6E0,1.2E1,3E0,2.5E1,2.2E1,1.2E1,1E0],"tree_param":{"num_deleted":"0","num_feature":"20","num_nodes":"15","size_leaf_vector":"1"}},{"base_weights":[2.8923568E-3,-6.917735E-1,3.03866E-1,3.8799126E-2,-1.0186279E0,1.7204678E-1,7.672088E-1,-4.4393796E-3,5.137764E-3,-2.2504616E-3,-1.22929085E-2,-6.75545E-4,3.6090538E-3,8.302799E-3,5.1777362E-5],"categories":[],"categories_nodes":[],"categories_segments":[],"categories_sizes":[],"default_left":[0,0,0,0,0,0,0,0,0,0,0,0,0,0,0],"id":36,"left_children":[1,3,5,7,9,11,13,-1,-1,-1,-1,-1,-1,-1,-1],"loss_changes":[1.7981674E1,6.248086E0,3.5326543E0,2.291687E0,2.732561E0,2.1964173E0,6.2050915E-1,0E0,0E0,0E0,0E0,0E0,0E0,0E0,0E0],"parents":[2147483647,0,0,1,1,2,2,3,3,4,4,5,5,6,6],"right_children":[2,4,6,8,10,12,14,-1,-1,-1,-1,-1,-1,-1,-1],"split_conditions":[-3.88934E-1,-2.0663576E-1,1.1687317E0,1.0423523E0,-4.6204445E-1,-3.071756E-1,-1.9954683E-2,-4.4393796E-3,5.137764E-3,-2.2504616E-3,-1.22929085E-2,-6.75545E-4,3.6090538E-3,8.302799E-3,5.1777362E-5],"split_indices":[8,12,8,9,1,14,0,0,0,0,0,0,0,0,0],"split_type":[0,0,0,0,0,0,0,0,0,0,0,0,0,0,0],"sum_hessian":[8.4E1,2.5E1,5.9E1,8E0,1.7E1,4.7E1,1.2E1,4E0,4E0,4E0,1.3E1,2.1E1,2.6E1,1.1E1,1E0],"tree_param":{"num_deleted":"0","num_feature":"20","num_nodes":"15","size_leaf_vector":"1"}},{"base_weights":[-7.5667866E-2,1.20287605E-1,-1.162015E0,-1.0008099E-1,4.960856E-1,-1.4076526E0,-4.383367E-1,3.1760006E-4,-6.3062096E-3,7.2782254E-3,-1.6996812E-4,-1.4902334E-2,-3.3221245E-3,-1.2738466E-4,-5.4155164E-3],"categories":[],"categories_nodes":[],"categories_segments":[],"categories_sizes":[],"default_left":[0,0,0,0,0,0,0,0,0,0,0,0,0,0,0],"id":37,"left_children":[1,3,5,7,9,11,13,-1,-1,-1,-1,-1,-1,-1,-1],"loss_changes":[1.951146E1,6.5091467E0,1.8716507E0,3.517375E0,3.4604745E0,3.9303207E-1,2.1274185E-1,0E0,0E0,0E0,0E0,0E0,0E0,0E0,0E0],"parents":[2147483647,0,0,1,1,2,2,3,3,4,4,5,5,6,6],"right_children":[2,4,6,8,10,12,14,-1,-1,-1,-1,-1,-1,-1,-1],"split_conditions":[1.2526733E0,3.2960787E-1,1.1025444E0,1.1073864E0,1.0570012E0,2.2315345E0,9.584614E-1,3.1760006E-4,-6.3062096E-3,7.2782254E-3,-1.6996812E-4,-1.4902334E-2,-3.3221245E-3,-1.2738466E-4,-5.4155164E-3],"split_indices":[2,8,10,0,1,1,0,0,0,0,0,0,0,0,0],"split_type":[0,0,0,0,0,0,0,0,0,0,0,0,0,0,0],"sum_hessian":[9E1,7.7E1,1.3E1,4.9E1,2.8E1,9E0,4E0,4E1,9E0,1.9E1,9E0,8E0,1E0,1E0,3E0],"tree_param":{"num_deleted":"0","num_feature":"20","num_nodes":"15","size_leaf_vector":"1"}},{"base_weights":[-5.5273224E-2,1.800476E-1,-1.1040443E0,2.6289904E-1,-8.3036906E-1,-4.425536E-3,-1.2735374E0,3.6097542E-4,4.589083E-3,-2.6768015E-3,-1.3038312E-2,-1.370299E-2,-4.9423254E-3],"categories":[],"categories_nodes":[],"categories_segments":[],"categories_sizes":[],"default_left":[0,0,0,0,0,0,0,0,0,0,0,0,0],"id":38,"left_children":[1,3,5,7,9,-1,11,-1,-1,-1,-1,-1,-1],"loss_changes":[2.290417E1,6.5806036E0,1.3423977E0,3.1397533E0,1.2494617E0,0E0,3.0304146E-1,0E0,0E0,0E0,0E0,0E0,0E0],"parents":[2147483647,0,0,1,1,2,2,3,3,4,4,6,6],"right_children":[2,4,6,8,10,-1,12,-1,-1,-1,-1,-1,-1],"split_conditions":[1.1189145E0,1.2526733E0,-2.7263284E-1,-3.1570935E-1,9.0287364E-1,-4.425536E-3,1.4047798E0,3.6097542E-4,4.589083E-3,-2.6768015E-3,-1.3038312E-2,-1.370299E-2,-4.9423254E-3],"split_indices":[0,2,1,5,1,0,10,0,0,0,0,0,0],"split_type":[0,0,0,0,0,0,0,0,0,0,0,0,0],"sum_hessian":[9.1E1,7.5E1,1.6E1,7E1,5E0,4E0,1.2E1,3.3E1,3.7E1,3E0,2E0,1E1,2E0],"tree_param":{"num_deleted":"0","num_feature":"20","num_nodes":"13","size_leaf_vector":"1"}},{"base_weights":[-1.3960983E-2,-6.306446E-1,3.2651895E-1,-7.247885E-2,-1.1842804E0,1.3495795E-1,6.121571E-1,3.0571064E-3,-4.4261515E-3,-5.1998696E-3,-1.3623793E-2,-9.8485034E-5,4.6495884E-3,8.283559E-3,-3.4829548E-6],"categories":[],"categories_nodes":[],"categories_segments":[],"categories_sizes":[],"default_left":[0,0,0,0,0,0,0,0,0,0,0,0,0,0,0],"id":39,"left_children":[1,3,5,7,9,11,13,-1,-1,-1,-1,-1,-1,-1,-1],"loss_changes":[1.8893105E1,9.802823E0,3.0909781E0,2.515E0,1.1845379E0,1.7248843E0,3.0460176E0,0E0,0E0,0E0,0E0,0E0,0E0,0E0,0E0],"parents":[2147483647,0,0,1,1,2,2,3,3,4,4,5,5,6,6],"right_children":[2,4,6,8,10,12,14,-1,-1,-1,-1,-1,-1,-1,-1],"split_conditions":[-4.3029463E-1,-1.0049465E-1,5.885085E-1,-2.001162E-1,-6.1970454E-1,5.0190884E-1,1.0570012E0,3.0571064E-3,-4.4261515E-3,-5.1998696E-3,-1.3623793E-2,-9.8485034E-5,4.6495884E-3,8.283559E-3,-3.4829548E-6],"split_indices":[8,16,8,12,10,4,1,0,0,0,0,0,0,0,0],"split_type":[0,0,0,0,0,0,0,0,0,0,0,0,0,0,0],"sum_hessian":[8.8E1,3.1E1,5.7E1,1.6E1,1.5E1,3.5E1,2.2E1,8E0,8E0,4E0,1.1E1,2.5E1,1E1,1.6E1,6E0],"tree_param":{"num_deleted":"0","num_feature":"20","num_nodes":"15","size_leaf_vector":"1"}},{"base_weights":[-1.0569305E-2,2.157822E-1,-9.405383E-1,5.561865E-1,7.9406776E-2,5.5599282E-3,-1.061275E0,3.5368763E-3,7.868864E-3,1.4839311E-3,-8.200206E-3,-3.5860883E-3,-1.1862313E-2],"categories":[],"categories_nodes":[],"categories_segments":[],"categories_sizes":[],"default_left":[0,0,0,0,0,0,0,0,0,0,0,0,0],"id":40,"left_children":[1,3,5,7,9,-1,11,-1,-1,-1,-1,-1,-1],"loss_changes":[1.935844E1,3.391121E0,3.842413E0,7.02734E-1,3.472288E0,0E0,1.0672512E0,0E0,0E0,0E0,0E0,0E0,0E0],"parents":[2147483647,0,0,1,1,2,2,3,3,4,4,6,6],"right_children":[2,4,6,8,10,-1,12,-1,-1,-1,-1,-1,-1],"split_conditions":[1.1073864E0,-7.805841E-1,-1.6666763E0,-4.0755004E-1,1.7370197E0,5.5599282E-3,-3.3263135E-1,3.5368763E-3,7.868864E-3,1.4839311E-3,-8.200206E-3,-3.5860883E-3,-1.1862313E-2],"split_indices":[0,0,1,5,1,0,1,0,0,0,0,0,0],"split_type":[0,0,0,0,0,0,0,0,0,0,0,0,0],"sum_hessian":[9E1,7.3E1,1.7E1,2E1,5.3E1,1E0,1.6E1,1.2E1,8E0,5E1,3E0,3E0,1.3E1],"tree_param":{"num_deleted":"0","num_feature":"20","num_nodes":"13","size_leaf_vector":"1"}},{"base_weights":[-6.476763E-2,1.1548871E-1,-1.0515512E0,4.6840686E-1,-9.5738135E-2,-1.2604977E0,-4.23348E-1,6.818586E-3,1.5324632E-3,3.9154887E-3,-2.6435957E-3,-1.4480423E-2,-3.4021267E-3,-5.2425233E-3,-9.865284E-5],"categories":[],"categories_nodes":[],"categories_segments":[],"categories_sizes":[],"default_left":[0,0,0,0,0,0,0,0,0,0,0,0,0,0,0],"id":41,"left_children":[1,3,5,7,9,11,13,-1,-1,-1,-1,-1,-1,-1,-1],"loss_changes":[1.61301E1,5.7848697E0,1.3040237E0,1.8463831E0,4.1296945E0,1.2333031E0,2.0343924E-1,0E0,0E0,0E0,0E0,0E0,0E0,0E0,0E0],"parents":[2147483647,0,0,1,1,2,2,3,3,4,4,5,5,6,6],"right_children":[2,4,6,8,10,12,14,-1,-1,-1,-1,-1,-1,-1,-1],"split_conditions":[1.2526733E0,-5.303895E-1,1.1025444E0,1.5359215E-2,-8.850075E-1,-2.6071668E-1,1.6606413E0,6.818586E-3,1.5324632E-3,3.9154887E-3,-2.6435957E-3,-1.4480423E-2,-3.4021267E-3,-5.2425233E-3,-9.865284E-5],"split_indices":[2,9,10,6,1,5,2,0,0,0,0,0,0,0,0],"split_type":[0,0,0,0,0,0,0,0,0,0,0,0,0,0,0],"sum_hessian":[8.9E1,7.6E1,1.3E1,2.8E1,4.8E1,9E0,4E0,1.6E1,1.2E1,1.2E1,3.6E1,7E0,2E0,3E0,1E0],"tree_param":{"num_deleted":"0","num_feature":"20","num_nodes":"15","size_leaf_vector":"1"}},{"base_weights":[-2.336415E-2,-7.141488E-1,3.0080622E-1,-1.9565067E-1,-1.2196037E0,6.9176644E-2,5.4514813E-1,-5.3214952E-3,1.2519842E-3,-6.0420404E-3,-1.3884576E-2,2.0141334E-3,-1.5992982E-3,7.1896967E-3,-1.5352146E-3],"categories":[],"categories_nodes":[],"categories_segments":[],"categories_sizes":[],"default_left":[0,0,0,0,0,0,0,0,0,0,0,0,0,0,0],"id":42,"left_children":[1,3,5,7,9,11,13,-1,-1,-1,-1,-1,-1,-1,-1],"loss_changes":[2.104049E1,7.623705E0,3.5844846E0,1.7940701E0,7.1977806E-1,1.0622857E0,3.8751373E0,0E0,0E0,0E0,0E0,0E0,0E0,0E0,0E0],"parents":[2147483647,0,0,1,1,2,2,3,3,4,4,5,5,6,6],"right_children":[2,4,6,8,10,12,14,-1,-1,-1,-1,-1,-1,-1,-1],"split_conditions":[-3.88934E-1,-1.628457E-1,3.2960787E-1,-2.0839916E-1,-2.586979E-1,4.4730368E-1,7.80451E-1,-5.3214952E-3,1.2519842E-3,-6.0420404E-3,-1.3884576E-2,2.0141334E-3,-1.5992982E-3,7.1896967E-3,-1.5352146E-3],"split_indices":[8,16,8,14,10,3,18,0,0,0,0,0,0,0,0],"split_type":[0,0,0,0,0,0,0,0,0,0,0,0,0,0,0],"sum_hessian":[9.2E1,2.9E1,6.3E1,1.5E1,1.4E1,3.3E1,3E1,7E0,8E0,4E0,1E1,2.1E1,1.2E1,2.4E1,6E0],"tree_param":{"num_deleted":"0","num_feature":"20","num_nodes":"15","size_leaf_vector":"1"}},{"base_weights":[3.698686E-2,2.4552539E-1,-7.876366E-1,3.724595E-2,5.640529E-1,5.581975E-3,-8.996384E-1,-2.2232463E-3,2.8391145E-3,7.2030765E-3,-7.612637E-5,-5.8670607E-3,-1.1126109E-2],"categories":[],"categories_nodes":[],"categories_segments":[],"categories_sizes":[],"default_left":[0,0,0,0,0,0,0,0,0,0,0,0,0],"id":43,"left_children":[1,3,5,7,9,-1,11,-1,-1,-1,-1,-1,-1],"loss_changes":[1.532637E1,4.689325E0,3.2154226E0,2.8803139E0,2.5065975E0,0E0,4.802065E-1,0E0,0E0,0E0,0E0,0E0,0E0],"parents":[2147483647,0,0,1,1,2,2,3,3,4,4,6,6],"right_children":[2,4,6,8,10,-1,12,-1,-1,-1,-1,-1,-1],"split_conditions":[1.1073864E0,3.2960787E-1,-2.4026136E0,-7.5516395E-2,7.6154655E-1,5.581975E-3,5.8938664E-1,-2.2232463E-3,2.8391145E-3,7.2030765E-3,-7.612637E-5,-5.8670607E-3,-1.1126109E-2],"split_indices":[0,8,3,14,16,0,10,0,0,0,0,0,0],"split_type":[0,0,0,0,0,0,0,0,0,0,0,0,0],"sum_hessian":[8.7E1,7E1,1.7E1,4.3E1,2.7E1,1E0,1.6E1,2.1E1,2.2E1,2.1E1,6E0,8E0,8E0],"tree_param":{"num_deleted":"0","num_feature":"20","num_nodes":"13","size_leaf_vector":"1"}},{"base_weights":[-7.5052224E-2,1.0939406E-1,-1.0182723E0,3.6218643E-1,-1.8379115E-1,-3.139572E-3,-1.1094949E0,6.3435882E-3,1.4526831E-3,1.5529783E-3,-4.938312E-3,-4.4587837E-3,-1.2811584E-2],"categories":[],"categories_nodes":[],"categories_segments":[],"categories_sizes":[],"default_left":[0,0,0,0,0,0,0,0,0,0,0,0,0],"id":44,"left_children":[1,3,5,7,9,-1,11,-1,-1,-1,-1,-1,-1],"loss_changes":[1.4899134E1,5.4028454E0,5.5115986E-1,2.2103739E0,3.6511502E0,0E0,7.9578495E-1,0E0,0E0,0E0,0E0,0E0,0E0],"parents":[2147483647,0,0,1,1,2,2,3,3,4,4,6,6],"right_children":[2,4,6,8,10,-1,12,-1,-1,-1,-1,-1,-1],"split_conditions":[1.1189145E0,1.5359215E-2,-3.363387E-1,-2.0310685E-1,3.7452152E-1,-3.139572E-3,-9.952506E-1,6.3435882E-3,1.4526831E-3,1.5529783E-3,-4.938312E-3,-4.4587837E-3,-1.2811584E-2],"split_indices":[0,6,14,0,3,0,6,0,0,0,0,0,0],"split_type":[0,0,0,0,0,0,0,0,0,0,0,0,0],"sum_hessian":[8.4E1,7.1E1,1.3E1,3.8E1,3.3E1,2E0,1.1E1,1.6E1,2.2E1,1.6E1,1.7E1,3E0,8E0],"tree_param":{"num_deleted":"0","num_feature":"20","num_nodes":"13","size_leaf_vector":"1"}},{"base_weights":[-4.380719E-2,1.7560987E-1,-9.4471234E-1,1.0474749E-2,4.724341E-1,5.569763E-3,-1.0733789E0,-2.1013627E-3,2.4022213E-3,6.110798E-3,-2.0436468E-3,-3.1186421E-3,-1.15989065E-2],"categories":[],"categories_nodes":[],"categories_segments":[],"categories_sizes":[],"default_left":[0,0,0,0,0,0,0,0,0,0,0,0,0],"id":45,"left_children":[1,3,5,7,9,-1,11,-1,-1,-1,-1,-1,-1],"loss_changes":[1.7165863E1,3.4261787E0,3.882536E0,2.3819807E0,2.4707642E0,0E0,6.923542E-1,0E0,0E0,0E0,0E0,0E0,0E0],"parents":[2147483647,0,0,1,1,2,2,3,3,4,4,6,6],"right_children":[2,4,6,8,10,-1,12,-1,-1,-1,-1,-1,-1],"split_conditions":[1.1073864E0,3.2960787E-1,-2.4026136E0,-7.5516395E-2,-8.466773E-2,5.569763E-3,-7.547378E-1,-2.1013627E-3,2.4022213E-3,6.110798E-3,-2.0436468E-3,-3.1186421E-3,-1.15989065E-2],"split_indices":[0,8,3,14,15,0,16,0,0,0,0,0,0],"split_type":[0,0,0,0,0,0,0,0,0,0,0,0,0],"sum_hessian":[8.5E1,6.9E1,1.6E1,4.5E1,2.4E1,1E0,1.5E1,2.3E1,2.2E1,2E1,4E0,2E0,1.3E1],"tree_param":{"num_deleted":"0","num_feature":"20","num_nodes":"13","size_leaf_vector":"1"}},{"base_weights":[-8.689554E-2,-6.551076E-1,2.3789573E-1,-7.3697716E-2,-1.1355215E0,2.0755831E-2,5.2369016E-1,3.505581E-3,-4.4262535E-3,-5.636113E-3,-1.3121322E-2,1.2159625E-3,-3.8557097E-3,7.7138674E-3,-2.368927E-5],"categories":[],"categories_nodes":[],"categories_segments":[],"categories_sizes":[],"default_left":[0,0,0,0,0,0,0,0,0,0,0,0,0,0,0],"id":46,"left_children":[1,3,5,7,9,11,13,-1,-1,-1,-1,-1,-1,-1,-1],"loss_changes":[1.6765375E1,9.133788E0,3.5884583E0,2.659481E0,1.0785675E0,1.4400055E0,3.2594037E0,0E0,0E0,0E0,0E0,0E0,0E0,0E0,0E0],"parents":[2147483647,0,0,1,1,2,2,3,3,4,4,5,5,6,6],"right_children":[2,4,6,8,10,12,14,-1,-1,-1,-1,-1,-1,-1,-1],"split_conditions":[-3.88934E-1,-1.0049465E-1,5.885085E-1,5.0087076E-1,-2.586979E-1,7.669383E-1,1.0570012E0,3.505581E-3,-4.4262535E-3,-5.636113E-3,-1.3121322E-2,1.2159625E-3,-3.8557097E-3,7.7138674E-3,-2.368927E-5],"split_indices":[8,16,8,3,10,10,1,0,0,0,0,0,0,0,0],"split_type":[0,0,0,0,0,0,0,0,0,0,0,0,0,0,0],"sum_hessian":[8.9E1,3.2E1,5.7E1,1.5E1,1.7E1,3.3E1,2.4E1,7E0,8E0,5E0,1.2E1,2.7E1,6E0,1.6E1,8E0],"tree_param":{"num_deleted":"0","num_feature":"20","num_nodes":"15","size_leaf_vector":"1"}},{"base_weights":[4.7667276E-2,4.0594307E-1,-3.991555E-1,1.4208475E-1,6.7467237E-1,-6.984357E-2,-8.59958E-1,2.5681544E-3,-4.1409335E-3,7.3224828E-3,-3.5357545E-3,1.4536754E-3,-5.453381E-3,-3.7456574E-3,-1.03099095E-2],"categories":[],"categories_nodes":[],"categories_segments":[],"categories_sizes":[],"default_left":[0,0,0,0,0,0,0,0,0,0,0,0,0,0,0],"id":47,"left_children":[1,3,5,7,9,11,13,-1,-1,-1,-1,-1,-1,-1,-1],"loss_changes":[1.472984E1,3.5203686E0,6.161595E0,1.8292344E0,1.738965E0,2.6375675E0,1.0251331E0,0E0,0E0,0E0,0E0,0E0,0E0,0E0,0E0],"parents":[2147483647,0,0,1,1,2,2,3,3,4,4,5,5,6,6],"right_children":[2,4,6,8,10,12,14,-1,-1,-1,-1,-1,-1,-1,-1],"split_conditions":[-8.466773E-2,3.24361E-1,7.395215E-1,8.961653E-1,1.625143E0,5.2995086E-1,-3.6031753E-1,2.5681544E-3,-4.1409335E-3,7.3224828E-3,-3.5357545E-3,1.4536754E-3,-5.453381E-3,-3.7456574E-3,-1.03099095E-2],"split_indices":[15,8,2,10,18,3,16,0,0,0,0,0,0,0,0],"split_type":[0,0,0,0,0,0,0,0,0,0,0,0,0,0,0],"sum_hessian":[9E1,5E1,4E1,2.6E1,2.4E1,2.4E1,1.6E1,2.2E1,4E0,2.3E1,1E0,1.7E1,7E0,5E0,1.1E1],"tree_param":{"num_deleted":"0","num_feature":"20","num_nodes":"15","size_leaf_vector":"1"}},{"base_weights":[7.724388E-2,2.7283347E-1,-6.550754E-1,4.9117178E-2,5.0184065E-1,4.735026E-3,-8.257415E-1,1.24971E-3,-8.016473E-3,5.4246015E-3,-3.989911E-3,-9.369351E-3,-2.5792706E-3],"categories":[],"categories_nodes":[],"categories_segments":[],"categories_sizes":[],"default_left":[0,0,0,0,0,0,0,0,0,0,0,0,0],"id":48,"left_children":[1,3,5,7,9,-1,11,-1,-1,-1,-1,-1,-1],"loss_changes":[1.2210384E1,3.4079385E0,3.8579721E0,2.3588634E0,1.4239502E0,0E0,7.6853657E-1,0E0,0E0,0E0,0E0,0E0,0E0],"parents":[2147483647,0,0,1,1,2,2,3,3,4,4,6,6],"right_children":[2,4,6,8,10,-1,12,-1,-1,-1,-1,-1,-1],"split_conditions":[6.727313E-1,-2.7436918E-1,-1.4944923E0,1.6022165E0,2.371012E0,4.735026E-3,1.8362846E-2,1.24971E-3,-8.016473E-3,5.4246015E-3,-3.989911E-3,-9.369351E-3,-2.5792706E-3],"split_indices":[0,5,1,1,1,0,12,0,0,0,0,0,0],"split_type":[0,0,0,0,0,0,0,0,0,0,0,0,0],"sum_hessian":[8.3E1,6.6E1,1.7E1,3.4E1,3.2E1,2E0,1.5E1,3.2E1,2E0,3.1E1,1E0,1.2E1,3E0],"tree_param":{"num_deleted":"0","num_feature":"20","num_nodes":"13","size_leaf_vector":"1"}},{"base_weights":[-1.0130725E-2,-5.664588E-1,2.7275947E-1,-3.2835245E-2,-1.0646788E0,1.4997873E-1,7.1456695E-1,3.0270065E-3,-5.074815E-3,-5.472458E-3,-1.2501258E-2,-1.0801851E-3,3.823616E-3,3.9456683E-4,8.337273E-3],"categories":[],"categories_nodes":[],"categories_segments":[],"categories_sizes":[],"default_left":[0,0,0,0,0,0,0,0,0,0,0,0,0,0,0],"id":49,"left_children":[1,3,5,7,9,11,13,-1,-1,-1,-1,-1,-1,-1,-1],"loss_changes":[1.4476066E1,8.20676E0,3.2018023E0,2.7017887E0,8.511772E-1,2.9790554E0,1.0129066E0,0E0,0E0,0E0,0E0,0E0,0E0,0E0,0E0],"parents":[2147483647,0,0,1,1,2,2,3,3,4,4,5,5,6,6],"right_children":[2,4,6,8,10,12,14,-1,-1,-1,-1,-1,-1,-1,-1],"split_conditions":[-3.88934E-1,-1.0049465E-1,1.2853425E0,5.0087076E-1,-2.586979E-1,6.893536E-2,-2.3330498E-1,3.0270065E-3,-5.074815E-3,-5.472458E-3,-1.2501258E-2,-1.0801851E-3,3.823616E-3,3.9456683E-4,8.337273E-3],"split_indices":[8,16,8,3,10,4,13,0,0,0,0,0,0,0,0],"split_type":[0,0,0,0,0,0,0,0,0,0,0,0,0,0,0],"sum_hessian":[9E1,3E1,6E1,1.5E1,1.5E1,4.8E1,1.2E1,9E0,6E0,5E0,1E1,2.3E1,2.5E1,2E0,1E1],"tree_param":{"num_deleted":"0","num_feature":"20","num_nodes":"15","size_leaf_vector":"1"}},{"base_weights":[-4.039659E-2,1.4883304E-1,-1.0090822E0,-3.332723E-2,5.0742924E-1,-1.2015213E0,-3.8389993E-1,-2.6225545E-3,3.1710279E-3,7.27771E-3,-1.9460855E-3,-1.3607064E-2,-3.234585E-3,-5.8734415E-5,-4.7693816E-3],"categories":[],"categories_nodes":[],"categories_segments":[],"categories_sizes":[],"default_left":[0,0,0,0,0,0,0,0,0,0,0,0,0,0,0],"id":50,"left_children":[1,3,5,7,9,11,13,-1,-1,-1,-1,-1,-1,-1,-1],"loss_changes":[1.6830849E1,5.046704E0,1.343379E0,4.254775E0,4.1635237E0,1.0973902E0,1.7305344E-1,0E0,0E0,0E0,0E0,0E0,0E0,0E0,0E0],"parents":[2147483647,0,0,1,1,2,2,3,3,4,4,5,5,6,6],"right_children":[2,4,6,8,10,12,14,-1,-1,-1,-1,-1,-1,-1,-1],"split_conditions":[1.2526733E0,3.24361E-1,1.1025444E0,-4.865436E-2,1.0570012E0,-4.5910192E-1,9.584614E-1,-2.6225545E-3,3.1710279E-3,7.27771E-3,-1.9460855E-3,-1.3607064E-2,-3.234585E-3,-5.8734415E-5,-4.7693816E-3],"split_indices":[2,8,10,19,1,8,0,0,0,0,0,0,0,0,0],"split_type":[0,0,0,0,0,0,0,0,0,0,0,0,0,0,0],"sum_hessian":[9E1,7.6E1,1.4E1,5.1E1,2.5E1,1E1,4E0,3.1E1,2E1,1.9E1,6E0,8E0,2E0,1E0,3E0],"tree_param":{"num_deleted":"0","num_feature":"20","num_nodes":"15","size_leaf_vector":"1"}},{"base_weights":[5.9903596E-2,2.5880325E-1,-5.999345E-1,4.0627855E-1,-8.521557E-3,5.576346E-1,-8.0145156E-1,8.1934435E-3,3.1792608E-3,3.4865984E-3,-2.6014831E-3,6.4172773E-3,1.5267753E-3,-3.0371551E-3,-9.069034E-3],"categories":[],"categories_nodes":[],"categories_segments":[],"categories_sizes":[],"default_left":[0,0,0,0,0,0,0,0,0,0,0,0,0,0,0],"id":51,"left_children":[1,3,5,7,9,11,13,-1,-1,-1,-1,-1,-1,-1,-1],"loss_changes":[1.3016937E1,2.9996715E0,5.812126E0,1.5277843E0,2.6072426E0,3.823912E-2,7.743025E-1,0E0,0E0,0E0,0E0,0E0,0E0,0E0,0E0],"parents":[2147483647,0,0,1,1,2,2,3,3,4,4,5,5,6,6],"right_children":[2,4,6,8,10,12,14,-1,-1,-1,-1,-1,-1,-1,-1],"split_conditions":[6.872958E-1,2.7051497E-1,-1.4944923E0,-1.427181E0,-6.829837E-1,-1.5258048E0,-4.4090924E-1,8.1934435E-3,3.1792608E-3,3.4865984E-3,-2.6014831E-3,6.4172773E-3,1.5267753E-3,-3.0371551E-3,-9.069034E-3],"split_indices":[0,10,1,6,16,1,16,0,0,0,0,0,0,0,0],"split_type":[0,0,0,0,0,0,0,0,0,0,0,0,0,0,0],"sum_hessian":[9.7E1,7.5E1,2.2E1,4.8E1,2.7E1,3E0,1.9E1,7E0,4.1E1,1.1E1,1.6E1,2E0,1E0,4E0,1.5E1],"tree_param":{"num_deleted":"0","num_feature":"20","num_nodes":"15","size_leaf_vector":"1"}},{"base_weights":[5.570069E-3,1.8849787E-1,-9.094403E-1,2.5614998E-1,-8.0986154E-1,-4.77362E-3,-1.0777433E0,1.0607657E-3,5.1181256E-3,-1.2805255E-3,-1.2217166E-2,-1.1882544E-2,-4.2379936E-3],"categories":[],"categories_nodes":[],"categories_segments":[],"categories_sizes":[],"default_left":[0,0,0,0,0,0,0,0,0,0,0,0,0],"id":52,"left_children":[1,3,5,7,9,-1,11,-1,-1,-1,-1,-1,-1],"loss_changes":[1.5068322E1,5.2730293E0,5.763273E-1,2.669847E0,1.2475886E0,0E0,2.1909904E-1,0E0,0E0,0E0,0E0,0E0,0E0],"parents":[2147483647,0,0,1,1,2,2,3,3,4,4,6,6],"right_children":[2,4,6,8,10,-1,12,-1,-1,-1,-1,-1,-1],"split_conditions":[9.584614E-1,1.2526733E0,2.872385E-1,3.2960787E-1,-4.0275764E-1,-4.77362E-3,1.4047798E0,1.0607657E-3,5.1181256E-3,-1.2805255E-3,-1.2217166E-2,-1.1882544E-2,-4.2379936E-3],"split_indices":[0,2,10,8,4,0,10,0,0,0,0,0,0],"split_type":[0,0,0,0,0,0,0,0,0,0,0,0,0],"sum_hessian":[8.8E1,7.4E1,1.4E1,7E1,4E0,5E0,9E0,4.5E1,2.5E1,2E0,2E0,7E0,2E0],"tree_param":{"num_deleted":"0","num_feature":"20","num_nodes":"13","size_leaf_vector":"1"}},{"base_weights":[-2.471559E-2,1.6775464E-1,-8.6522806E-1,3.7134314E-1,-3.4838483E-2,5.4897782E-3,-9.96107E-1,4.532854E-3,-2.1096773E-3,3.8851276E-3,-2.6270214E-3,-1.1285885E-2,-3.4963558E-3],"categories":[],"categories_nodes":[],"categories_segments":[],"categories_sizes":[],"default_left":[0,0,0,0,0,0,0,0,0,0,0,0,0],"id":53,"left_children":[1,3,5,7,9,-1,11,-1,-1,-1,-1,-1,-1],"loss_changes":[1.3895905E1,2.9001312E0,3.508277E0,1.7656846E0,3.574852E0,0E0,8.9008904E-1,0E0,0E0,0E0,0E0,0E0,0E0],"parents":[2147483647,0,0,1,1,2,2,3,3,4,4,6,6],"right_children":[2,4,6,8,10,-1,12,-1,-1,-1,-1,-1,-1],"split_conditions":[1.1073864E0,8.100721E-2,-1.6666763E0,1.0362711E0,-7.6277906E-1,5.4897782E-3,6.8900263E-1,4.532854E-3,-2.1096773E-3,3.8851276E-3,-2.6270214E-3,-1.1285885E-2,-3.4963558E-3],"split_indices":[0,6,1,18,0,0,7,0,0,0,0,0,0],"split_type":[0,0,0,0,0,0,0,0,0,0,0,0,0],"sum_hessian":[8.4E1,6.9E1,1.5E1,3.4E1,3.5E1,1E0,1.4E1,3E1,4E0,1.2E1,2.3E1,1.1E1,3E0],"tree_param":{"num_deleted":"0","num_feature":"20","num_nodes":"13","size_leaf_vector":"1"}},{"base_weights":[7.450869E-3,2.587107E-1,-6.3064915E-1,8.106746E-2,5.12304E-1,3.5081506E-3,-8.6447066E-1,1.8313455E-3,-3.5009272E-3,6.8328464E-3,2.0814418E-4,5.2128183E-3,-4.114124E-3,-6.191834E-3,-1.2927291E-2],"categories":[],"categories_nodes":[],"categories_segments":[],"categories_sizes":[],"default_left":[0,0,0,0,0,0,0,0,0,0,0,0,0,0,0],"id":54,"left_children":[1,3,5,7,9,11,13,-1,-1,-1,-1,-1,-1,-1,-1],"loss_changes":[1.4753087E1,2.9317122E0,3.858302E0,1.8244048E0,2.2547278E0,1.9331415E0,1.1954441E0,0E0,0E0,0E0,0E0,0E0,0E0,0E0,0E0],"parents":[2147483647,0,0,1,1,2,2,3,3,4,4,5,5,6,6],"right_children":[2,4,6,8,10,12,14,-1,-1,-1,-1,-1,-1,-1,-1],"split_conditions":[4.984796E-1,3.2960787E-1,-4.0739158E-1,8.961653E-1,1.0570012E0,6.6061325E-2,1.5956705E0,1.8313455E-3,-3.5009272E-3,6.8328464E-3,2.0814418E-4,5.2128183E-3,-4.114124E-3,-6.191834E-3,-1.2927291E-2],"split_indices":[0,8,7,10,1,11,15,0,0,0,0,0,0,0,0],"split_type":[0,0,0,0,0,0,0,0,0,0,0,0,0,0,0],"sum_hessian":[9E1,6.5E1,2.5E1,3.9E1,2.6E1,7E0,1.8E1,3.2E1,7E0,1.9E1,7E0,3E0,4E0,1.3E1,5E0],"tree_param":{"num_deleted":"0","num_feature":"20","num_nodes":"15","size_leaf_vector":"1"}},{"base_weights":[5.3518124E-2,2.100347E-1,-1.0896496E0,4.1789445E-1,-1.9199768E-2,-3.8463902E-3,-1.3059486E-2,5.429806E-3,1.6017047E-4,3.2775658E-3,-1.8554173E-3],"categories":[],"categories_nodes":[],"categories_segments":[],"categories_sizes":[],"default_left":[0,0,0,0,0,0,0,0,0,0,0],"id":55,"left_children":[1,3,5,7,9,-1,-1,-1,-1,-1,-1],"loss_changes":[1.6332088E1,3.8199131E0,1.1751041E0,2.1026134E0,2.311635E0,0E0,0E0,0E0,0E0,0E0,0E0],"parents":[2147483647,0,0,1,1,2,2,3,3,4,4],"right_children":[2,4,6,8,10,-1,-1,-1,-1,-1,-1],"split_conditions":[1.2526733E0,8.100721E-2,-1.0076262E0,3.3493486E-1,-3.9202845E-1,-3.8463902E-3,-1.3059486E-2,5.429806E-3,1.6017047E-4,3.2775658E-3,-1.8554173E-3],"split_indices":[2,6,4,16,7,0,0,0,0,0,0],"split_type":[0,0,0,0,0,0,0,0,0,0,0],"sum_hessian":[8.9E1,7.9E1,1E1,4.1E1,3.8E1,3E0,7E0,3.1E1,1E1,1.2E1,2.6E1],"tree_param":{"num_deleted":"0","num_feature":"20","num_nodes":"11","size_leaf_vector":"1"}},{"base_weights":[-2.690554E-2,1.8754868E-1,-6.689229E-1,3.5726586E-1,-1.9748662E-1,5.409117E-3,-7.6106745E-1,6.0392977E-3,1.978626E-3,3.2308912E-3,-3.1528764E-3,-8.040396E-3,6.214857E-5],"categories":[],"categories_nodes":[],"categories_segments":[],"categories_sizes":[],"default_left":[0,0,0,0,0,0,0,0,0,0,0,0,0],"id":56,"left_children":[1,3,5,7,9,-1,11,-1,-1,-1,-1,-1,-1],"loss_changes":[1.1002439E1,3.9913821E0,2.641264E0,1.5319042E0,1.2670287E0,0E0,6.314583E-1,0E0,0E0,0E0,0E0,0E0,0E0],"parents":[2147483647,0,0,1,1,2,2,3,3,4,4,6,6],"right_children":[2,4,6,8,10,-1,12,-1,-1,-1,-1,-1,-1],"split_conditions":[6.872958E-1,3.473001E-1,-1.6666763E0,-6.518996E-1,-2.2234306E-1,5.409117E-3,1.2270083E0,6.0392977E-3,1.978626E-3,3.2308912E-3,-3.1528764E-3,-8.040396E-3,6.214857E-5],"split_indices":[0,10,1,9,12,0,11,0,0,0,0,0,0],"split_type":[0,0,0,0,0,0,0,0,0,0,0,0,0],"sum_hessian":[7.8E1,5.9E1,1.9E1,4.1E1,1.8E1,1E0,1.8E1,1.5E1,2.6E1,3E0,1.5E1,1.7E1,1E0],"tree_param":{"num_deleted":"0","num_feature":"20","num_nodes":"13","size_leaf_vector":"1"}},{"base_weights":[1.6633138E-2,-5.5868983E-1,2.3318045E-1,-2.2993512E-2,-7.954997E-1,-2.6922384E-1,3.0348304E-1,2.6638638E-3,-2.120812E-3,-2.6355623E-4,-9.4757145E-3,-7.0722104E-5,-3.9912094E-3,4.908773E-3,7.9776306E-4],"categories":[],"categories_nodes":[],"categories_segments":[],"categories_sizes":[],"default_left":[0,0,0,0,0,0,0,0,0,0,0,0,0,0,0],"id":57,"left_children":[1,3,5,7,9,11,13,-1,-1,-1,-1,-1,-1,-1,-1],"loss_changes":[1.1841232E1,3.2800198E0,2.518807E0,5.4895914E-1,2.0803976E0,3.0365205E-1,2.518043E0,0E0,0E0,0E0,0E0,0E0,0E0,0E0,0E0],"parents":[2147483647,0,0,1,1,2,2,3,3,4,4,5,5,6,6],"right_children":[2,4,6,8,10,12,14,-1,-1,-1,-1,-1,-1,-1,-1],"split_conditions":[-4.3029463E-1,6.871844E-2,-1.2123852E0,-3.812539E-1,-4.1061747E-1,3.451195E-1,3.314926E-1,2.6638638E-3,-2.120812E-3,-2.6355623E-4,-9.4757145E-3,-7.0722104E-5,-3.9912094E-3,4.908773E-3,7.9776306E-4],"split_indices":[8,0,18,6,2,3,18,0,0,0,0,0,0,0,0],"split_type":[0,0,0,0,0,0,0,0,0,0,0,0,0,0,0],"sum_hessian":[9.3E1,2.5E1,6.8E1,8E0,1.7E1,8E0,6E1,3E0,5E0,3E0,1.4E1,3E0,5E0,3.2E1,2.8E1],"tree_param":{"num_deleted":"0","num_feature":"20","num_nodes":"15","size_leaf_vector":"1"}},{"base_weights":[5.400825E-3,1.590785E-1,-8.072812E-1,2.1588854E-1,-8.890695E-1,-8.883684E-1,-2.1383858E-3,2.9950452E-3,-3.2411925E-3,-1.1927072E-2,1.09217166E-4,-9.94759E-3,-4.268976E-3],"categories":[],"categories_nodes":[],"categories_segments":[],"categories_sizes":[],"default_left":[0,0,0,0,0,0,0,0,0,0,0,0,0],"id":58,"left_children":[1,3,5,7,9,11,-1,-1,-1,-1,-1,-1,-1],"loss_changes":[1.0993945E1,4.598295E0,4.8372173E-1,3.3029575E0,1.1061113E0,1.6449356E-1,0E0,0E0,0E0,0E0,0E0,0E0,0E0],"parents":[2147483647,0,0,1,1,2,2,3,3,4,4,5,5],"right_children":[2,4,6,8,10,12,-1,-1,-1,-1,-1,-1,-1],"split_conditions":[9.584614E-1,1.2526733E0,-2.5329697E-1,1.030524E0,5.407431E-1,-6.456253E-1,-2.1383858E-3,2.9950452E-3,-3.2411925E-3,-1.1927072E-2,1.09217166E-4,-9.94759E-3,-4.268976E-3],"split_indices":[0,2,19,10,0,8,0,0,0,0,0,0,0],"split_type":[0,0,0,0,0,0,0,0,0,0,0,0,0],"sum_hessian":[8.6E1,7.3E1,1.3E1,7E1,3E0,1.1E1,2E0,6.1E1,9E0,2E0,1E0,8E0,3E0],"tree_param":{"num_deleted":"0","num_feature":"20","num_nodes":"13","size_leaf_vector":"1"}},{"base_weights":[-1.1141352E-2,1.5572819E-1,-7.466752E-1,-1.6117701E-2,3.3265418E-1,5.440142E-3,-8.6134416E-1,7.5401313E-4,-5.3203916E-3,5.4076225E-3,-8.621756E-5,-9.778725E-3,-4.0940717E-3],"categories":[],"categories_nodes":[],"categories_segments":[],"categories_sizes":[],"default_left":[0,0,0,0,0,0,0,0,0,0,0,0,0],"id":59,"left_children":[1,3,5,7,9,-1,11,-1,-1,-1,-1,-1,-1],"loss_changes":[1.1285454E1,2.2856622E0,2.9846182E0,1.8815646E0,2.6324859E0,0E0,4.4226742E-1,0E0,0E0,0E0,0E0,0E0,0E0],"parents":[2147483647,0,0,1,1,2,2,3,3,4,4,6,6],"right_children":[2,4,6,8,10,-1,12,-1,-1,-1,-1,-1,-1],"split_conditions":[1.1073864E0,-3.1570935E-1,-1.6666763E0,-4.051075E-1,-1.8105245E-1,5.440142E-3,-2.6071668E-1,7.5401313E-4,-5.3203916E-3,5.4076225E-3,-8.621756E-5,-9.778725E-3,-4.0940717E-3],"split_indices":[0,5,1,5,15,0,5,0,0,0,0,0,0],"split_type":[0,0,0,0,0,0,0,0,0,0,0,0,0],"sum_hessian":[9E1,7.4E1,1.6E1,3.8E1,3.6E1,1E0,1.5E1,3.3E1,5E0,2.2E1,1.4E1,1.1E1,4E0],"tree_param":{"num_deleted":"0","num_feature":"20","num_nodes":"13","size_leaf_vector":"1"}},{"base_weights":[-5.3547565E-2,8.988049E-2,-8.989639E-1,1.9127204E-1,-5.358572E-1,-4.281282E-1,-1.2413762E0,2.7632967E-3,-3.2118934E-3,-6.9770166E-3,5.412941E-3,-5.029796E-3,1.0490179E-4,-1.358236E-2,-2.7010858E-3],"categories":[],"categories_nodes":[],"categories_segments":[],"categories_sizes":[],"default_left":[0,0,0,0,0,0,0,0,0,0,0,0,0,0,0],"id":60,"left_children":[1,3,5,7,9,11,13,-1,-1,-1,-1,-1,-1,-1,-1],"loss_changes":[1.087262E1,4.9877224E0,1.5643911E0,3.0091994E0,2.2953033E0,2.3509479E-1,4.2764473E-1,0E0,0E0,0E0,0E0,0E0,0E0,0E0,0E0],"parents":[2147483647,0,0,1,1,2,2,3,3,4,4,5,5,6,6],"right_children":[2,4,6,8,10,12,14,-1,-1,-1,-1,-1,-1,-1,-1],"split_conditions":[1.2526733E0,1.1073864E0,6.360469E-2,1.030524E0,1.879459E0,1.9516263E0,1.3176107E0,2.7632967E-3,-3.2118934E-3,-6.9770166E-3,5.412941E-3,-5.029796E-3,1.0490179E-4,-1.358236E-2,-2.7010858E-3],"split_indices":[2,0,7,10,0,9,6,0,0,0,0,0,0,0,0],"split_type":[0,0,0,0,0,0,0,0,0,0,0,0,0,0,0],"sum_hessian":[8.8E1,7.6E1,1.2E1,6.6E1,1E1,6E0,6E0,5.7E1,9E0,9E0,1E0,5E0,1E0,5E0,1E0],"tree_param":{"num_deleted":"0","num_feature":"20","num_nodes":"15","size_leaf_vector":"1"}},{"base_weights":[-4.3056704E-2,1.8069614E-1,-6.9387513E-1,4.234317E-1,-1.322444E-3,-4.188156E-2,-9.088796E-1,6.2197777E-3,1.834204E-3,6.036282E-4,-8.027901E-3,2.6055158E-3,-3.3384429E-3,-3.6481314E-3,-1.03826905E-2],"categories":[],"categories_nodes":[],"categories_segments":[],"categories_sizes":[],"default_left":[0,0,0,0,0,0,0,0,0,0,0,0,0,0,0],"id":61,"left_children":[1,3,5,7,9,11,13,-1,-1,-1,-1,-1,-1,-1,-1],"loss_changes":[1.3668272E1,3.093326E0,3.326291E0,1.315516E0,2.075447E0,7.050781E-1,8.883629E-1,0E0,0E0,0E0,0E0,0E0,0E0,0E0,0E0],"parents":[2147483647,0,0,1,1,2,2,3,3,4,4,5,5,6,6],"right_children":[2,4,6,8,10,12,14,-1,-1,-1,-1,-1,-1,-1,-1],"split_conditions":[4.984796E-1,-5.303895E-1,-4.4090924E-1,1.5359215E-2,1.7370197E0,9.584614E-1,-7.2000414E-1,6.2197777E-3,1.834204E-3,6.036282E-4,-8.027901E-3,2.6055158E-3,-3.3384429E-3,-3.6481314E-3,-1.03826905E-2],"split_indices":[0,9,16,6,1,0,6,0,0,0,0,0,0,0,0],"split_type":[0,0,0,0,0,0,0,0,0,0,0,0,0,0,0],"sum_hessian":[9.2E1,6.9E1,2.3E1,2.9E1,4E1,6E0,1.7E1,1.5E1,1.4E1,3.8E1,2E0,3E0,3E0,4E0,1.3E1],"tree_param":{"num_deleted":"0","num_feature":"20","num_nodes":"15","size_leaf_vector":"1"}},{"base_weights":[1.9829711E-2,-4.6792054E-1,2.761925E-1,-3.540847E-2,-1.0307895E0,-7.170219E-2,3.8060915E-1,3.364102E-3,-3.6650442E-3,-4.539218E-3,-1.2367394E-2,1.3683124E-3,-4.7442857E-3,6.258523E-3,1.691902E-3],"categories":[],"categories_nodes":[],"categories_segments":[],"categories_sizes":[],"default_left":[0,0,0,0,0,0,0,0,0,0,0,0,0,0,0],"id":62,"left_children":[1,3,5,7,9,11,13,-1,-1,-1,-1,-1,-1,-1,-1],"loss_changes":[1.0882764E1,7.2669306E0,2.0978718E0,2.3392336E0,9.8309326E-1,1.2406634E0,2.1754708E0,0E0,0E0,0E0,0E0,0E0,0E0,0E0,0E0],"parents":[2147483647,0,0,1,1,2,2,3,3,4,4,5,5,6,6],"right_children":[2,4,6,8,10,12,14,-1,-1,-1,-1,-1,-1,-1,-1],"split_conditions":[-3.88934E-1,7.193591E-2,-5.6908053E-1,2.0177358E-1,-2.49992E-1,8.426231E-1,-4.0084925E-1,3.364102E-3,-3.6650442E-3,-4.539218E-3,-1.2367394E-2,1.3683124E-3,-4.7442857E-3,6.258523E-3,1.691902E-3],"split_indices":[8,16,5,3,1,11,0,0,0,0,0,0,0,0,0],"split_type":[0,0,0,0,0,0,0,0,0,0,0,0,0,0,0],"sum_hessian":[8.5E1,2.9E1,5.6E1,1.7E1,1.2E1,1.3E1,4.3E1,8E0,9E0,4E0,8E0,9E0,4E0,1.9E1,2.4E1],"tree_param":{"num_deleted":"0","num_feature":"20","num_nodes":"15","size_leaf_vector":"1"}},{"base_weights":[1.9175848E-2,2.0190619E-1,-5.560326E-1,4.2498136E-1,2.6351277E-2,6.305518E-3,-7.141232E-1,1.7057925E-3,5.9452527E-3,9.4098714E-4,-7.954018E-3,-2.041242E-3,-7.969902E-3],"categories":[],"categories_nodes":[],"categories_segments":[],"categories_sizes":[],"default_left":[0,0,0,0,0,0,0,0,0,0,0,0,0],"id":63,"left_children":[1,3,5,7,9,-1,11,-1,-1,-1,-1,-1,-1],"loss_changes":[9.151558E0,2.5734892E0,4.389636E0,1.1494231E0,2.1903698E0,0E0,6.40295E-1,0E0,0E0,0E0,0E0,0E0,0E0],"parents":[2147483647,0,0,1,1,2,2,3,3,4,4,6,6],"right_children":[2,4,6,8,10,-1,12,-1,-1,-1,-1,-1,-1],"split_conditions":[6.872958E-1,-5.303895E-1,-1.5258048E0,6.873955E-1,1.7370197E0,6.305518E-3,-4.4090924E-1,1.7057925E-3,5.9452527E-3,9.4098714E-4,-7.954018E-3,-2.041242E-3,-7.969902E-3],"split_indices":[0,9,1,8,1,0,16,0,0,0,0,0,0],"split_type":[0,0,0,0,0,0,0,0,0,0,0,0,0],"sum_hessian":[8.5E1,6.5E1,2E1,2.8E1,3.7E1,2E0,1.8E1,1.2E1,1.6E1,3.5E1,2E0,3E0,1.5E1],"tree_param":{"num_deleted":"0","num_feature":"20","num_nodes":"13","size_leaf_vector":"1"}},{"base_weights":[-8.177291E-2,-6.6419977E-1,1.8257748E-1,-1.0660456E-1,-1.0757334E0,5.9088606E-1,9.269342E-2,2.0762158E-3,-4.0560146E-3,-4.8386822E-3,-1.3007749E-2,6.888066E-3,-1.9415974E-3,5.457749E-3,-2.0890182E-5],"categories":[],"categories_nodes":[],"categories_segments":[],"categories_sizes":[],"default_left":[0,0,0,0,0,0,0,0,0,0,0,0,0,0,0],"id":64,"left_children":[1,3,5,7,9,11,13,-1,-1,-1,-1,-1,-1,-1,-1],"loss_changes":[1.3824131E1,6.310459E0,2.2206562E0,1.3055959E0,1.5017052E0,9.793315E-1,2.234237E0,0E0,0E0,0E0,0E0,0E0,0E0,0E0,0E0],"parents":[2147483647,0,0,1,1,2,2,3,3,4,4,5,5,6,6],"right_children":[2,4,6,8,10,12,14,-1,-1,-1,-1,-1,-1,-1,-1],"split_conditions":[-3.88934E-1,-1.628457E-1,-1.0000153E0,-8.536915E-2,-2.586979E-1,4.4779032E-1,-1.2824006E0,2.0762158E-3,-4.0560146E-3,-4.8386822E-3,-1.3007749E-2,6.888066E-3,-1.9415974E-3,5.457749E-3,-2.0890182E-5],"split_indices":[8,16,9,6,10,7,3,0,0,0,0,0,0,0,0],"split_type":[0,0,0,0,0,0,0,0,0,0,0,0,0,0,0],"sum_hessian":[8.8E1,2.7E1,6.1E1,1.2E1,1.5E1,1E1,5.1E1,6E0,6E0,5E0,1E1,9E0,1E0,8E0,4.3E1],"tree_param":{"num_deleted":"0","num_feature":"20","num_nodes":"15","size_leaf_vector":"1"}},{"base_weights":[-3.2458123E-2,-5.469689E-1,1.9759218E-1,-1.1276388E-1,-9.447093E-1,2.8362785E-2,3.9408106E-1,5.309534E-3,-3.179393E-3,-4.798362E-3,-1.1291621E-2,1.4692007E-3,-4.837917E-3,1.0029697E-3,5.5888775E-3],"categories":[],"categories_nodes":[],"categories_segments":[],"categories_sizes":[],"default_left":[0,0,0,0,0,0,0,0,0,0,0,0,0,0,0],"id":65,"left_children":[1,3,5,7,9,11,13,-1,-1,-1,-1,-1,-1,-1,-1],"loss_changes":[1.11158695E1,4.9017963E0,2.1501832E0,2.1499357E0,7.443962E-1,2.2569861E0,1.3964734E0,0E0,0E0,0E0,0E0,0E0,0E0,0E0,0E0],"parents":[2147483647,0,0,1,1,2,2,3,3,4,4,5,5,6,6],"right_children":[2,4,6,8,10,12,14,-1,-1,-1,-1,-1,-1,-1,-1],"split_conditions":[-3.88934E-1,-1.0049465E-1,6.893536E-2,-1.5258048E0,-2.586979E-1,9.5835906E-1,8.027643E-3,5.309534E-3,-3.179393E-3,-4.798362E-3,-1.1291621E-2,1.4692007E-3,-4.837917E-3,1.0029697E-3,5.5888775E-3],"split_indices":[8,16,4,1,10,10,8,0,0,0,0,0,0,0,0],"split_type":[0,0,0,0,0,0,0,0,0,0,0,0,0,0,0],"sum_hessian":[9.2E1,2.8E1,6.4E1,1.4E1,1.4E1,3.5E1,2.9E1,3E0,1.1E1,5E0,9E0,2.9E1,6E0,1.1E1,1.8E1],"tree_param":{"num_deleted":"0","num_feature":"20","num_nodes":"15","size_leaf_vector":"1"}},{"base_weights":[1.0476443E-2,1.449811E-1,-8.19842E-1,2.3484498E-1,-5.301297E-1,-4.02186E-3,-1.0607126E0,3.7921295E-3,3.7575047E-4,-7.3209414E-3,5.42793E-3,-2.7663086E-3,-1.1452876E-2],"categories":[],"categories_nodes":[],"categories_segments":[],"categories_sizes":[],"default_left":[0,0,0,0,0,0,0,0,0,0,0,0,0],"id":66,"left_children":[1,3,5,7,9,-1,11,-1,-1,-1,-1,-1,-1],"loss_changes":[9.611807E0,4.6139355E0,7.806082E-1,1.8653955E0,2.347606E0,0E0,1.4737463E-1,0E0,0E0,0E0,0E0,0E0,0E0],"parents":[2147483647,0,0,1,1,2,2,3,3,4,4,6,6],"right_children":[2,4,6,8,10,-1,12,-1,-1,-1,-1,-1,-1],"split_conditions":[1.1654638E0,1.1073864E0,1.0351532E0,8.100721E-2,1.8108957E0,-4.02186E-3,1.2626759E0,3.7921295E-3,3.7575047E-4,-7.3209414E-3,5.42793E-3,-2.7663086E-3,-1.1452876E-2],"split_indices":[2,0,9,6,0,0,2,0,0,0,0,0,0],"split_type":[0,0,0,0,0,0,0,0,0,0,0,0,0],"sum_hessian":[8.4E1,7.3E1,1.1E1,6.5E1,8E0,5E0,6E0,3.7E1,2.8E1,7E0,1E0,1E0,5E0],"tree_param":{"num_deleted":"0","num_feature":"20","num_nodes":"13","size_leaf_vector":"1"}},{"base_weights":[-2.3086863E-2,1.2534763E-1,-9.4617206E-1,-6.027789E-2,4.6027195E-1,-1.1306901E0,-2.4833387E-1,2.5951227E-3,-2.3215604E-3,6.1138873E-3,-1.020078E-3,-1.7818402E-3,-1.2167259E-2,1.7817735E-4,-3.429903E-3],"categories":[],"categories_nodes":[],"categories_segments":[],"categories_sizes":[],"default_left":[0,0,0,0,0,0,0,0,0,0,0,0,0,0,0],"id":67,"left_children":[1,3,5,7,9,11,13,-1,-1,-1,-1,-1,-1,-1,-1],"loss_changes":[1.2861245E1,5.063555E0,1.3931408E0,2.9733894E0,2.526494E0,6.0269547E-1,1.0688318E-1,0E0,0E0,0E0,0E0,0E0,0E0,0E0,0E0],"parents":[2147483647,0,0,1,1,2,2,3,3,4,4,5,5,6,6],"right_children":[2,4,6,8,10,12,14,-1,-1,-1,-1,-1,-1,-1,-1],"split_conditions":[1.2526733E0,3.2960787E-1,1.1025444E0,-4.0739158E-1,1.0570012E0,1.3224809E0,9.584614E-1,2.5951227E-3,-2.3215604E-3,6.1138873E-3,-1.020078E-3,-1.7818402E-3,-1.2167259E-2,1.7817735E-4,-3.429903E-3],"split_indices":[2,8,10,7,1,2,0,0,0,0,0,0,0,0,0],"split_type":[0,0,0,0,0,0,0,0,0,0,0,0,0,0,0],"sum_hessian":[9.2E1,8E1,1.2E1,5.2E1,2.8E1,9E0,3E0,1.8E1,3.4E1,2.2E1,6E0,1E0,8E0,1E0,2E0],"tree_param":{"num_deleted":"0","num_feature":"20","num_nodes":"15","size_leaf_vector":"1"}},{"base_weights":[-6.8877034E-2,-5.2064705E-1,1.7803082E-1,-3.3320397E-2,-9.754333E-1,4.4867447E-1,1.9610617E-2,2.6298168E-3,-3.6249517E-3,-4.3424685E-3,-1.1196415E-2,3.000333E-3,6.527122E-3,-1.0403235E-3,5.643708E-3],"categories":[],"categories_nodes":[],"categories_segments":[],"categories_sizes":[],"default_left":[0,0,0,0,0,0,0,0,0,0,0,0,0,0,0],"id":68,"left_children":[1,3,5,7,9,11,13,-1,-1,-1,-1,-1,-1,-1,-1],"loss_changes":[9.797154E0,6.8380117E0,2.4351006E0,1.6558925E0,7.62496E-1,4.4106102E-1,2.5508766E0,0E0,0E0,0E0,0E0,0E0,0E0,0E0,0E0],"parents":[2147483647,0,0,1,1,2,2,3,3,4,4,5,5,6,6],"right_children":[2,4,6,8,10,12,14,-1,-1,-1,-1,-1,-1,-1,-1],"split_conditions":[-3.88934E-1,-1.0049465E-1,-7.6277906E-1,5.0087076E-1,-2.49992E-1,-4.0755004E-1,5.5568707E-1,2.6298168E-3,-3.6249517E-3,-4.3424685E-3,-1.1196415E-2,3.000333E-3,6.527122E-3,-1.0403235E-3,5.643708E-3],"split_indices":[8,16,0,3,1,5,4,0,0,0,0,0,0,0,0],"split_type":[0,0,0,0,0,0,0,0,0,0,0,0,0,0,0],"sum_hessian":[8.6E1,3E1,5.6E1,1.5E1,1.5E1,2E1,3.6E1,8E0,7E0,4E0,1.1E1,1.3E1,7E0,3E1,6E0],"tree_param":{"num_deleted":"0","num_feature":"20","num_nodes":"15","size_leaf_vector":"1"}},{"base_weights":[-4.4547066E-2,6.587262E-2,-7.5856274E-1,1.4890184E-1,-5.1361626E-1,-3.2249656E-1,-1.0239676E0,3.460973E-3,-7.670829E-4,-6.8744426E-3,1.2113047E-3,-3.9356137E-3,1.6413689E-4,-1.1173207E-2,-2.3192442E-3],"categories":[],"categories_nodes":[],"categories_segments":[],"categories_sizes":[],"default_left":[0,0,0,0,0,0,0,0,0,0,0,0,0,0,0],"id":69,"left_children":[1,3,5,7,9,11,13,-1,-1,-1,-1,-1,-1,-1,-1],"loss_changes":[7.066851E0,3.82941E0,1.0585837E0,3.09631E0,1.1866381E0,1.5096736E-1,2.5844383E-1,0E0,0E0,0E0,0E0,0E0,0E0,0E0,0E0],"parents":[2147483647,0,0,1,1,2,2,3,3,4,4,5,5,6,6],"right_children":[2,4,6,8,10,12,14,-1,-1,-1,-1,-1,-1,-1,-1],"split_conditions":[1.2526733E0,1.0642918E0,-4.0275764E-1,-1.17625855E-1,-1.7176494E-1,-1.0076262E0,-2.6071668E-1,3.460973E-3,-7.670829E-4,-6.8744426E-3,1.2113047E-3,-3.9356137E-3,1.6413689E-4,-1.1173207E-2,-2.3192442E-3],"split_indices":[2,10,4,15,19,4,5,0,0,0,0,0,0,0,0],"split_type":[0,0,0,0,0,0,0,0,0,0,0,0,0,0,0],"sum_hessian":[8.8E1,7.7E1,1.1E1,6.8E1,9E0,5E0,6E0,3.6E1,3.2E1,7E0,2E0,4E0,1E0,5E0,1E0],"tree_param":{"num_deleted":"0","num_feature":"20","num_nodes":"15","size_leaf_vector":"1"}},{"base_weights":[1.809925E-2,-4.7613817E-1,2.5234583E-1,5.591343E-2,-9.4097716E-1,3.0430534E-1,-5.3817383E-3,3.7929146E-3,-3.216491E-3,-1.02448985E-2,-2.6542973E-3,4.254662E-3,-5.5232045E-4],"categories":[],"categories_nodes":[],"categories_segments":[],"categories_sizes":[],"default_left":[0,0,0,0,0,0,0,0,0,0,0,0,0],"id":70,"left_children":[1,3,5,7,9,11,-1,-1,-1,-1,-1,-1,-1],"loss_changes":[1.0076667E1,6.977525E0,2.5871954E0,1.8313348E0,5.7432175E-1,2.4629636E0,0E0,0E0,0E0,0E0,0E0,0E0,0E0],"parents":[2147483647,0,0,1,1,2,2,3,3,4,4,5,5],"right_children":[2,4,6,8,10,12,-1,-1,-1,-1,-1,-1,-1],"split_conditions":[-4.9529278E-1,-1.0049465E-1,1.4835172E0,-1.8067123E-1,1.3176107E0,8.849532E-2,-5.3817383E-3,3.7929146E-3,-3.216491E-3,-1.02448985E-2,-2.6542973E-3,4.254662E-3,-5.5232045E-4],"split_indices":[8,16,10,6,6,2,0,0,0,0,0,0,0],"split_type":[0,0,0,0,0,0,0,0,0,0,0,0,0],"sum_hessian":[8.5E1,2.7E1,5.8E1,1.3E1,1.4E1,5.5E1,3E0,7E0,6E0,1.2E1,2E0,4.1E1,1.4E1],"tree_param":{"num_deleted":"0","num_feature":"20","num_nodes":"13","size_leaf_vector":"1"}},{"base_weights":[-2.3885103E-2,-5.3188854E-1,2.0968837E-1,-4.1952E-2,-1.0939729E0,3.229757E-1,-7.8885555E-2,2.6728888E-3,-3.84604E-3,-4.343887E-3,-1.2484092E-2,7.2155136E-4,5.4884856E-3,2.826829E-3,-2.832267E-3],"categories":[],"categories_nodes":[],"categories_segments":[],"categories_sizes":[],"default_left":[0,0,0,0,0,0,0,0,0,0,0,0,0,0,0],"id":71,"left_children":[1,3,5,7,9,11,13,-1,-1,-1,-1,-1,-1,-1,-1],"loss_changes":[1.055327E1,7.6649036E0,2.019676E0,1.7981926E0,7.819338E-1,2.4531546E0,1.4099629E0,0E0,0E0,0E0,0E0,0E0,0E0,0E0,0E0],"parents":[2147483647,0,0,1,1,2,2,3,3,4,4,5,5,6,6],"right_children":[2,4,6,8,10,12,14,-1,-1,-1,-1,-1,-1,-1,-1],"split_conditions":[-3.88934E-1,-1.0049465E-1,8.849532E-2,1.9451481E-1,-6.1970454E-1,3.24361E-1,-7.0735425E-1,2.6728888E-3,-3.84604E-3,-4.343887E-3,-1.2484092E-2,7.2155136E-4,5.4884856E-3,2.826829E-3,-2.832267E-3],"split_indices":[8,16,2,6,10,8,9,0,0,0,0,0,0,0,0],"split_type":[0,0,0,0,0,0,0,0,0,0,0,0,0,0,0],"sum_hessian":[8.7E1,2.7E1,6E1,1.5E1,1.2E1,4.3E1,1.7E1,8E0,7E0,3E0,9E0,2.1E1,2.2E1,6E0,1.1E1],"tree_param":{"num_deleted":"0","num_feature":"20","num_nodes":"15","size_leaf_vector":"1"}},{"base_weights":[9.291909E-3,-5.2216816E-1,2.577282E-1,-3.407359E-2,-9.754515E-1,3.9941296E-1,3.2058258E-2,3.1735061E-3,-3.812386E-3,-1.0665968E-2,-2.5533761E-3,5.6970785E-3,1.2965071E-3,-9.4654603E-4,4.4909143E-3],"categories":[],"categories_nodes":[],"categories_segments":[],"categories_sizes":[],"default_left":[0,0,0,0,0,0,0,0,0,0,0,0,0,0,0],"id":72,"left_children":[1,3,5,7,9,11,13,-1,-1,-1,-1,-1,-1,-1,-1],"loss_changes":[1.2017635E1,6.3828716E0,1.969583E0,1.9510192E0,7.12183E-1,1.6718245E0,1.3635952E0,0E0,0E0,0E0,0E0,0E0,0E0,0E0,0E0],"parents":[2147483647,0,0,1,1,2,2,3,3,4,4,5,5,6,6],"right_children":[2,4,6,8,10,12,14,-1,-1,-1,-1,-1,-1,-1,-1],"split_conditions":[-3.88934E-1,-1.0049465E-1,-1.5175906E-1,1.9451481E-1,1.3176107E0,-5.303895E-1,6.434996E-1,3.1735061E-3,-3.812386E-3,-1.0665968E-2,-2.5533761E-3,5.6970785E-3,1.2965071E-3,-9.4654603E-4,4.4909143E-3],"split_indices":[8,16,0,6,6,9,4,0,0,0,0,0,0,0,0],"split_type":[0,0,0,0,0,0,0,0,0,0,0,0,0,0,0],"sum_hessian":[8.9E1,2.8E1,6.1E1,1.4E1,1.4E1,3.7E1,2.4E1,7E0,7E0,1.2E1,2E0,2.2E1,1.5E1,1.9E1,5E0],"tree_param":{"num_deleted":"0","num_feature":"20","num_nodes":"15","size_leaf_vector":"1"}},{"base_weights":[-1.7178485E-2,-4.99765E-1,2.2441097E-1,5.2192986E-1,-6.841134E-1,2.6532927E-1,-3.9431834E-1,5.9801647E-3,1.0879159E-3,-7.996514E-3,1.2237465E-3,6.40838E-4,4.8733056E-3,-4.7833918E-4,-4.938685E-3],"categories":[],"categories_nodes":[],"categories_segments":[],"categories_sizes":[],"default_left":[0,0,0,0,0,0,0,0,0,0,0,0,0,0,0],"id":73,"left_children":[1,3,5,7,9,11,13,-1,-1,-1,-1,-1,-1,-1,-1],"loss_changes":[1.0138705E1,5.8191447E0,1.5730302E0,9.211242E-2,2.4273605E0,2.4259915E0,1.1434662E-1,0E0,0E0,0E0,0E0,0E0,0E0,0E0,0E0],"parents":[2147483647,0,0,1,1,2,2,3,3,4,4,5,5,6,6],"right_children":[2,4,6,8,10,12,14,-1,-1,-1,-1,-1,-1,-1,-1],"split_conditions":[-3.88934E-1,-1.5258048E0,1.6022165E0,1.356402E-1,1.0736693E0,3.2960787E-1,1.7370197E0,5.9801647E-3,1.0879159E-3,-7.996514E-3,1.2237465E-3,6.40838E-4,4.8733056E-3,-4.7833918E-4,-4.938685E-3],"split_indices":[8,1,1,3,7,8,1,0,0,0,0,0,0,0,0],"split_type":[0,0,0,0,0,0,0,0,0,0,0,0,0,0,0],"sum_hessian":[8.5E1,2.8E1,5.7E1,4E0,2.4E1,5.4E1,3E0,3E0,1E0,2.1E1,3E0,2.9E1,2.5E1,1E0,2E0],"tree_param":{"num_deleted":"0","num_feature":"20","num_nodes":"15","size_leaf_vector":"1"}},{"base_weights":[-7.6527772E-3,1.2797485E-1,-7.8687394E-1,-1.2193832E-1,3.604491E-1,-4.3934226E-1,-1.1855497E-2,-3.3303609E-3,1.3636142E-3,5.367701E-3,1.064997E-3,-5.0946753E-3,2.5767327E-4],"categories":[],"categories_nodes":[],"categories_segments":[],"categories_sizes":[],"default_left":[0,0,0,0,0,0,0,0,0,0,0,0,0],"id":74,"left_children":[1,3,5,7,9,11,-1,-1,-1,-1,-1,-1,-1],"loss_changes":[8.555413E0,4.052741E0,1.141768E0,1.8993142E0,1.5547924E0,2.74055E-1,0E0,0E0,0E0,0E0,0E0,0E0,0E0],"parents":[2147483647,0,0,1,1,2,2,3,3,4,4,5,5],"right_children":[2,4,6,8,10,12,-1,-1,-1,-1,-1,-1,-1],"split_conditions":[1.1654638E0,-3.1570935E-1,1.2221411E0,1.3697514E-1,-4.9435176E-2,1.9516263E0,-1.1855497E-2,-3.3303609E-3,1.3636142E-3,5.367701E-3,1.064997E-3,-5.0946753E-3,2.5767327E-4],"split_indices":[2,5,15,7,0,9,0,0,0,0,0,0,0],"split_type":[0,0,0,0,0,0,0,0,0,0,0,0,0],"sum_hessian":[7.9E1,6.8E1,1.1E1,3.3E1,3.5E1,7E0,4E0,1.8E1,1.5E1,2E1,1.5E1,6E0,1E0],"tree_param":{"num_deleted":"0","num_feature":"20","num_nodes":"13","size_leaf_vector":"1"}},{"base_weights":[3.2794323E-2,1.7886427E-1,-6.5652275E-1,1.3906868E-2,4.6848223E-1,5.2950857E-3,-7.63744E-1,-2.3818025E-3,2.067101E-3,6.3646785E-3,-5.2038487E-4,-4.502309E-3,-9.575618E-3],"categories":[],"categories_nodes":[],"categories_segments":[],"categories_sizes":[],"default_left":[0,0,0,0,0,0,0,0,0,0,0,0,0],"id":75,"left_children":[1,3,5,7,9,-1,11,-1,-1,-1,-1,-1,-1],"loss_changes":[9.783525E0,3.815455E0,2.5662608E0,2.5766013E0,2.5688806E0,0E0,5.4110813E-1,0E0,0E0,0E0,0E0,0E0,0E0],"parents":[2147483647,0,0,1,1,2,2,3,3,4,4,6,6],"right_children":[2,4,6,8,10,-1,12,-1,-1,-1,-1,-1,-1],"split_conditions":[1.1073864E0,3.2960787E-1,-1.6666763E0,-7.5516395E-2,-1.1720451E-1,5.2950857E-3,5.8938664E-1,-2.3818025E-3,2.067101E-3,6.3646785E-3,-5.2038487E-4,-4.502309E-3,-9.575618E-3],"split_indices":[0,8,1,14,15,0,10,0,0,0,0,0,0],"split_type":[0,0,0,0,0,0,0,0,0,0,0,0,0],"sum_hessian":[9.5E1,7.9E1,1.6E1,5.1E1,2.8E1,1E0,1.5E1,2.2E1,2.9E1,2.1E1,7E0,7E0,8E0],"tree_param":{"num_deleted":"0","num_feature":"20","num_nodes":"13","size_leaf_vector":"1"}},{"base_weights":[-5.4162163E-2,1.2826136E-1,-8.146755E-1,2.0132925E-1,-8.1804633E-1,-8.8534206E-1,-2.1333988E-3,-1.3607919E-3,3.19087E-3,-2.858982E-3,-1.0775124E-2,-9.942498E-3,-3.6451004E-3],"categories":[],"categories_nodes":[],"categories_segments":[],"categories_sizes":[],"default_left":[0,0,0,0,0,0,0,0,0,0,0,0,0],"id":76,"left_children":[1,3,5,7,9,11,-1,-1,-1,-1,-1,-1,-1],"loss_changes":[1.14808035E1,4.7973924E0,4.9102974E-1,2.5465658E0,3.8231277E-1,4.3170357E-1,0E0,0E0,0E0,0E0,0E0,0E0,0E0],"parents":[2147483647,0,0,1,1,2,2,3,3,4,4,5,5],"right_children":[2,4,6,8,10,12,-1,-1,-1,-1,-1,-1,-1],"split_conditions":[1.1073864E0,1.2526733E0,1.1013488E0,-4.7516862E-1,1.3224809E0,-4.5910192E-1,-2.1333988E-3,-1.3607919E-3,3.19087E-3,-2.858982E-3,-1.0775124E-2,-9.942498E-3,-3.6451004E-3],"split_indices":[0,2,6,14,2,8,0,0,0,0,0,0,0],"split_type":[0,0,0,0,0,0,0,0,0,0,0,0,0],"sum_hessian":[8.1E1,6.6E1,1.5E1,6.2E1,4E0,1.3E1,2E0,1.6E1,4.6E1,2E0,2E0,1E1,3E0],"tree_param":{"num_deleted":"0","num_feature":"20","num_nodes":"13","size_leaf_vector":"1"}},{"base_weights":[1.4750792E-2,1.2109468E-1,-8.0833846E-1,-3.493874E-2,4.0832058E-1,-1.0167722E0,-3.5486359E-3,2.031772E-3,-2.4807847E-3,5.539269E-3,6.1715127E-4,-2.5514911E-3,-1.10118445E-2],"categories":[],"categories_nodes":[],"categories_segments":[],"categories_sizes":[],"default_left":[0,0,0,0,0,0,0,0,0,0,0,0,0],"id":77,"left_children":[1,3,5,7,9,11,-1,-1,-1,-1,-1,-1,-1],"loss_changes":[8.413284E0,3.8236976E0,6.7889833E-1,2.892514E0,1.4798532E0,1.6906643E-1,0E0,0E0,0E0,0E0,0E0,0E0,0E0],"parents":[2147483647,0,0,1,1,2,2,3,3,4,4,5,5],"right_children":[2,4,6,8,10,12,-1,-1,-1,-1,-1,-1,-1],"split_conditions":[1.2526733E0,3.2960787E-1,-5.527459E-1,-7.755239E-2,-6.0979523E-2,1.2626759E0,-3.5486359E-3,2.031772E-3,-2.4807847E-3,5.539269E-3,6.1715127E-4,-2.5514911E-3,-1.10118445E-2],"split_indices":[2,8,8,7,2,2,0,0,0,0,0,0,0],"split_type":[0,0,0,0,0,0,0,0,0,0,0,0,0],"sum_hessian":[9.4E1,8.4E1,1E1,5.5E1,2.9E1,6E0,4E0,2.6E1,2.9E1,2E1,9E0,1E0,5E0],"tree_param":{"num_deleted":"0","num_feature":"20","num_nodes":"13","size_leaf_vector":"1"}},{"base_weights":[-8.949538E-3,1.2253398E-1,-8.4093267E-1,4.463032E-1,-6.497768E-2,-9.848089E-1,-3.0697791E-3,5.399532E-3,-2.5058554E-3,2.9164674E-3,-2.4672428E-3,-2.5387334E-3,-1.0444417E-2],"categories":[],"categories_nodes":[],"categories_segments":[],"categories_sizes":[],"default_left":[0,0,0,0,0,0,0,0,0,0,0,0,0],"id":78,"left_children":[1,3,5,7,9,11,-1,-1,-1,-1,-1,-1,-1],"loss_changes":[9.620152E0,4.6429977E0,6.1956596E-1,1.962688E0,3.247905E0,1.2713432E-1,0E0,0E0,0E0,0E0,0E0,0E0,0E0],"parents":[2147483647,0,0,1,1,2,2,3,3,4,4,5,5],"right_children":[2,4,6,8,10,12,-1,-1,-1,-1,-1,-1,-1],"split_conditions":[1.1945603E0,-5.5958873E-1,-2.6071668E-1,3.6468E-1,-4.0739158E-1,1.2626759E0,-3.0697791E-3,5.399532E-3,-2.5058554E-3,2.9164674E-3,-2.4672428E-3,-2.5387334E-3,-1.0444417E-2],"split_indices":[2,9,5,12,7,2,0,0,0,0,0,0,0],"split_type":[0,0,0,0,0,0,0,0,0,0,0,0,0],"sum_hessian":[8.6E1,7.5E1,1.1E1,2.7E1,4.8E1,8E0,3E0,2.4E1,3E0,1.6E1,3.2E1,1E0,7E0],"tree_param":{"num_deleted":"0","num_feature":"20","num_nodes":"13","size_leaf_vector":"1"}},{"base_weights":[-2.041423E-2,-4.79327E-1,1.8464553E-1,-7.468284E-2,-8.5201603E-1,2.2437587E-1,-4.773362E-3,-4.457094E-3,3.0567907E-3,-4.8576617E-3,-1.1117638E-2,-4.4283704E-4,3.2685357E-3],"categories":[],"categories_nodes":[],"categories_segments":[],"categories_sizes":[],"default_left":[0,0,0,0,0,0,0,0,0,0,0,0,0],"id":79,"left_children":[1,3,5,7,9,11,-1,-1,-1,-1,-1,-1,-1],"loss_changes":[8.840227E0,4.3097568E0,1.8166525E0,2.2531095E0,8.869314E-1,1.7214346E0,0E0,0E0,0E0,0E0,0E0,0E0,0E0],"parents":[2147483647,0,0,1,1,2,2,3,3,4,4,5,5],"right_children":[2,4,6,8,10,12,-1,-1,-1,-1,-1,-1,-1],"split_conditions":[-3.88934E-1,-1.0049465E-1,1.625143E0,6.5141606E-1,4.157928E-1,-4.622558E-2,-4.773362E-3,-4.457094E-3,3.0567907E-3,-4.8576617E-3,-1.1117638E-2,-4.4283704E-4,3.2685357E-3],"split_indices":[8,16,18,9,1,8,0,0,0,0,0,0,0],"split_type":[0,0,0,0,0,0,0,0,0,0,0,0,0],"sum_hessian":[9.2E1,2.8E1,6.4E1,1.4E1,1.4E1,6.1E1,3E0,7E0,7E0,7E0,7E0,1.7E1,4.4E1],"tree_param":{"num_deleted":"0","num_feature":"20","num_nodes":"13","size_leaf_vector":"1"}},{"base_weights":[1.9573072E-2,2.1396177E-1,-4.94396E-1,2.3024485E-2,4.161131E-1,5.25967E-1,-7.137969E-1,3.519788E-3,-1.6390729E-3,7.539285E-3,3.256314E-3,5.8526183E-3,1.4439392E-3,-2.1252446E-3,-8.571617E-3],"categories":[],"categories_nodes":[],"categories_segments":[],"categories_sizes":[],"default_left":[0,0,0,0,0,0,0,0,0,0,0,0,0,0,0],"id":80,"left_children":[1,3,5,7,9,11,13,-1,-1,-1,-1,-1,-1,-1,-1],"loss_changes":[9.097662E0,2.537902E0,5.9721475E0,2.2099125E0,7.326126E-1,2.8618217E-2,1.3269949E0,0E0,0E0,0E0,0E0,0E0,0E0,0E0,0E0],"parents":[2147483647,0,0,1,1,2,2,3,3,4,4,5,5,6,6],"right_children":[2,4,6,8,10,12,14,-1,-1,-1,-1,-1,-1,-1,-1],"split_conditions":[4.984796E-1,6.893536E-2,-1.4944923E0,-7.6514494E-1,-1.427181E0,-1.5258048E0,-6.6703236E-1,3.519788E-3,-1.6390729E-3,7.539285E-3,3.256314E-3,5.8526183E-3,1.4439392E-3,-2.1252446E-3,-8.571617E-3],"split_indices":[0,4,1,0,6,1,7,0,0,0,0,0,0,0,0],"split_type":[0,0,0,0,0,0,0,0,0,0,0,0,0,0,0],"sum_hessian":[8.9E1,6.5E1,2.4E1,3.4E1,3.1E1,4E0,2E1,1.2E1,2.2E1,5E0,2.6E1,3E0,1E0,5E0,1.5E1],"tree_param":{"num_deleted":"0","num_feature":"20","num_nodes":"15","size_leaf_vector":"1"}},{"base_weights":[9.6769985E-3,2.009901E-1,-4.5426154E-1,-2.4451685E-1,2.7023688E-1,-7.819516E-1,1.4823766E-1,2.4860064E-4,-3.2503312E-3,4.7088647E-3,4.4715538E-4,-3.349393E-3,-9.953273E-3,3.9349026E-3,-3.1801378E-3],"categories":[],"categories_nodes":[],"categories_segments":[],"categories_sizes":[],"default_left":[0,0,0,0,0,0,0,0,0,0,0,0,0,0,0],"id":81,"left_children":[1,3,5,7,9,11,13,-1,-1,-1,-1,-1,-1,-1,-1],"loss_changes":[7.901964E0,2.0096223E0,5.2491717E0,2.0328337E-1,2.4677362E0,1.2881136E0,1.268629E0,0E0,0E0,0E0,0E0,0E0,0E0,0E0,0E0],"parents":[2147483647,0,0,1,1,2,2,3,3,4,4,5,5,6,6],"right_children":[2,4,6,8,10,12,14,-1,-1,-1,-1,-1,-1,-1,-1],"split_conditions":[4.984796E-1,-1.2123852E0,-1.01405196E-1,-1.0315245E0,3.2450327E-1,-3.481755E-1,6.5478176E-1,2.4860064E-4,-3.2503312E-3,4.7088647E-3,4.4715538E-4,-3.349393E-3,-9.953273E-3,3.9349026E-3,-3.1801378E-3],"split_indices":[0,18,5,0,18,16,5,0,0,0,0,0,0,0,0],"split_type":[0,0,0,0,0,0,0,0,0,0,0,0,0,0,0],"sum_hessian":[8.7E1,6.2E1,2.5E1,8E0,5.4E1,1.6E1,9E0,2E0,6E0,2.8E1,2.6E1,6E0,1E1,6E0,3E0],"tree_param":{"num_deleted":"0","num_feature":"20","num_nodes":"15","size_leaf_vector":"1"}},{"base_weights":[1.8790986E-2,-4.7752225E-1,2.0650372E-1,5.037988E-1,-6.8843096E-1,2.492223E-1,-5.1793973E-3,1.0365462E-3,5.7792114E-3,-1.7980575E-3,-8.79894E-3,3.6122098E-3,-9.6359254E-5],"categories":[],"categories_nodes":[],"categories_segments":[],"categories_sizes":[],"default_left":[0,0,0,0,0,0,0,0,0,0,0,0,0],"id":82,"left_children":[1,3,5,7,9,11,-1,-1,-1,-1,-1,-1,-1],"loss_changes":[8.483398E0,5.5210595E0,2.171597E0,8.839393E-2,1.8868313E0,1.8299625E0,0E0,0E0,0E0,0E0,0E0,0E0,0E0],"parents":[2147483647,0,0,1,1,2,2,3,3,4,4,5,5],"right_children":[2,4,6,8,10,12,-1,-1,-1,-1,-1,-1,-1],"split_conditions":[-3.88934E-1,-1.5258048E0,1.4835172E0,-3.415716E-1,-3.3177242E-1,-1.17625855E-1,-5.1793973E-3,1.0365462E-3,5.7792114E-3,-1.7980575E-3,-8.79894E-3,3.6122098E-3,-9.6359254E-5],"split_indices":[8,1,10,0,16,15,0,0,0,0,0,0,0],"split_type":[0,0,0,0,0,0,0,0,0,0,0,0,0],"sum_hessian":[8.9E1,2.4E1,6.5E1,4E0,2E1,6.2E1,3E0,1E0,3E0,6E0,1.4E1,4.3E1,1.9E1],"tree_param":{"num_deleted":"0","num_feature":"20","num_nodes":"13","size_leaf_vector":"1"}},{"base_weights":[-1.7946673E-3,1.2793468E-1,-8.773182E-1,-1.00052245E-1,2.9499018E-1,-1.0123379E0,-1.3481314E-1,1.7966032E-4,-4.429902E-3,-2.3540428E-3,3.7835042E-3,-1.6449927E-3,-1.0882644E-2,4.5053242E-4,-2.4727297E-3],"categories":[],"categories_nodes":[],"categories_segments":[],"categories_sizes":[],"default_left":[0,0,0,0,0,0,0,0,0,0,0,0,0,0,0],"id":83,"left_children":[1,3,5,7,9,11,13,-1,-1,-1,-1,-1,-1,-1,-1],"loss_changes":[1.05617E1,3.1145182E0,1.0665569E0,1.4245119E0,2.1671147E0,4.647169E-1,7.182367E-2,0E0,0E0,0E0,0E0,0E0,0E0,0E0,0E0],"parents":[2147483647,0,0,1,1,2,2,3,3,4,4,5,5,6,6],"right_children":[2,4,6,8,10,12,14,-1,-1,-1,-1,-1,-1,-1,-1],"split_conditions":[1.2526733E0,-1.252546E-1,1.1025444E0,6.3374054E-1,-1.2123852E0,1.3224809E0,9.584614E-1,1.7966032E-4,-4.429902E-3,-2.3540428E-3,3.7835042E-3,-1.6449927E-3,-1.0882644E-2,4.5053242E-4,-2.4727297E-3],"split_indices":[2,8,10,2,18,2,0,0,0,0,0,0,0,0,0],"split_type":[0,0,0,0,0,0,0,0,0,0,0,0,0,0,0],"sum_hessian":[9.1E1,8E1,1.1E1,3.4E1,4.6E1,9E0,2E0,2.6E1,8E0,6E0,4E1,1E0,8E0,1E0,1E0],"tree_param":{"num_deleted":"0","num_feature":"20","num_nodes":"15","size_leaf_vector":"1"}},{"base_weights":[-4.7223903E-2,8.268713E-2,-8.0475825E-1,1.7523044E-1,-3.4235498E-1,-9.533122E-1,-1.9504541E-1,6.962279E-3,1.1358184E-3,5.1380834E-3,-5.992132E-3,-1.0785911E-2,-2.597049E-3,4.4827937E-4,-2.8994584E-3],"categories":[],"categories_nodes":[],"categories_segments":[],"categories_sizes":[],"default_left":[0,0,0,0,0,0,0,0,0,0,0,0,0,0,0],"id":84,"left_children":[1,3,5,7,9,11,13,-1,-1,-1,-1,-1,-1,-1,-1],"loss_changes":[9.415689E0,3.2854445E0,1.0821142E0,2.1049967E0,3.6065698E0,6.757221E-1,1.0405399E-1,0E0,0E0,0E0,0E0,0E0,0E0,0E0,0E0],"parents":[2147483647,0,0,1,1,2,2,3,3,4,4,5,5,6,6],"right_children":[2,4,6,8,10,12,14,-1,-1,-1,-1,-1,-1,-1,-1],"split_conditions":[1.2526733E0,6.727313E-1,1.1025444E0,-1.427181E0,-1.4944923E0,-4.5910192E-1,9.584614E-1,6.962279E-3,1.1358184E-3,5.1380834E-3,-5.992132E-3,-1.0785911E-2,-2.597049E-3,4.4827937E-4,-2.8994584E-3],"split_indices":[2,0,10,6,1,8,0,0,0,0,0,0,0,0,0],"split_type":[0,0,0,0,0,0,0,0,0,0,0,0,0,0,0],"sum_hessian":[9.4E1,8.1E1,1.3E1,6.7E1,1.4E1,1E1,3E0,6E0,6.1E1,3E0,1.1E1,8E0,2E0,1E0,2E0],"tree_param":{"num_deleted":"0","num_feature":"20","num_nodes":"15","size_leaf_vector":"1"}},{"base_weights":[-2.5076604E-2,1.12125665E-1,-7.3869723E-1,2.8843793E-1,-1.2278814E-1,-2.694292E-3,-8.4218585E-1,4.138578E-3,-5.959992E-4,2.1277196E-3,-3.086897E-3,-9.926455E-3,-3.3072012E-3],"categories":[],"categories_nodes":[],"categories_segments":[],"categories_sizes":[],"default_left":[0,0,0,0,0,0,0,0,0,0,0,0,0],"id":85,"left_children":[1,3,5,7,9,-1,11,-1,-1,-1,-1,-1,-1],"loss_changes":[8.5031185E0,3.0589445E0,4.529853E-1,1.8580027E0,2.0618775E0,0E0,5.1821566E-1,0E0,0E0,0E0,0E0,0E0,0E0],"parents":[2147483647,0,0,1,1,2,2,3,3,4,4,6,6],"right_children":[2,4,6,8,10,-1,12,-1,-1,-1,-1,-1,-1],"split_conditions":[1.1189145E0,8.100721E-2,-2.7263284E-1,7.3030585E-1,-4.0739158E-1,-2.694292E-3,-6.456253E-1,4.138578E-3,-5.959992E-4,2.1277196E-3,-3.086897E-3,-9.926455E-3,-3.3072012E-3],"split_indices":[0,6,1,18,7,0,8,0,0,0,0,0,0],"split_type":[0,0,0,0,0,0,0,0,0,0,0,0,0],"sum_hessian":[8.5E1,7.2E1,1.3E1,4.1E1,3.1E1,3E0,1E1,3E1,1.1E1,1.1E1,2E1,7E0,3E0],"tree_param":{"num_deleted":"0","num_feature":"20","num_nodes":"13","size_leaf_vector":"1"}},{"base_weights":[-2.7275113E-2,1.587874E-1,-6.2472516E-1,2.0581163E-1,-1.0227235E-2,5.1873443E-3,-7.002794E-1,-2.019723E-3,2.6727237E-3,-2.9819417E-3,-8.009989E-3],"categories":[],"categories_nodes":[],"categories_segments":[],"categories_sizes":[],"default_left":[0,0,0,0,0,0,0,0,0,0,0],"id":86,"left_children":[1,3,5,7,-1,-1,9,-1,-1,-1,-1],"loss_changes":[1.077085E1,4.321903E0,2.3503046E0,1.8584962E0,0E0,0E0,6.520996E-1,0E0,0E0,0E0,0E0],"parents":[2147483647,0,0,1,1,2,2,3,3,6,6],"right_children":[2,4,6,8,-1,-1,10,-1,-1,-1,-1],"split_conditions":[6.872958E-1,1.2526733E0,-1.6666763E0,-1.2123852E0,-1.0227235E-2,5.1873443E-3,-2.7263284E-1,-2.019723E-3,2.6727237E-3,-2.9819417E-3,-8.009989E-3],"split_indices":[0,2,1,18,0,0,1,0,0,0,0],"split_type":[0,0,0,0,0,0,0,0,0,0,0],"sum_hessian":[9.5E1,7.3E1,2.2E1,7.1E1,2E0,1E0,2.1E1,9E0,6.2E1,5E0,1.6E1],"tree_param":{"num_deleted":"0","num_feature":"20","num_nodes":"11","size_leaf_vector":"1"}},{"base_weights":[2.5547114E-3,-4.1572776E-1,1.985847E-1,-1.862371E-2,-8.1159025E-1,1.0378947E-1,6.00715E-1,-2.3083924E-3,4.944183E-3,-8.874877E-3,-2.121713E-3,-6.28844E-4,3.0780723E-3,1.0295534E-3,6.899713E-3],"categories":[],"categories_nodes":[],"categories_segments":[],"categories_sizes":[],"default_left":[0,0,0,0,0,0,0,0,0,0,0,0,0,0,0],"id":87,"left_children":[1,3,5,7,9,11,13,-1,-1,-1,-1,-1,-1,-1,-1],"loss_changes":[7.7081776E0,