{"learner":{"attributes":{"scikit_learn":"{\"_estimator_type\": \"regressor\"}"},"feature_names":[],"feature_types":[],"gradient_booster":{"model":{"gbtree_model_param":{"num_parallel_tree":"1","num_trees":"300"},"iteration_indptr":[0,1,2,3,4,5,6,7,8,9,10,11,12,13,14,15,16,17,18,19,20,21,22,23,24,25,26,27,28,29,30,31,32,33,34,35,36,37,38,39,40,41,42,43,44,45,46,47,48,49,50,51,52,53,54,55,56,57,58,59,60,61,62,63,64,65,66,67,68,69,70,71,72,73,74,75,76,77,78,79,80,81,82,83,84,85,86,87,88,89,90,91,92,93,94,95,96,97,98,99,100,101,102,103,104,105,106,107,108,109,110,111,112,113,114,115,116,117,118,119,120,121,122,123,124,125,126,127,128,129,130,131,132,133,134,135,136,137,138,139,140,141,142,143,144,145,146,147,148,149,150,151,152,153,154,155,156,157,158,159,160,161,162,163,164,165,166,167,168,169,170,171,172,173,174,175,176,177,178,179,180,181,182,183,184,185,186,187,188,189,190,191,192,193,194,195,196,197,198,199,200,201,202,203,204,205,206,207,208,209,210,211,212,213,214,215,216,217,218,219,220,221,222,223,224,225,226,227,228,229,230,231,232,233,234,235,236,237,238,239,240,241,242,243,244,245,246,247,248,249,250,251,252,253,254,255,256,257,258,259,260,261,262,263,264,265,266,267,268,269,270,271,272,273,274,275,276,277,278,279,280,281,282,283,284,285,286,287,288,289,290,291,292,293,294,295,296,297,298,299,300],"tree_info":[0,0,0,0,0,0,0,0,0,0,0,0,0,0,0,0,0,0,0,0,0,0,0,0,0,0,0,0,0,0,0,0,0,0,0,0,0,0,0,0,0,0,0,0,0,0,0,0,0,0,0,0,0,0,0,0,0,0,0,0,0,0,0,0,0,0,0,0,0,0,0,0,0,0,0,0,0,0,0,0,0,0,0,0,0,0,0,0,0,0,0,0,0,0,0,0,0,0,0,0,0,0,0,0,0,0,0,0,0,0,0,0,0,0,0,0,0,0,0,0,0,0,0,0,0,0,0,0,0,0,0,0,0,0,0,0,0,0,0,0,0,0,0,0,0,0,0,0,0,0,0,0,0,0,0,0,0,0,0,0,0,0,0,0,0,0,0,0,0,0,0,0,0,0,0,0,0,0,0,0,0,0,0,0,0,0,0,0,0,0,0,0,0,0,0,0,0,0,0,0,0,0,0,0,0,0,0,0,0,0,0,0,0,0,0,0,0,0,0,0,0,0,0,0,0,0,0,0,0,0,0,0,0,0,0,0,0,0,0,0,0,0,0,0,0,0,0,0,0,0,0,0,0,0,0,0,0,0,0,0,0,0,0,0,0,0,0,0,0,0,0,0,0,0,0,0,0,0,0,0,0,0,0,0,0,0,0,0,0,0,0,0,0,0,0,0,0,0,0,0],"trees":[{"base_weights":[-4.9711224E-2,1.1723312E-1,-9.033781E-1,-1.4068255E-1,2.848534E-1,-2.8760022E-1,-1.1011518E-2,4.094861E-4,-2.5755214E-3,3.8394746E-3,-3.3624812E-3,-4.37462E-3,-4.1871707E-4],"categories":[],"categories_nodes":[],"categories_segments":[],"categories_sizes":[],"default_left":[0,0,0,0,0,0,0,0,0,0,0,0,0],"id":0,"left_children":[1,3,5,7,9,11,-1,-1,-1,-1,-1,-1,-1],"loss_changes":[1.3074759E1,3.3689294E0,1.5100794E0,6.6858846E-1,3.0218334E0,1.6580927E-1,0E0,0E0,0E0,0E0,0E0,0E0,0E0],"parents":[2147483647,0,0,1,1,2,2,3,3,4,4,5,5],"right_children":[2,4,6,8,10,12,-1,-1,-1,-1,-1,-1,-1],"split_conditions":[1.1189145E0,-1.011129E-1,-2.49992E-1,-7.504145E-1,3.2389784E-1,-2.671672E-1,-1.1011518E-2,4.094861E-4,-2.5755214E-3,3.8394746E-3,-3.3624812E-3,-4.37462E-3,-4.1871707E-4],"split_indices":[4,5,2,2,0,7,0,0,0,0,0,0,0],"split_type":[0,0,0,0,0,0,0,0,0,0,0,0,0],"sum_hessian":[9E1,7.6E1,1.4E1,3E1,4.6E1,4E0,1E1,1.2E1,1.8E1,4E1,6E0,2E0,2E0],"tree_param":{"num_deleted":"0","num_feature":"13","num_nodes":"13","size_leaf_vector":"1"}},{"base_weights":[1.9290718E-3,1.4968081E-1,-7.8973585E-1,-1.261849E-1,3.167111E-1,-2.4129324E-1,-9.8498356E-1,2.2770977E-4,-2.6672843E-3,-7.6328632E-3,3.5678248E-3,-5.7983637E-4,-4.8726583E-3,-2.3426937E-3,-1.0423664E-2],"categories":[],"categories_nodes":[],"categories_segments":[],"categories_sizes":[],"default_left":[0,0,0,0,0,0,0,0,0,0,0,0,0,0,0],"id":1,"left_children":[1,3,5,7,9,11,13,-1,-1,-1,-1,-1,-1,-1,-1],"loss_changes":[1.0411556E1,3.4958088E0,1.2614803E0,6.131825E-1,2.3063464E0,1.9719225E-1,1.8658638E-1,0E0,0E0,0E0,0E0,0E0,0E0,0E0,0E0],"parents":[2147483647,0,0,1,1,2,2,3,3,4,4,5,5,6,6],"right_children":[2,4,6,8,10,12,14,-1,-1,-1,-1,-1,-1,-1,-1],"split_conditions":[1.1073864E0,-1.011129E-1,-2.7263284E-1,2.0177358E-1,-2.8835003E0,6.026493E-1,-1.6192693E0,2.2770977E-4,-2.6672843E-3,-7.6328632E-3,3.5678248E-3,-5.7983637E-4,-4.8726583E-3,-2.3426937E-3,-1.0423664E-2],"split_indices":[4,5,2,11,1,1,11,0,0,0,0,0,0,0,0],"split_type":[0,0,0,0,0,0,0,0,0,0,0,0,0,0,0],"sum_hessian":[8.7E1,7.4E1,1.3E1,2.8E1,4.6E1,4E0,9E0,1.4E1,1.4E1,1E0,4.5E1,3E0,1E0,1E0,8E0],"tree_param":{"num_deleted":"0","num_feature":"13","num_nodes":"15","size_leaf_vector":"1"}},{"base_weights":[2.7331796E-2,1.6876262E-1,-5.842969E-1,-6.7699246E-2,3.223857E-1,-1.1876154E-1,-1.034987E-2,8.6062145E-4,-2.2760793E-3,-7.5946995E-3,3.672961E-3,5.5780457E-3,-2.7305786E-3],"categories":[],"categories_nodes":[],"categories_segments":[],"categories_sizes":[],"default_left":[0,0,0,0,0,0,0,0,0,0,0,0,0],"id":2,"left_children":[1,3,5,7,9,11,-1,-1,-1,-1,-1,-1,-1],"loss_changes":[7.3648725E0,2.5283191E0,3.234078E0,7.0804626E-1,2.3195858E0,1.091838E0,0E0,0E0,0E0,0E0,0E0,0E0,0E0],"parents":[2147483647,0,0,1,1,2,2,3,3,4,4,5,5],"right_children":[2,4,6,8,10,12,-1,-1,-1,-1,-1,-1,-1],"split_conditions":[1.1073864E0,-1.011129E-1,-6.361725E-2,2.0177358E-1,-2.8835003E0,-1.6666763E0,-1.034987E-2,8.6062145E-4,-2.2760793E-3,-7.5946995E-3,3.672961E-3,5.5780457E-3,-2.7305786E-3],"split_indices":[4,5,2,11,1,2,0,0,0,0,0,0,0],"split_type":[0,0,0,0,0,0,0,0,0,0,0,0,0],"sum_hessian":[8.3E1,6.8E1,1.5E1,2.7E1,4.1E1,8E0,7E0,1.4E1,1.3E1,1E0,4E1,1E0,7E0],"tree_param":{"num_deleted":"0","num_feature":"13","num_nodes":"13","size_leaf_vector":"1"}},{"base_weights":[-3.873131E-2,1.1641613E-1,-7.0888513E-1,-7.980469E-2,3.2506448E-1,-4.8501015E-2,-9.5914817E-1,6.110362E-4,-3.0379288E-3,4.3497593E-3,-1.414755E-3,5.5501554E-3,-2.8020744E-3,-1.0151028E-3,-1.0221588E-2],"categories":[],"categories_nodes":[],"categories_segments":[],"categories_sizes":[],"default_left":[0,0,0,0,0,0,0,0,0,0,0,0,0,0,0],"id":3,"left_children":[1,3,5,7,9,11,13,-1,-1,-1,-1,-1,-1,-1,-1],"loss_changes":[9.959928E0,3.2193513E0,2.9283361E0,1.3125967E0,2.0101056E0,9.945515E-1,5.987644E-1,0E0,0E0,0E0,0E0,0E0,0E0,0E0,0E0],"parents":[2147483647,0,0,1,1,2,2,3,3,4,4,5,5,6,6],"right_children":[2,4,6,8,10,12,14,-1,-1,-1,-1,-1,-1,-1,-1],"split_conditions":[1.1073864E0,1.2892334E-1,-2.49992E-1,1.3697514E-1,3.9830765E-1,-1.6666763E0,-1.132081E0,6.110362E-4,-3.0379288E-3,4.3497593E-3,-1.414755E-3,5.5501554E-3,-2.8020744E-3,-1.0151028E-3,-1.0221588E-2],"split_indices":[4,5,2,6,8,2,6,0,0,0,0,0,0,0,0],"split_type":[0,0,0,0,0,0,0,0,0,0,0,0,0,0,0],"sum_hessian":[9.4E1,7.7E1,1.7E1,4E1,3.7E1,5E0,1.2E1,2.5E1,1.5E1,3E1,7E0,1E0,4E0,1E0,1.1E1],"tree_param":{"num_deleted":"0","num_feature":"13","num_nodes":"15","size_leaf_vector":"1"}},{"base_weights":[1.251882E-2,2.9141334E-1,-3.573294E-1,-1.17846124E-1,4.140709E-1,-7.335954E-1,-7.591895E-2,4.101451E-4,-3.8022604E-3,5.441866E-3,1.5225791E-3,-8.3120103E-4,-8.670458E-3,-3.7818598E-3,7.079018E-4],"categories":[],"categories_nodes":[],"categories_segments":[],"categories_sizes":[],"default_left":[0,0,0,0,0,0,0,0,0,0,0,0,0,0,0],"id":4,"left_children":[1,3,5,7,9,11,13,-1,-1,-1,-1,-1,-1,-1,-1],"loss_changes":[9.593805E0,2.709331E0,4.179713E0,5.574587E-1,1.3138485E0,1.403636E0,1.0910599E0,0E0,0E0,0E0,0E0,0E0,0E0,0E0,0E0],"parents":[2147483647,0,0,1,1,2,2,3,3,4,4,5,5,6,6],"right_children":[2,4,6,8,10,12,14,-1,-1,-1,-1,-1,-1,-1,-1],"split_conditions":[-6.838551E-2,-1.0526219E-1,-5.603817E-1,-2.050068E-1,2.0056641E-1,-3.3031958E-1,-3.0265483E-1,4.101451E-4,-3.8022604E-3,5.441866E-3,1.5225791E-3,-8.3120103E-4,-8.670458E-3,-3.7818598E-3,7.079018E-4],"split_indices":[0,5,3,5,1,4,7,0,0,0,0,0,0,0,0],"split_type":[0,0,0,0,0,0,0,0,0,0,0,0,0,0,0],"sum_hessian":[9.1E1,5.2E1,3.9E1,1.2E1,4E1,1.6E1,2.3E1,8E0,4E0,2.6E1,1.4E1,3E0,1.3E1,7E0,1.6E1],"tree_param":{"num_deleted":"0","num_feature":"13","num_nodes":"15","size_leaf_vector":"1"}},{"base_weights":[1.0898545E-2,3.088851E-1,-3.1971475E-1,3.157083E-2,5.181728E-1,-2.3484582E-2,-5.093097E-1,-1.6915629E-3,1.9898834E-3,6.25767E-3,2.0954486E-3,5.8614067E-4,-7.506301E-3,-2.2604854E-3,-9.265271E-3],"categories":[],"categories_nodes":[],"categories_segments":[],"categories_sizes":[],"default_left":[0,0,0,0,0,0,0,0,0,0,0,0,0,0,0],"id":5,"left_children":[1,3,5,7,9,11,13,-1,-1,-1,-1,-1,-1,-1,-1],"loss_changes":[9.556514E0,2.943602E0,2.5715718E0,8.065805E-1,8.318653E-1,1.1782533E0,3.0996404E0,0E0,0E0,0E0,0E0,0E0,0E0,0E0,0E0],"parents":[2147483647,0,0,1,1,2,2,3,3,4,4,5,5,6,6],"right_children":[2,4,6,8,10,12,14,-1,-1,-1,-1,-1,-1,-1,-1],"split_conditions":[-8.466773E-2,-4.0329844E-1,-4.0931973E-1,-1.0526219E-1,3.9245848E-2,1.1601834E0,-4.8992187E-2,-1.6915629E-3,1.9898834E-3,6.25767E-3,2.0954486E-3,5.8614067E-4,-7.506301E-3,-2.2604854E-3,-9.265271E-3],"split_indices":[0,10,9,5,8,5,6,0,0,0,0,0,0,0,0],"split_type":[0,0,0,0,0,0,0,0,0,0,0,0,0,0,0],"sum_hessian":[9.5E1,5E1,4.5E1,2.2E1,2.8E1,1.8E1,2.7E1,1E1,1.2E1,2E1,8E0,1.7E1,1E0,1.7E1,1E1],"tree_param":{"num_deleted":"0","num_feature":"13","num_nodes":"15","size_leaf_vector":"1"}},{"base_weights":[9.695139E-3,-2.514286E-1,2.592549E-1,1.5275371E-1,-3.9078492E-1,-1.5455498E-1,3.7849528E-1,-1.147294E-4,3.8496559E-3,-1.7009022E-3,-7.172314E-3,2.6536246E-3,-7.115284E-3,5.4224185E-3,1.3992193E-3],"categories":[],"categories_nodes":[],"categories_segments":[],"categories_sizes":[],"default_left":[0,0,0,0,0,0,0,0,0,0,0,0,0,0,0],"id":6,"left_children":[1,3,5,7,9,11,13,-1,-1,-1,-1,-1,-1,-1,-1],"loss_changes":[5.864956E0,2.5380101E0,2.3282692E0,4.620413E-1,2.2554913E0,2.7615242E0,1.3304892E0,0E0,0E0,0E0,0E0,0E0,0E0,0E0,0E0],"parents":[2147483647,0,0,1,1,2,2,3,3,4,4,5,5,6,6],"right_children":[2,4,6,8,10,12,14,-1,-1,-1,-1,-1,-1,-1,-1],"split_conditions":[2.4291487E-2,-3.204144E-1,-1.0676515E0,-5.312931E-1,1.7837463E-1,6.0850483E-1,2.0056641E-1,-1.147294E-4,3.8496559E-3,-1.7009022E-3,-7.172314E-3,2.6536246E-3,-7.115284E-3,5.4224185E-3,1.3992193E-3],"split_indices":[5,6,3,6,4,2,1,0,0,0,0,0,0,0,0],"split_type":[0,0,0,0,0,0,0,0,0,0,0,0,0,0,0],"sum_hessian":[8.8E1,4.3E1,4.5E1,1.1E1,3.2E1,1E1,3.5E1,7E0,4E0,2E1,1.2E1,6E0,4E0,2E1,1.5E1],"tree_param":{"num_deleted":"0","num_feature":"13","num_nodes":"15","size_leaf_vector":"1"}},{"base_weights":[-3.256413E-2,2.7833825E-1,-3.427092E-1,-6.277241E-2,5.0378644E-1,-1.0800379E-1,-7.7362573E-1,-2.2510127E-3,1.2456771E-3,6.1749713E-3,1.0692937E-3,-5.129896E-3,1.321461E-3,-7.6537725E-4,-9.415196E-3],"categories":[],"categories_nodes":[],"categories_segments":[],"categories_sizes":[],"default_left":[0,0,0,0,0,0,0,0,0,0,0,0,0,0,0],"id":7,"left_children":[1,3,5,7,9,11,13,-1,-1,-1,-1,-1,-1,-1,-1],"loss_changes":[8.291501E0,3.338444E0,4.2653985E0,5.7543314E-1,1.1072702E0,2.8882515E0,1.6834898E0,0E0,0E0,0E0,0E0,0E0,0E0,0E0,0E0],"parents":[2147483647,0,0,1,1,2,2,3,3,4,4,5,5,6,6],"right_children":[2,4,6,8,10,12,14,-1,-1,-1,-1,-1,-1,-1,-1],"split_conditions":[-8.466773E-2,-4.0329844E-1,4.1300285E-1,-1.0526219E-1,3.9830765E-1,-2.671672E-1,-7.554388E-1,-2.2510127E-3,1.2456771E-3,6.1749713E-3,1.0692937E-3,-5.129896E-3,1.321461E-3,-7.6537725E-4,-9.415196E-3],"split_indices":[0,10,2,5,8,7,10,0,0,0,0,0,0,0,0],"split_type":[0,0,0,0,0,0,0,0,0,0,0,0,0,0,0],"sum_hessian":[8.4E1,4.2E1,4.2E1,1.7E1,2.5E1,2.8E1,1.4E1,9E0,8E0,1.9E1,6E0,1E1,1.8E1,3E0,1.1E1],"tree_param":{"num_deleted":"0","num_feature":"13","num_nodes":"15","size_leaf_vector":"1"}},{"base_weights":[2.076959E-2,1.5545928E-1,-6.361049E-1,3.0616862E-1,-8.376071E-2,-2.5761706E-1,-1.03186E-2,4.5726076E-3,1.1171757E-3,-4.444781E-3,1.2948414E-3,-4.152697E-3,-1.0957909E-3],"categories":[],"categories_nodes":[],"categories_segments":[],"categories_sizes":[],"default_left":[0,0,0,0,0,0,0,0,0,0,0,0,0],"id":8,"left_children":[1,3,5,7,9,11,-1,-1,-1,-1,-1,-1,-1],"loss_changes":[7.796146E0,2.6574907E0,1.9810023E0,1.2710176E0,2.288266E0,1.6454238E-1,0E0,0E0,0E0,0E0,0E0,0E0,0E0],"parents":[2147483647,0,0,1,1,2,2,3,3,4,4,5,5],"right_children":[2,4,6,8,10,12,-1,-1,-1,-1,-1,-1,-1],"split_conditions":[1.1073864E0,-8.466773E-2,-6.361725E-2,2.0056641E-1,-2.9881522E-1,-2.671672E-1,-1.03186E-2,4.5726076E-3,1.1171757E-3,-4.444781E-3,1.2948414E-3,-4.152697E-3,-1.0957909E-3],"split_indices":[4,0,2,1,7,7,0,0,0,0,0,0,0],"split_type":[0,0,0,0,0,0,0,0,0,0,0,0,0],"sum_hessian":[8.6E1,7.2E1,1.4E1,4.4E1,2.8E1,8E0,6E0,2.4E1,2E1,1E1,1.8E1,3E0,5E0],"tree_param":{"num_deleted":"0","num_feature":"13","num_nodes":"13","size_leaf_vector":"1"}},{"base_weights":[1.0530722E-2,1.1898956E-1,-8.383775E-1,-8.939129E-2,3.3942166E-1,-3.5685793E-1,-9.0573095E-3,9.499941E-4,-3.0464728E-3,-7.39259E-3,3.8376164E-3,-4.3500517E-3,-1.0028172E-3],"categories":[],"categories_nodes":[],"categories_segments":[],"categories_sizes":[],"default_left":[0,0,0,0,0,0,0,0,0,0,0,0,0],"id":9,"left_children":[1,3,5,7,9,11,-1,-1,-1,-1,-1,-1,-1],"loss_changes":[8.93863E0,3.9806504E0,3.3535957E-2,1.8150457E0,2.2925043E0,1.6529113E-2,0E0,0E0,0E0,0E0,0E0,0E0,0E0],"parents":[2147483647,0,0,1,1,2,2,3,3,4,4,5,5],"right_children":[2,4,6,8,10,12,-1,-1,-1,-1,-1,-1,-1],"split_conditions":[1.2626759E0,5.0958335E-2,-1.132081E0,4.8075907E-2,-2.8835003E0,7.618876E-1,-9.0573095E-3,9.499941E-4,-3.0464728E-3,-7.39259E-3,3.8376164E-3,-4.3500517E-3,-1.0028172E-3],"split_indices":[8,5,6,6,1,0,0,0,0,0,0,0,0],"split_type":[0,0,0,0,0,0,0,0,0,0,0,0,0],"sum_hessian":[9.5E1,8.5E1,1E1,4.4E1,4.1E1,2E0,8E0,2.4E1,2E1,1E0,4E1,1E0,1E0],"tree_param":{"num_deleted":"0","num_feature":"13","num_nodes":"13","size_leaf_vector":"1"}},{"base_weights":[6.3164113E-3,2.7302492E-1,-3.0111548E-1,-1.4663179E-1,3.9942765E-1,-6.7047894E-1,-1.3529111E-1,1.3405113E-3,-2.862743E-3,4.8565716E-3,3.8871815E-4,-7.862699E-4,-8.247452E-3,1.290476E-3,-3.1356367E-3],"categories":[],"categories_nodes":[],"categories_segments":[],"categories_sizes":[],"default_left":[0,0,0,0,0,0,0,0,0,0,0,0,0,0,0],"id":10,"left_children":[1,3,5,7,9,11,13,-1,-1,-1,-1,-1,-1,-1,-1],"loss_changes":[8.117693E0,2.8699937E0,2.7267647E0,5.479139E-1,1.255835E0,1.2133918E0,1.5955675E0,0E0,0E0,0E0,0E0,0E0,0E0,0E0,0E0],"parents":[2147483647,0,0,1,1,2,2,3,3,4,4,5,5,6,6],"right_children":[2,4,6,8,10,12,14,-1,-1,-1,-1,-1,-1,-1,-1],"split_conditions":[-8.466773E-2,-1.0526219E-1,-8.4063053E-1,1.356402E-1,5.664512E-1,-3.3031958E-1,-4.4090924E-1,1.3405113E-3,-2.862743E-3,4.8565716E-3,3.8871815E-4,-7.862699E-4,-8.247452E-3,1.290476E-3,-3.1356367E-3],"split_indices":[0,5,3,11,1,4,9,0,0,0,0,0,0,0,0],"split_type":[0,0,0,0,0,0,0,0,0,0,0,0,0,0,0],"sum_hessian":[9.7E1,5.2E1,4.5E1,1.2E1,4E1,1.3E1,3.2E1,4E0,8E0,3.2E1,8E0,3E0,1E1,1.3E1,1.9E1],"tree_param":{"num_deleted":"0","num_feature":"13","num_nodes":"15","size_leaf_vector":"1"}},{"base_weights":[-3.6905132E-2,2.691257E-1,-3.0886945E-1,-2.6161019E-2,5.013571E-1,-6.1181194E-1,-7.3028035E-2,-2.4466866E-3,1.2169083E-3,2.1174438E-3,5.7004145E-3,-4.2246975E-5,-8.140594E-3,4.784384E-3,-1.3628288E-3],"categories":[],"categories_nodes":[],"categories_segments":[],"categories_sizes":[],"default_left":[0,0,0,0,0,0,0,0,0,0,0,0,0,0,0],"id":11,"left_children":[1,3,5,7,9,11,13,-1,-1,-1,-1,-1,-1,-1,-1],"loss_changes":[7.240859E0,2.824685E0,3.2418537E0,6.436024E-1,3.3680964E-1,2.4542193E0,1.007042E0,0E0,0E0,0E0,0E0,0E0,0E0,0E0,0E0],"parents":[2147483647,0,0,1,1,2,2,3,3,4,4,5,5,6,6],"right_children":[2,4,6,8,10,12,14,-1,-1,-1,-1,-1,-1,-1,-1],"split_conditions":[-8.466773E-2,-4.64041E-1,-5.603817E-1,-8.7784386E-1,1.4356399E-1,-3.3031958E-1,-1.6666763E0,-2.4466866E-3,1.2169083E-3,2.1174438E-3,5.7004145E-3,-4.2246975E-5,-8.140594E-3,4.784384E-3,-1.3628288E-3],"split_indices":[0,10,3,0,5,4,2,0,0,0,0,0,0,0,0],"split_type":[0,0,0,0,0,0,0,0,0,0,0,0,0,0,0],"sum_hessian":[8.5E1,4E1,4.5E1,1.8E1,2.2E1,1.9E1,2.6E1,7E0,1.1E1,5E0,1.7E1,5E0,1.4E1,2E0,2.4E1],"tree_param":{"num_deleted":"0","num_feature":"13","num_nodes":"15","size_leaf_vector":"1"}},{"base_weights":[-6.5063974E-3,1.657291E-1,-6.950869E-1,-4.9671147E-2,3.825091E-1,-3.9027828E-1,-9.565312E-3,5.3487E-4,-2.2296575E-3,5.117446E-3,-6.205792E-4,-2.0198983E-3,-7.6228804E-3],"categories":[],"categories_nodes":[],"categories_segments":[],"categories_sizes":[],"default_left":[0,0,0,0,0,0,0,0,0,0,0,0,0],"id":12,"left_children":[1,3,5,7,9,11,-1,-1,-1,-1,-1,-1,-1],"loss_changes":[1.0670419E1,3.3810008E0,1.0611162E0,6.7336553E-1,2.1000962E0,5.464771E-1,0E0,0E0,0E0,0E0,0E0,0E0,0E0],"parents":[2147483647,0,0,1,1,2,2,3,3,4,4,5,5],"right_children":[2,4,6,8,10,12,-1,-1,-1,-1,-1,-1,-1],"split_conditions":[9.584614E-1,1.2892334E-1,1.9847944E-2,4.6646175E-1,7.80451E-1,8.7989634E-1,-9.565312E-3,5.3487E-4,-2.2296575E-3,5.117446E-3,-6.205792E-4,-2.0198983E-3,-7.6228804E-3],"split_indices":[4,5,2,3,1,1,0,0,0,0,0,0,0],"split_type":[0,0,0,0,0,0,0,0,0,0,0,0,0],"sum_hessian":[8.8E1,7.1E1,1.7E1,3.6E1,3.5E1,9E0,8E0,2.3E1,1.3E1,2.7E1,8E0,7E0,2E0],"tree_param":{"num_deleted":"0","num_feature":"13","num_nodes":"13","size_leaf_vector":"1"}},{"base_weights":[2.2204697E-2,1.4270186E-1,-6.507227E-1,-3.9300065E-2,3.4544182E-1,2.3251057E-2,-7.649892E-1,3.179664E-3,-1.4637172E-3,-7.299275E-3,3.9558895E-3,-1.4669871E-3,1.8157529E-3,-2.040832E-3,-7.974276E-3],"categories":[],"categories_nodes":[],"categories_segments":[],"categories_sizes":[],"default_left":[0,0,0,0,0,0,0,0,0,0,0,0,0,0,0],"id":13,"left_children":[1,3,5,7,9,11,13,-1,-1,-1,-1,-1,-1,-1,-1],"loss_changes":[7.4716706E0,2.8917031E0,1.095964E0,1.6531721E0,2.284039E0,1.0735837E-1,5.5597305E-2,0E0,0E0,0E0,0E0,0E0,0E0,0E0,0E0],"parents":[2147483647,0,0,1,1,2,2,3,3,4,4,5,5,6,6],"right_children":[2,4,6,8,10,12,14,-1,-1,-1,-1,-1,-1,-1,-1],"split_conditions":[1.167896E0,1.2892334E-1,-4.4090924E-1,-1.1458154E0,-2.8835003E0,-1.1009144E0,-1.6192693E0,3.179664E-3,-1.4637172E-3,-7.299275E-3,3.9558895E-3,-1.4669871E-3,1.8157529E-3,-2.040832E-3,-7.974276E-3],"split_indices":[8,5,9,2,1,1,11,0,0,0,0,0,0,0,0],"split_type":[0,0,0,0,0,0,0,0,0,0,0,0,0,0,0],"sum_hessian":[9E1,7.7E1,1.3E1,4.1E1,3.6E1,2E0,1.1E1,9E0,3.2E1,1E0,3.5E1,1E0,1E0,1E0,1E1],"tree_param":{"num_deleted":"0","num_feature":"13","num_nodes":"15","size_leaf_vector":"1"}},{"base_weights":[-4.1299783E-2,1.03000894E-1,-6.0200745E-1,-9.36562E-2,3.0205944E-1,-3.0218873E-2,-8.449012E-1,6.680914E-4,-3.1468628E-3,4.3218164E-3,-1.1851306E-3,5.490999E-3,-2.1828865E-3,-9.2534063E-4,-8.956576E-3],"categories":[],"categories_nodes":[],"categories_segments":[],"categories_sizes":[],"default_left":[0,0,0,0,0,0,0,0,0,0,0,0,0,0,0],"id":14,"left_children":[1,3,5,7,9,11,13,-1,-1,-1,-1,-1,-1,-1,-1],"loss_changes":[7.910326E0,3.0816994E0,2.7521458E0,1.4397306E0,2.1855254E0,8.8252884E-1,4.5174503E-1,0E0,0E0,0E0,0E0,0E0,0E0,0E0,0E0],"parents":[2147483647,0,0,1,1,2,2,3,3,4,4,5,5,6,6],"right_children":[2,4,6,8,10,12,14,-1,-1,-1,-1,-1,-1,-1,-1],"split_conditions":[1.1073864E0,5.0958335E-2,-2.49992E-1,1.3697514E-1,3.9830765E-1,-1.6666763E0,-1.132081E0,6.680914E-4,-3.1468628E-3,4.3218164E-3,-1.1851306E-3,5.490999E-3,-2.1828865E-3,-9.2534063E-4,-8.956576E-3],"split_indices":[4,5,2,6,8,2,6,0,0,0,0,0,0,0,0],"split_type":[0,0,0,0,0,0,0,0,0,0,0,0,0,0,0],"sum_hessian":[9.6E1,7.7E1,1.9E1,3.9E1,3.8E1,6E0,1.3E1,2.3E1,1.6E1,2.9E1,9E0,1E0,5E0,1E0,1.2E1],"tree_param":{"num_deleted":"0","num_feature":"13","num_nodes":"15","size_leaf_vector":"1"}},{"base_weights":[1.4903219E-2,2.7364466E-1,-3.6312222E-1,3.4483808E-1,-7.409024E-2,1.1640424E-1,-5.9795105E-1,3.6977343E-3,-1.2751484E-3,-3.1711864E-3,2.3236189E-3,3.7247774E-3,-1.5629842E-3,-2.7417664E-3,-9.258587E-3],"categories":[],"categories_nodes":[],"categories_segments":[],"categories_sizes":[],"default_left":[0,0,0,0,0,0,0,0,0,0,0,0,0,0,0],"id":15,"left_children":[1,3,5,7,9,11,13,-1,-1,-1,-1,-1,-1,-1,-1],"loss_changes":[8.902342E0,1.3623972E0,4.2360497E0,5.7717466E-1,8.18452E-1,9.660327E-1,2.4003534E0,0E0,0E0,0E0,0E0,0E0,0E0,0E0,0E0],"parents":[2147483647,0,0,1,1,2,2,3,3,4,4,5,5,6,6],"right_children":[2,4,6,8,10,12,14,-1,-1,-1,-1,-1,-1,-1,-1],"split_conditions":[7.9461755E-3,9.539765E-1,-3.9202845E-1,1.625143E0,-1.252546E-1,5.493677E-1,2.4430068E-1,3.6977343E-3,-1.2751484E-3,-3.1711864E-3,2.3236189E-3,3.7247774E-3,-1.5629842E-3,-2.7417664E-3,-9.258587E-3],"split_indices":[0,6,6,1,5,1,2,0,0,0,0,0,0,0,0],"split_type":[0,0,0,0,0,0,0,0,0,0,0,0,0,0,0],"sum_hessian":[8.9E1,5.3E1,3.6E1,4.4E1,9E0,1.2E1,2.4E1,4.2E1,2E0,5E0,4E0,6E0,6E0,1.3E1,1.1E1],"tree_param":{"num_deleted":"0","num_feature":"13","num_nodes":"15","size_leaf_vector":"1"}},{"base_weights":[5.519502E-2,1.5251681E-1,-5.333353E-1,-2.6820429E-2,3.1368226E-1,2.2361755E-2,-6.4671093E-1,7.345565E-4,-3.7443417E-3,3.9533386E-3,-3.0428523E-3,1.7847108E-3,-1.4492845E-3,-6.9769355E-3,-9.393358E-4],"categories":[],"categories_nodes":[],"categories_segments":[],"categories_sizes":[],"default_left":[0,0,0,0,0,0,0,0,0,0,0,0,0,0,0],"id":16,"left_children":[1,3,5,7,9,11,13,-1,-1,-1,-1,-1,-1,-1,-1],"loss_changes":[4.8353195E0,2.0894265E0,7.7049184E-1,1.2475113E0,2.0377002E0,1.04212224E-1,2.162838E-1,0E0,0E0,0E0,0E0,0E0,0E0,0E0,0E0],"parents":[2147483647,0,0,1,1,2,2,3,3,4,4,5,5,6,6],"right_children":[2,4,6,8,10,12,14,-1,-1,-1,-1,-1,-1,-1,-1],"split_conditions":[1.2526733E0,5.0958335E-2,-4.4090924E-1,1.4709443E0,3.2389784E-1,1.1850967E0,5.7496214E-1,7.345565E-4,-3.7443417E-3,3.9533386E-3,-3.0428523E-3,1.7847108E-3,-1.4492845E-3,-6.9769355E-3,-9.393358E-4],"split_indices":[8,5,9,6,0,0,3,0,0,0,0,0,0,0,0],"split_type":[0,0,0,0,0,0,0,0,0,0,0,0,0,0,0],"sum_hessian":[8.2E1,7.1E1,1.1E1,3.4E1,3.7E1,2E0,9E0,2.7E1,7E0,3.3E1,4E0,1E0,1E0,8E0,1E0],"tree_param":{"num_deleted":"0","num_feature":"13","num_nodes":"15","size_leaf_vector":"1"}},{"base_weights":[-3.3742096E-3,2.7179006E-1,-3.040567E-1,-1.0333046E-1,4.508569E-1,-3.1593323E-2,-6.158099E-1,-3.62051E-3,1.3812452E-3,5.8588013E-3,1.7699479E-3,7.7288103E-4,-4.6080034E-3,-1.0227512E-2,-2.592864E-3],"categories":[],"categories_nodes":[],"categories_segments":[],"categories_sizes":[],"default_left":[0,0,0,0,0,0,0,0,0,0,0,0,0,0,0],"id":17,"left_children":[1,3,5,7,9,11,13,-1,-1,-1,-1,-1,-1,-1,-1],"loss_changes":[7.4462395E0,3.2036545E0,3.633022E0,1.0495181E0,1.0795898E0,1.1571985E0,2.636497E0,0E0,0E0,0E0,0E0,0E0,0E0,0E0,0E0],"parents":[2147483647,0,0,1,1,2,2,3,3,4,4,5,5,6,6],"right_children":[2,4,6,8,10,12,14,-1,-1,-1,-1,-1,-1,-1,-1],"split_conditions":[-6.838551E-2,-4.0329844E-1,-6.5420896E-2,-1.0526219E-1,3.9245848E-2,3.451195E-1,4.33502E-1,-3.62051E-3,1.3812452E-3,5.8588013E-3,1.7699479E-3,7.7288103E-4,-4.6080034E-3,-1.0227512E-2,-2.592864E-3],"split_indices":[0,10,6,5,8,11,11,0,0,0,0,0,0,0,0],"split_type":[0,0,0,0,0,0,0,0,0,0,0,0,0,0,0],"sum_hessian":[8.8E1,4.6E1,4.2E1,1.5E1,3.1E1,2.3E1,1.9E1,7E0,8E0,2E1,1.1E1,1.9E1,4E0,8E0,1.1E1],"tree_param":{"num_deleted":"0","num_feature":"13","num_nodes":"15","size_leaf_vector":"1"}},{"base_weights":[9.072717E-3,1.3043116E-1,-5.740527E-1,2.1790493E-1,-1.6539013E-1,-2.3130351E-1,-8.450452E-3,3.6183584E-3,-5.926249E-4,-3.2700526E-3,1.1220366E-3,-3.8796698E-3,-5.9712026E-4],"categories":[],"categories_nodes":[],"categories_segments":[],"categories_sizes":[],"default_left":[0,0,0,0,0,0,0,0,0,0,0,0,0],"id":18,"left_children":[1,3,5,7,9,11,-1,-1,-1,-1,-1,-1,-1],"loss_changes":[6.1608524E0,1.8991547E0,1.1977749E0,2.2554488E0,7.993682E-1,1.9189066E-1,0E0,0E0,0E0,0E0,0E0,0E0,0E0],"parents":[2147483647,0,0,1,1,2,2,3,3,4,4,5,5],"right_children":[2,4,6,8,10,12,-1,-1,-1,-1,-1,-1,-1],"split_conditions":[1.1073864E0,4.5145458E-1,-1.2494454E-1,-6.838551E-2,-4.64041E-1,-2.671672E-1,-8.450452E-3,3.6183584E-3,-5.926249E-4,-3.2700526E-3,1.1220366E-3,-3.8796698E-3,-5.9712026E-4],"split_indices":[4,6,2,0,10,7,0,0,0,0,0,0,0],"split_type":[0,0,0,0,0,0,0,0,0,0,0,0,0],"sum_hessian":[8.5E1,7.1E1,1.4E1,5.5E1,1.6E1,7E0,7E0,3.6E1,1.9E1,1E1,6E0,3E0,4E0],"tree_param":{"num_deleted":"0","num_feature":"13","num_nodes":"13","size_leaf_vector":"1"}},{"base_weights":[1.3462009E-2,1.2243549E-1,-5.177731E-1,-8.906172E-2,2.9914725E-1,-8.019477E-2,-8.906297E-3,6.220629E-4,-3.7157026E-3,-7.141244E-3,3.4343943E-3,5.440371E-3,-2.4709033E-3],"categories":[],"categories_nodes":[],"categories_segments":[],"categories_sizes":[],"default_left":[0,0,0,0,0,0,0,0,0,0,0,0,0],"id":19,"left_children":[1,3,5,7,9,11,-1,-1,-1,-1,-1,-1,-1],"loss_changes":[5.09987E0,2.7549477E0,2.3758864E0,1.4760872E0,2.04046E0,9.6787864E-1,0E0,0E0,0E0,0E0,0E0,0E0,0E0],"parents":[2147483647,0,0,1,1,2,2,3,3,4,4,5,5],"right_children":[2,4,6,8,10,12,-1,-1,-1,-1,-1,-1,-1],"split_conditions":[1.1073864E0,5.0958335E-2,-6.361725E-2,3.8691264E-1,-2.8835003E0,-1.6666763E0,-8.906297E-3,6.220629E-4,-3.7157026E-3,-7.141244E-3,3.4343943E-3,5.440371E-3,-2.4709033E-3],"split_indices":[4,5,2,6,1,2,0,0,0,0,0,0,0],"split_type":[0,0,0,0,0,0,0,0,0,0,0,0,0],"sum_hessian":[8.6E1,7.2E1,1.4E1,3.3E1,3.9E1,7E0,7E0,2.2E1,1.1E1,1E0,3.8E1,1E0,6E0],"tree_param":{"num_deleted":"0","num_feature":"13","num_nodes":"13","size_leaf_vector":"1"}},{"base_weights":[8.754334E-3,-2.6767573E-1,2.6196617E-1,-5.0358914E-2,-7.82019E-1,3.4429356E-1,-2.6942185E-1,1.9927644E-4,-7.364382E-3,-1.798803E-3,-8.751459E-3,4.7912183E-3,1.1783303E-3,9.5647905E-4,-7.880642E-3],"categories":[],"categories_nodes":[],"categories_segments":[],"categories_sizes":[],"default_left":[0,0,0,0,0,0,0,0,0,0,0,0,0,0,0],"id":20,"left_children":[1,3,5,7,9,11,13,-1,-1,-1,-1,-1,-1,-1,-1],"loss_changes":[6.4397E0,4.878738E0,2.192654E0,1.5577843E0,5.71558E-1,1.2259412E0,1.4007611E0,0E0,0E0,0E0,0E0,0E0,0E0,0E0,0E0],"parents":[2147483647,0,0,1,1,2,2,3,3,4,4,5,5,6,6],"right_children":[2,4,6,8,10,12,14,-1,-1,-1,-1,-1,-1,-1,-1],"split_conditions":[-5.4421768E-2,3.0548674E-1,2.1923521E-1,1.0362711E0,-2.6242742E-1,2.0056641E-1,3.2960787E-1,1.9927644E-4,-7.364382E-3,-1.798803E-3,-8.751459E-3,4.7912183E-3,1.1783303E-3,9.5647905E-4,-7.880642E-3],"split_indices":[5,2,0,1,6,1,5,0,0,0,0,0,0,0,0],"split_type":[0,0,0,0,0,0,0,0,0,0,0,0,0,0,0],"sum_hessian":[9E1,4.3E1,4.7E1,3.1E1,1.2E1,4.1E1,6E0,2.9E1,2E0,2E0,1E1,2.5E1,1.6E1,4E0,2E0],"tree_param":{"num_deleted":"0","num_feature":"13","num_nodes":"15","size_leaf_vector":"1"}},{"base_weights":[-6.8928446E-3,1.3826753E-1,-7.0320314E-1,2.540611E-1,-1.1946927E-1,-8.0739546E-1,-2.1482527E-1,4.194519E-3,-1.4997649E-4,-1.4029026E-4,-6.1680316E-3,1.3465881E-4,-8.832433E-3,-3.7870882E-4,-2.6118644E-3],"categories":[],"categories_nodes":[],"categories_segments":[],"categories_sizes":[],"default_left":[0,0,0,0,0,0,0,0,0,0,0,0,0,0,0],"id":21,"left_children":[1,3,5,7,9,11,13,-1,-1,-1,-1,-1,-1,-1,-1],"loss_changes":[8.789824E0,2.1791396E0,5.8982944E-1,2.2312825E0,1.197444E0,7.590203E-1,2.2923887E-2,0E0,0E0,0E0,0E0,0E0,0E0,0E0,0E0],"parents":[2147483647,0,0,1,1,2,2,3,3,4,4,5,5,6,6],"right_children":[2,4,6,8,10,12,14,-1,-1,-1,-1,-1,-1,-1,-1],"split_conditions":[1.1189145E0,4.291328E-1,1.3218055E0,5.664512E-1,9.259531E-1,-7.547378E-1,-7.069706E-2,4.194519E-3,-1.4997649E-4,-1.4029026E-4,-6.1680316E-3,1.3465881E-4,-8.832433E-3,-3.7870882E-4,-2.6118644E-3],"split_indices":[4,6,9,1,3,9,0,0,0,0,0,0,0,0,0],"split_type":[0,0,0,0,0,0,0,0,0,0,0,0,0,0,0],"sum_hessian":[8.5E1,7.1E1,1.4E1,4.9E1,2.2E1,1.1E1,3E0,3E1,1.9E1,1.9E1,3E0,1E0,1E1,1E0,2E0],"tree_param":{"num_deleted":"0","num_feature":"13","num_nodes":"15","size_leaf_vector":"1"}},{"base_weights":[-4.5727648E-2,9.3376346E-2,-6.150592E-1,2.1732914E-1,-1.1802215E-1,5.4563354E-3,-7.1543133E-1,3.46647E-3,-1.1225196E-3,9.3195133E-4,-3.0729014E-3,-2.5445526E-3,-8.376966E-3],"categories":[],"categories_nodes":[],"categories_segments":[],"categories_sizes":[],"default_left":[0,0,0,0,0,0,0,0,0,0,0,0,0],"id":22,"left_children":[1,3,5,7,9,-1,11,-1,-1,-1,-1,-1,-1],"loss_changes":[7.2642946E0,1.964704E0,2.4873853E0,2.0420852E0,1.1479847E0,0E0,7.449875E-1,0E0,0E0,0E0,0E0,0E0,0E0],"parents":[2147483647,0,0,1,1,2,2,3,3,4,4,6,6],"right_children":[2,4,6,8,10,-1,12,-1,-1,-1,-1,-1,-1],"split_conditions":[1.1189145E0,-8.466773E-2,-1.6666763E0,4.5145458E-1,-4.0931973E-1,5.4563354E-3,-2.49992E-1,3.46647E-3,-1.1225196E-3,9.3195133E-4,-3.0729014E-3,-2.5445526E-3,-8.376966E-3],"split_indices":[4,0,2,6,9,0,2,0,0,0,0,0,0],"split_type":[0,0,0,0,0,0,0,0,0,0,0,0,0],"sum_hessian":[9E1,7.3E1,1.7E1,4.6E1,2.7E1,1E0,1.6E1,3.3E1,1.3E1,1.3E1,1.4E1,4E0,1.2E1],"tree_param":{"num_deleted":"0","num_feature":"13","num_nodes":"13","size_leaf_vector":"1"}},{"base_weights":[-1.3051211E-2,2.752947E-1,-3.1392246E-1,-1.4087105E-2,4.7216403E-1,-1.1208221E-1,-5.8422583E-1,-2.221858E-3,1.1505724E-3,3.7227245E-3,7.1865693E-3,-4.0303576E-3,1.1313808E-3,-1.1391025E-3,-9.159181E-3],"categories":[],"categories_nodes":[],"categories_segments":[],"categories_sizes":[],"default_left":[0,0,0,0,0,0,0,0,0,0,0,0,0,0,0],"id":23,"left_children":[1,3,5,7,9,11,13,-1,-1,-1,-1,-1,-1,-1,-1],"loss_changes":[7.9811263E0,2.6842597E0,2.3896332E0,5.6305945E-1,4.218955E-1,1.814872E0,2.8596683E0,0E0,0E0,0E0,0E0,0E0,0E0,0E0,0E0],"parents":[2147483647,0,0,1,1,2,2,3,3,4,4,5,5,6,6],"right_children":[2,4,6,8,10,12,14,-1,-1,-1,-1,-1,-1,-1,-1],"split_conditions":[-8.466773E-2,-4.0329844E-1,4.1300285E-1,-2.893897E-1,5.59671E-1,-2.671672E-1,-1.9922173E-1,-2.221858E-3,1.1505724E-3,3.7227245E-3,7.1865693E-3,-4.0303576E-3,1.1313808E-3,-1.1391025E-3,-9.159181E-3],"split_indices":[0,10,2,3,2,7,6,0,0,0,0,0,0,0,0],"split_type":[0,0,0,0,0,0,0,0,0,0,0,0,0,0,0],"sum_hessian":[9E1,4.6E1,4.4E1,1.9E1,2.7E1,2.6E1,1.8E1,7E0,1.2E1,2.1E1,6E0,1.1E1,1.5E1,8E0,1E1],"tree_param":{"num_deleted":"0","num_feature":"13","num_nodes":"15","size_leaf_vector":"1"}},{"base_weights":[1.7119497E-2,1.3411956E-1,-5.612221E-1,-2.2270052E-1,1.9995639E-1,5.4233954E-3,-6.7878646E-1,9.973848E-4,-6.940628E-3,8.162745E-6,3.3987062E-3,-2.6986517E-3,-8.7597985E-3],"categories":[],"categories_nodes":[],"categories_segments":[],"categories_sizes":[],"default_left":[0,0,0,0,0,0,0,0,0,0,0,0,0],"id":24,"left_children":[1,3,5,7,9,-1,11,-1,-1,-1,-1,-1,-1],"loss_changes":[6.029878E0,1.7829316E0,2.3142257E0,1.8930519E0,1.7550626E0,0E0,8.9251566E-1,0E0,0E0,0E0,0E0,0E0,0E0],"parents":[2147483647,0,0,1,1,2,2,3,3,4,4,6,6],"right_children":[2,4,6,8,10,-1,12,-1,-1,-1,-1,-1,-1],"split_conditions":[9.584614E-1,-1.0798362E0,-1.6666763E0,4.1300285E-1,-2.5604862E-1,5.4233954E-3,7.814236E-2,9.973848E-4,-6.940628E-3,8.162745E-6,3.3987062E-3,-2.6986517E-3,-8.7597985E-3],"split_indices":[4,3,2,2,10,0,12,0,0,0,0,0,0],"split_type":[0,0,0,0,0,0,0,0,0,0,0,0,0],"sum_hessian":[8.7E1,7.3E1,1.4E1,1.1E1,6.2E1,1E0,1.3E1,7E0,4E0,2.6E1,3.6E1,5E0,8E0],"tree_param":{"num_deleted":"0","num_feature":"13","num_nodes":"13","size_leaf_vector":"1"}},{"base_weights":[1.5160264E-2,-2.546396E-1,3.385411E-1,-8.583695E-2,-6.2028295E-1,4.8170838E-1,9.368339E-2,-4.6529174E-3,-1.9733253E-4,7.418227E-4,-6.7518633E-3,5.2912785E-3,-4.2410372E-4,2.5806685E-3,-1.0295844E-3],"categories":[],"categories_nodes":[],"categories_segments":[],"categories_sizes":[],"default_left":[0,0,0,0,0,0,0,0,0,0,0,0,0,0,0],"id":25,"left_children":[1,3,5,7,9,11,13,-1,-1,-1,-1,-1,-1,-1,-1],"loss_changes":[7.676791E0,2.9093916E0,1.3570962E0,8.436527E-1,6.2201405E-1,6.437764E-1,5.437648E-1,0E0,0E0,0E0,0E0,0E0,0E0,0E0,0E0],"parents":[2147483647,0,0,1,1,2,2,3,3,4,4,5,5,6,6],"right_children":[2,4,6,8,10,12,14,-1,-1,-1,-1,-1,-1,-1,-1],"split_conditions":[5.0958335E-2,3.0548674E-1,2.0056641E-1,-1.3043499E0,-7.805841E-1,1.2589617E0,-3.902724E-1,-4.6529174E-3,-1.9733253E-4,7.418227E-4,-6.7518633E-3,5.2912785E-3,-4.2410372E-4,2.5806685E-3,-1.0295844E-3],"split_indices":[5,2,1,3,4,11,0,0,0,0,0,0,0,0,0],"split_type":[0,0,0,0,0,0,0,0,0,0,0,0,0,0,0],"sum_hessian":[8.6E1,4.7E1,3.9E1,3.3E1,1.4E1,2.4E1,1.5E1,4E0,2.9E1,1E0,1.3E1,2.2E1,2E0,8E0,7E0],"tree_param":{"num_deleted":"0","num_feature":"13","num_nodes":"15","size_leaf_vector":"1"}},{"base_weights":[-3.389876E-2,1.5849398E-1,-3.441253E-1,4.1843783E-3,4.2832658E-1,1.2013763E-2,-6.2592E-1,1.5661181E-3,-1.5694372E-3,1.7904928E-3,5.7959068E-3,1.5543392E-3,-6.612849E-3,-3.0993246E-3,-7.844184E-3],"categories":[],"categories_nodes":[],"categories_segments":[],"categories_sizes":[],"default_left":[0,0,0,0,0,0,0,0,0,0,0,0,0,0,0],"id":26,"left_children":[1,3,5,7,9,11,13,-1,-1,-1,-1,-1,-1,-1,-1],"loss_changes":[5.306852E0,2.2882848E0,3.4196954E0,9.087516E-1,6.5035915E-1,1.6478198E0,7.0847034E-1,0E0,0E0,0E0,0E0,0E0,0E0,0E0,0E0],"parents":[2147483647,0,0,1,1,2,2,3,3,4,4,5,5,6,6],"right_children":[2,4,6,8,10,12,14,-1,-1,-1,-1,-1,-1,-1,-1],"split_conditions":[2.764352E-1,3.24361E-1,-4.2292364E-2,2.987428E-1,-7.023692E-1,1.0039942E0,2.0304364E-1,1.5661181E-3,-1.5694372E-3,1.7904928E-3,5.7959068E-3,1.5543392E-3,-6.612849E-3,-3.0993246E-3,-7.844184E-3],"split_indices":[8,5,9,11,4,2,12,0,0,0,0,0,0,0,0],"split_type":[0,0,0,0,0,0,0,0,0,0,0,0,0,0,0],"sum_hessian":[8.7E1,5.4E1,3.3E1,3.5E1,1.9E1,1.5E1,1.8E1,1.8E1,1.7E1,8E0,1.1E1,1.3E1,2E0,7E0,1.1E1],"tree_param":{"num_deleted":"0","num_feature":"13","num_nodes":"15","size_leaf_vector":"1"}},{"base_weights":[-2.2414314E-2,2.2789897E-1,-3.3933812E-1,-1.4405291E-1,3.4308586E-1,-2.1864615E-2,-5.8684504E-1,9.2968054E-4,-3.6049488E-3,4.5499373E-3,1.4678689E-3,-6.881339E-3,9.699847E-4,-9.352078E-3,-3.3870435E-3],"categories":[],"categories_nodes":[],"categories_segments":[],"categories_sizes":[],"default_left":[0,0,0,0,0,0,0,0,0,0,0,0,0,0,0],"id":27,"left_children":[1,3,5,7,9,11,13,-1,-1,-1,-1,-1,-1,-1,-1],"loss_changes":[7.375717E0,2.2773094E0,3.2088203E0,7.004312E-1,8.119092E-1,1.5714495E0,1.6714306E0,0E0,0E0,0E0,0E0,0E0,0E0,0E0,0E0],"parents":[2147483647,0,0,1,1,2,2,3,3,4,4,5,5,6,6],"right_children":[2,4,6,8,10,12,14,-1,-1,-1,-1,-1,-1,-1,-1],"split_conditions":[-8.466773E-2,-1.0526219E-1,-3.3177242E-1,-7.504145E-1,2.0056641E-1,-1.4798969E0,-4.0113744E-1,9.2968054E-4,-3.6049488E-3,4.5499373E-3,1.4678689E-3,-6.881339E-3,9.699847E-4,-9.352078E-3,-3.3870435E-3],"split_indices":[0,5,9,2,1,1,7,0,0,0,0,0,0,0,0],"split_type":[0,0,0,0,0,0,0,0,0,0,0,0,0,0,0],"sum_hessian":[9.1E1,5.1E1,4E1,1.2E1,3.9E1,1.8E1,2.2E1,6E0,6E0,2.4E1,1.5E1,2E0,1.6E1,8E0,1.4E1],"tree_param":{"num_deleted":"0","num_feature":"13","num_nodes":"15","size_leaf_vector":"1"}},{"base_weights":[7.743303E-3,2.7026817E-1,-2.9872006E-1,4.343251E-1,6.5928794E-2,-8.695238E-2,-6.37408E-1,9.676374E-4,5.261634E-3,1.1914634E-3,-3.2857035E-3,-4.2755976E-3,1.7393767E-3,2.1652777E-3,-7.7486513E-3],"categories":[],"categories_nodes":[],"categories_segments":[],"categories_sizes":[],"default_left":[0,0,0,0,0,0,0,0,0,0,0,0,0,0,0],"id":28,"left_children":[1,3,5,7,9,11,13,-1,-1,-1,-1,-1,-1,-1,-1],"loss_changes":[7.3216176E0,1.6140065E0,2.9569488E0,7.8611565E-1,5.220164E-1,2.473618E0,2.0458522E0,0E0,0E0,0E0,0E0,0E0,0E0,0E0,0E0],"parents":[2147483647,0,0,1,1,2,2,3,3,4,4,5,5,6,6],"right_children":[2,4,6,8,10,12,14,-1,-1,-1,-1,-1,-1,-1,-1],"split_conditions":[-9.587158E-2,2.0056641E-1,4.1300285E-1,5.0958335E-2,1.6540481E0,-2.671672E-1,-7.7793306E-1,9.676374E-4,5.261634E-3,1.1914634E-3,-3.2857035E-3,-4.2755976E-3,1.7393767E-3,2.1652777E-3,-7.7486513E-3],"split_indices":[0,1,2,5,6,7,9,0,0,0,0,0,0,0,0],"split_type":[0,0,0,0,0,0,0,0,0,0,0,0,0,0,0],"sum_hessian":[8.9E1,4.8E1,4.1E1,2.6E1,2.2E1,2.6E1,1.5E1,6E0,2E1,2E1,2E0,1.1E1,1.5E1,2E0,1.3E1],"tree_param":{"num_deleted":"0","num_feature":"13","num_nodes":"15","size_leaf_vector":"1"}},{"base_weights":[5.9083537E-3,1.0338634E-1,-5.208667E-1,-7.207568E-2,2.6803145E-1,-8.5294664E-2,-8.913304E-3,5.7859824E-4,-2.9249217E-3,3.524336E-3,-1.8685947E-5,5.3977296E-3,-2.5170045E-3],"categories":[],"categories_nodes":[],"categories_segments":[],"categories_sizes":[],"default_left":[0,0,0,0,0,0,0,0,0,0,0,0,0],"id":29,"left_children":[1,3,5,7,9,11,-1,-1,-1,-1,-1,-1,-1],"loss_changes":[4.9320025E0,2.3593245E0,2.3444285E0,1.1625206E0,9.5742464E-1,9.6798015E-1,0E0,0E0,0E0,0E0,0E0,0E0,0E0],"parents":[2147483647,0,0,1,1,2,2,3,3,4,4,5,5],"right_children":[2,4,6,8,10,12,-1,-1,-1,-1,-1,-1,-1],"split_conditions":[1.1073864E0,5.0958335E-2,-6.361725E-2,1.3697514E-1,2.56168E-1,-1.6666763E0,-8.913304E-3,5.7859824E-4,-2.9249217E-3,3.524336E-3,-1.8685947E-5,5.3977296E-3,-2.5170045E-3],"split_indices":[4,5,2,6,8,2,0,0,0,0,0,0,0],"split_type":[0,0,0,0,0,0,0,0,0,0,0,0,0],"sum_hessian":[9.4E1,8E1,1.4E1,3.9E1,4.1E1,7E0,7E0,2.5E1,1.4E1,3.1E1,1E1,1E0,6E0],"tree_param":{"num_deleted":"0","num_feature":"13","num_nodes":"13","size_leaf_vector":"1"}},{"base_weights":[-3.1046534E-2,-2.5046122E-1,2.1970618E-1,1.1930141E-2,-4.4768083E-1,3.1733838E-1,-1.8438636E-1,-1.9355891E-3,1.9930094E-3,1.2587806E-3,-6.833983E-3,4.417682E-3,9.913878E-4,-6.9658244E-3,1.8780875E-3],"categories":[],"categories_nodes":[],"categories_segments":[],"categories_sizes":[],"default_left":[0,0,0,0,0,0,0,0,0,0,0,0,0,0,0],"id":30,"left_children":[1,3,5,7,9,11,13,-1,-1,-1,-1,-1,-1,-1,-1],"loss_changes":[5.0617414E0,2.541029E0,1.7549679E0,8.856347E-1,3.8715644E0,9.0647244E-1,1.8465562E0,0E0,0E0,0E0,0E0,0E0,0E0,0E0,0E0],"parents":[2147483647,0,0,1,1,2,2,3,3,4,4,5,5,6,6],"right_children":[2,4,6,8,10,12,14,-1,-1,-1,-1,-1,-1,-1,-1],"split_conditions":[2.4291487E-2,-4.4090924E-1,3.9830765E-1,-2.1710101E-1,-4.0739158E-1,2.0056641E-1,-8.2197547E-1,-1.9355891E-3,1.9930094E-3,1.2587806E-3,-6.833983E-3,4.417682E-3,9.913878E-4,-6.9658244E-3,1.8780875E-3],"split_indices":[5,9,8,7,6,1,3,0,0,0,0,0,0,0,0],"split_type":[0,0,0,0,0,0,0,0,0,0,0,0,0,0,0],"sum_hessian":[9E1,4.8E1,4.2E1,2.1E1,2.7E1,3.4E1,8E0,1E1,1.1E1,8E0,1.9E1,2.1E1,1.3E1,3E0,5E0],"tree_param":{"num_deleted":"0","num_feature":"13","num_nodes":"15","size_leaf_vector":"1"}},{"base_weights":[-1.6774483E-3,-2.1655333E-1,2.3765427E-1,-3.5539582E-2,-5.00494E-1,4.425037E-1,1.2691042E-2,4.647957E-3,-8.60729E-4,-1.681973E-3,-7.827413E-3,-1.9325018E-3,4.801857E-3,1.5868207E-3,-5.1541487E-3],"categories":[],"categories_nodes":[],"categories_segments":[],"categories_sizes":[],"default_left":[0,0,0,0,0,0,0,0,0,0,0,0,0,0,0],"id":31,"left_children":[1,3,5,7,9,11,13,-1,-1,-1,-1,-1,-1,-1,-1],"loss_changes":[4.782713E0,2.5006735E0,2.022062E0,8.237982E-1,1.650352E0,6.43795E-1,1.7779592E0,0E0,0E0,0E0,0E0,0E0,0E0,0E0,0E0],"parents":[2147483647,0,0,1,1,2,2,3,3,4,4,5,5,6,6],"right_children":[2,4,6,8,10,12,14,-1,-1,-1,-1,-1,-1,-1,-1],"split_conditions":[5.0958335E-2,-1.0049465E-1,2.0056641E-1,-1.6666763E0,7.814236E-2,-1.9567215E0,-1.2857307E-2,4.647957E-3,-8.60729E-4,-1.681973E-3,-7.827413E-3,-1.9325018E-3,4.801857E-3,1.5868207E-3,-5.1541487E-3],"split_indices":[5,9,1,2,12,8,8,0,0,0,0,0,0,0,0],"split_type":[0,0,0,0,0,0,0,0,0,0,0,0,0,0,0],"sum_hessian":[9.1E1,4.8E1,4.3E1,3E1,1.8E1,2.2E1,2.1E1,2E0,2.8E1,9E0,9E0,1E0,2.1E1,1.7E1,4E0],"tree_param":{"num_deleted":"0","num_feature":"13","num_nodes":"15","size_leaf_vector":"1"}},{"base_weights":[-4.741865E-2,7.442558E-2,-5.7501006E-1,-2.1242209E-1,1.5721841E-1,5.341208E-3,-6.777133E-1,2.071309E-4,-6.4328876E-3,-3.0307373E-4,2.8131555E-3,-2.7637242E-4,-7.1920916E-3],"categories":[],"categories_nodes":[],"categories_segments":[],"categories_sizes":[],"default_left":[0,0,0,0,0,0,0,0,0,0,0,0,0],"id":32,"left_children":[1,3,5,7,9,-1,11,-1,-1,-1,-1,-1,-1],"loss_changes":[5.828353E0,1.7908177E0,2.298473E0,1.7209778E0,1.358268E0,0E0,4.1173124E-1,0E0,0E0,0E0,0E0,0E0,0E0],"parents":[2147483647,0,0,1,1,2,2,3,3,4,4,6,6],"right_children":[2,4,6,8,10,-1,12,-1,-1,-1,-1,-1,-1],"split_conditions":[1.1189145E0,-8.2197547E-1,-4.54666E-1,-7.670174E-3,-3.6497107E-1,5.341208E-3,-7.069706E-2,2.071309E-4,-6.4328876E-3,-3.0307373E-4,2.8131555E-3,-2.7637242E-4,-7.1920916E-3],"split_indices":[4,3,6,8,10,0,0,0,0,0,0,0,0],"split_type":[0,0,0,0,0,0,0,0,0,0,0,0,0],"sum_hessian":[8.9E1,7.3E1,1.6E1,1.6E1,5.7E1,1E0,1.5E1,1.1E1,5E0,2.3E1,3.4E1,1E0,1.4E1],"tree_param":{"num_deleted":"0","num_feature":"13","num_nodes":"13","size_leaf_vector":"1"}},{"base_weights":[1.171418E-2,1.22570574E-1,-5.086573E-1,2.2371495E-1,-7.665209E-2,3.051106E-2,-7.565076E-1,-6.8884348E-3,2.5639662E-3,-3.660806E-3,9.6918746E-5,-1.7596682E-3,5.3145024E-3,-8.175611E-4,-8.158071E-3],"categories":[],"categories_nodes":[],"categories_segments":[],"categories_sizes":[],"default_left":[0,0,0,0,0,0,0,0,0,0,0,0,0,0,0],"id":33,"left_children":[1,3,5,7,9,11,13,-1,-1,-1,-1,-1,-1,-1,-1],"loss_changes":[5.2541313E0,1.528417E0,2.16121E0,1.667814E0,6.532985E-1,7.1411484E-1,3.7344027E-1,0E0,0E0,0E0,0E0,0E0,0E0,0E0,0E0],"parents":[2147483647,0,0,1,1,2,2,3,3,4,4,5,5,6,6],"right_children":[2,4,6,8,10,12,14,-1,-1,-1,-1,-1,-1,-1,-1],"split_conditions":[9.584614E-1,5.664512E-1,-1.0049465E-1,-2.8835003E0,-5.299297E-1,1.2221411E0,-1.132081E0,-6.8884348E-3,2.5639662E-3,-3.660806E-3,9.6918746E-5,-1.7596682E-3,5.3145024E-3,-8.175611E-4,-8.158071E-3],"split_indices":[4,1,9,1,7,0,6,0,0,0,0,0,0,0,0],"split_type":[0,0,0,0,0,0,0,0,0,0,0,0,0,0,0],"sum_hessian":[8.9E1,7.4E1,1.5E1,4.9E1,2.5E1,5E0,1E1,1E0,4.8E1,5E0,2E1,4E0,1E0,1E0,9E0],"tree_param":{"num_deleted":"0","num_feature":"13","num_nodes":"15","size_leaf_vector":"1"}},{"base_weights":[1.628837E-2,1.4308718E-1,-6.356981E-1,-6.5674365E-2,2.7773657E-1,-1.4375449E-4,-6.7905146E-1,1.4179918E-3,-2.6904326E-3,-6.8539926E-3,3.1357429E-3,-3.2986554E-3,-8.363919E-3],"categories":[],"categories_nodes":[],"categories_segments":[],"categories_sizes":[],"default_left":[0,0,0,0,0,0,0,0,0,0,0,0,0],"id":34,"left_children":[1,3,5,7,9,-1,11,-1,-1,-1,-1,-1,-1],"loss_changes":[7.614032E0,2.1826804E0,3.9428473E-1,1.3461539E0,1.8372033E0,0E0,4.932785E-1,0E0,0E0,0E0,0E0,0E0,0E0],"parents":[2147483647,0,0,1,1,2,2,3,3,4,4,6,6],"right_children":[2,4,6,8,10,-1,12,-1,-1,-1,-1,-1,-1],"split_conditions":[1.1189145E0,-1.011129E-1,-7.765231E-1,2.0177358E-1,-2.8835003E0,-1.4375449E-4,-6.5420896E-2,1.4179918E-3,-2.6904326E-3,-6.8539926E-3,3.1357429E-3,-3.2986554E-3,-8.363919E-3],"split_indices":[4,5,9,11,1,0,6,0,0,0,0,0,0],"split_type":[0,0,0,0,0,0,0,0,0,0,0,0,0],"sum_hessian":[9E1,7.6E1,1.4E1,3E1,4.6E1,1E0,1.3E1,1.5E1,1.5E1,1E0,4.5E1,5E0,8E0],"tree_param":{"num_deleted":"0","num_feature":"13","num_nodes":"13","size_leaf_vector":"1"}},{"base_weights":[4.305003E-2,1.5566571E-1,-5.633233E-1,2.1590236E-1,-1.7856856E-1,-2.6615053E-1,-7.5293404E-1,3.1009682E-3,4.5990903E-4,4.9176265E-4,-6.4635226E-3,-4.1248053E-3,6.644964E-4,-8.207089E-3,-1.3925481E-3],"categories":[],"categories_nodes":[],"categories_segments":[],"categories_sizes":[],"default_left":[0,0,0,0,0,0,0,0,0,0,0,0,0,0,0],"id":35,"left_children":[1,3,5,7,9,11,13,-1,-1,-1,-1,-1,-1,-1,-1],"loss_changes":[6.096959E0,1.54854E0,5.8846664E-1,1.01004E0,1.3102092E0,3.6809492E-1,2.1844912E-1,0E0,0E0,0E0,0E0,0E0,0E0,0E0,0E0],"parents":[2147483647,0,0,1,1,2,2,3,3,4,4,5,5,6,6],"right_children":[2,4,6,8,10,12,14,-1,-1,-1,-1,-1,-1,-1,-1],"split_conditions":[1.2526733E0,6.872958E-1,-1.7330664E-1,3.7019056E-1,8.7509915E-2,-8.4063053E-1,4.4901824E-1,3.1009682E-3,4.5990903E-4,4.9176265E-4,-6.4635226E-3,-4.1248053E-3,6.644964E-4,-8.207089E-3,-1.3925481E-3],"split_indices":[8,4,6,1,2,3,6,0,0,0,0,0,0,0,0],"split_type":[0,0,0,0,0,0,0,0,0,0,0,0,0,0,0],"sum_hessian":[8.7E1,7.4E1,1.3E1,6.3E1,1.1E1,6E0,7E0,4E1,2.3E1,8E0,3E0,4E0,2E0,6E0,1E0],"tree_param":{"num_deleted":"0","num_feature":"13","num_nodes":"15","size_leaf_vector":"1"}},{"base_weights":[4.4177393E-3,2.1337484E-1,-2.4751563E-1,-1.1525321E-1,3.1699044E-1,-6.2400365E-1,-1.1722183E-2,1.9507336E-3,-2.4037021E-3,1.1976643E-3,4.2325766E-3,-6.414251E-4,-8.217583E-3,1.0862945E-3,-3.3671632E-3],"categories":[],"categories_nodes":[],"categories_segments":[],"categories_sizes":[],"default_left":[0,0,0,0,0,0,0,0,0,0,0,0,0,0,0],"id":36,"left_children":[1,3,5,7,9,11,13,-1,-1,-1,-1,-1,-1,-1,-1],"loss_changes":[4.527491E0,1.6369307E0,3.4548478E0,5.128154E-1,7.0381165E-1,1.6080184E0,1.0144166E0,0E0,0E0,0E0,0E0,0E0,0E0,0E0,0E0],"parents":[2147483647,0,0,1,1,2,2,3,3,4,4,5,5,6,6],"right_children":[2,4,6,8,10,12,14,-1,-1,-1,-1,-1,-1,-1,-1],"split_conditions":[-8.466773E-2,-1.0526219E-1,-2.9881522E-1,-6.566832E-1,-4.0329844E-1,-3.3177242E-1,7.784154E-1,1.9507336E-3,-2.4037021E-3,1.1976643E-3,4.2325766E-3,-6.414251E-4,-8.217583E-3,1.0862945E-3,-3.3671632E-3],"split_indices":[0,5,7,11,10,9,7,0,0,0,0,0,0,0,0],"split_type":[0,0,0,0,0,0,0,0,0,0,0,0,0,0,0],"sum_hessian":[8.4E1,4.6E1,3.8E1,1.1E1,3.5E1,1.4E1,2.4E1,3E0,8E0,1.3E1,2.2E1,4E0,1E1,1.8E1,6E0],"tree_param":{"num_deleted":"0","num_feature":"13","num_nodes":"15","size_leaf_vector":"1"}},{"base_weights":[-8.694987E-3,1.2243973E-1,-5.120707E-1,2.5266498E-1,-7.263864E-2,4.0547054E-2,-7.1233046E-1,3.4784195E-3,-1.0572085E-3,-4.406886E-3,1.8598899E-4,-1.6320494E-3,5.2965353E-3,-3.8271744E-3,-8.529246E-3],"categories":[],"categories_nodes":[],"categories_segments":[],"categories_sizes":[],"default_left":[0,0,0,0,0,0,0,0,0,0,0,0,0,0,0],"id":37,"left_children":[1,3,5,7,9,11,13,-1,-1,-1,-1,-1,-1,-1,-1],"loss_changes":[6.0696115E0,1.8728548E0,2.131557E0,1.5376172E0,1.0155956E0,6.843807E-1,3.2235432E-1,0E0,0E0,0E0,0E0,0E0,0E0,0E0,0E0],"parents":[2147483647,0,0,1,1,2,2,3,3,4,4,5,5,6,6],"right_children":[2,4,6,8,10,12,14,-1,-1,-1,-1,-1,-1,-1,-1],"split_conditions":[1.1073864E0,-8.466773E-2,-2.7263284E-1,4.5145458E-1,-1.0539107E0,9.3121725E-1,8.831884E-1,3.4784195E-3,-1.0572085E-3,-4.406886E-3,1.8598899E-4,-1.6320494E-3,5.2965353E-3,-3.8271744E-3,-8.529246E-3],"split_indices":[4,0,2,6,3,0,0,0,0,0,0,0,0,0,0],"split_type":[0,0,0,0,0,0,0,0,0,0,0,0,0,0,0],"sum_hessian":[9E1,7.2E1,1.8E1,4.3E1,2.9E1,5E0,1.3E1,3.4E1,9E0,5E0,2.4E1,4E0,1E0,5E0,8E0],"tree_param":{"num_deleted":"0","num_feature":"13","num_nodes":"15","size_leaf_vector":"1"}},{"base_weights":[2.9367753E-3,-3.0253813E-1,2.5444677E-1,-6.243283E-2,-5.6353235E-1,4.0759426E-1,5.028484E-2,1.5419748E-3,-1.8824883E-3,-2.2459116E-3,-8.204305E-3,4.660178E-3,3.395767E-4,1.1930129E-3,-4.4959197E-3],"categories":[],"categories_nodes":[],"categories_segments":[],"categories_sizes":[],"default_left":[0,0,0,0,0,0,0,0,0,0,0,0,0,0,0],"id":38,"left_children":[1,3,5,7,9,11,13,-1,-1,-1,-1,-1,-1,-1,-1],"loss_changes":[7.1453395E0,2.596793E0,1.5741155E0,6.559053E-1,1.5572052E0,6.172209E-1,8.4713054E-1,0E0,0E0,0E0,0E0,0E0,0E0,0E0,0E0],"parents":[2147483647,0,0,1,1,2,2,3,3,4,4,5,5,6,6],"right_children":[2,4,6,8,10,12,14,-1,-1,-1,-1,-1,-1,-1,-1],"split_conditions":[-5.4421768E-2,-1.10888116E-1,2.0056641E-1,2.0177358E-1,7.814236E-2,1.0250121E0,5.2425367E-1,1.5419748E-3,-1.8824883E-3,-2.2459116E-3,-8.204305E-3,4.660178E-3,3.395767E-4,1.1930129E-3,-4.4959197E-3],"split_indices":[5,9,1,11,12,11,8,0,0,0,0,0,0,0,0],"split_type":[0,0,0,0,0,0,0,0,0,0,0,0,0,0,0],"sum_hessian":[9.1E1,4.1E1,5E1,2.2E1,1.9E1,2.8E1,2.2E1,8E0,1.4E1,9E0,1E1,2.4E1,4E0,2E1,2E0],"tree_param":{"num_deleted":"0","num_feature":"13","num_nodes":"15","size_leaf_vector":"1"}},{"base_weights":[2.8174326E-3,-2.1195647E-1,3.1039038E-1,-5.7212353E-2,-5.0966936E-1,4.0955642E-1,-4.3632403E-2,4.5586354E-4,-4.2270613E-3,1.3486564E-3,-6.475674E-3,-1.9702767E-3,4.3825684E-3,1.9621379E-3,-3.924936E-3],"categories":[],"categories_nodes":[],"categories_segments":[],"categories_sizes":[],"default_left":[0,0,0,0,0,0,0,0,0,0,0,0,0,0,0],"id":39,"left_children":[1,3,5,7,9,11,13,-1,-1,-1,-1,-1,-1,-1,-1],"loss_changes":[5.9450088E0,2.4125142E0,1.3168302E0,1.371872E0,1.6871767E0,5.912156E-1,8.3006996E-1,0E0,0E0,0E0,0E0,0E0,0E0,0E0,0E0],"parents":[2147483647,0,0,1,1,2,2,3,3,4,4,5,5,6,6],"right_children":[2,4,6,8,10,12,14,-1,-1,-1,-1,-1,-1,-1,-1],"split_conditions":[2.4291487E-2,3.0548674E-1,5.664512E-1,1.4709443E0,-4.0739158E-1,-1.9567215E0,-1.9473996E-2,4.5586354E-4,-4.2270613E-3,1.3486564E-3,-6.475674E-3,-1.9702767E-3,4.3825684E-3,1.9621379E-3,-3.924936E-3],"split_indices":[5,2,1,6,6,8,2,0,0,0,0,0,0,0,0],"split_type":[0,0,0,0,0,0,0,0,0,0,0,0,0,0,0],"sum_hessian":[8.8E1,5.2E1,3.6E1,3.5E1,1.7E1,2.8E1,8E0,2.8E1,7E0,3E0,1.4E1,1E0,2.7E1,5E0,3E0],"tree_param":{"num_deleted":"0","num_feature":"13","num_nodes":"15","size_leaf_vector":"1"}},{"base_weights":[-1.1963097E-2,1.0701596E-1,-5.004346E-1,2.2888738E-1,-7.935837E-2,5.308795E-3,-5.923283E-1,3.578364E-3,-1.5554209E-3,-4.280873E-3,7.51091E-5,8.652846E-5,-6.7303604E-3],"categories":[],"categories_nodes":[],"categories_segments":[],"categories_sizes":[],"default_left":[0,0,0,0,0,0,0,0,0,0,0,0,0],"id":40,"left_children":[1,3,5,7,9,-1,11,-1,-1,-1,-1,-1,-1],"loss_changes":[5.3422813E0,1.6989782E0,2.020339E0,2.2863894E0,9.1203034E-1,0E0,8.3038855E-1,0E0,0E0,0E0,0E0,0E0,0E0],"parents":[2147483647,0,0,1,1,2,2,3,3,4,4,6,6],"right_children":[2,4,6,8,10,-1,12,-1,-1,-1,-1,-1,-1],"split_conditions":[1.1073864E0,-8.466773E-2,-1.6666763E0,4.5145458E-1,-1.0539107E0,5.308795E-3,-7.547378E-1,3.578364E-3,-1.5554209E-3,-4.280873E-3,7.51091E-5,8.652846E-5,-6.7303604E-3],"split_indices":[4,0,2,6,3,0,9,0,0,0,0,0,0],"split_type":[0,0,0,0,0,0,0,0,0,0,0,0,0],"sum_hessian":[9E1,7.3E1,1.7E1,4.4E1,2.9E1,1E0,1.6E1,3.3E1,1.1E1,5E0,2.4E1,2E0,1.4E1],"tree_param":{"num_deleted":"0","num_feature":"13","num_nodes":"13","size_leaf_vector":"1"}},{"base_weights":[-4.7139715E-2,1.8177247E-1,-2.905882E-1,-9.444491E-2,3.414438E-1,-5.981368E-1,-1.1088591E-1,1.948595E-3,-2.2070503E-3,4.0498576E-3,7.480805E-4,-6.9550873E-4,-7.147681E-3,1.0876697E-4,-4.951222E-3],"categories":[],"categories_nodes":[],"categories_segments":[],"categories_sizes":[],"default_left":[0,0,0,0,0,0,0,0,0,0,0,0,0,0,0],"id":41,"left_children":[1,3,5,7,9,11,13,-1,-1,-1,-1,-1,-1,-1,-1],"loss_changes":[5.06837E0,2.1051354E0,2.3654315E0,7.005034E-1,4.7798038E-1,9.3668175E-1,1.3621681E0,0E0,0E0,0E0,0E0,0E0,0E0,0E0,0E0],"parents":[2147483647,0,0,1,1,2,2,3,3,4,4,5,5,6,6],"right_children":[2,4,6,8,10,12,14,-1,-1,-1,-1,-1,-1,-1,-1],"split_conditions":[-7.069706E-2,5.0958335E-2,-8.4063053E-1,-4.3773437E-1,9.5835906E-1,-3.3031958E-1,8.333617E-1,1.948595E-3,-2.2070503E-3,4.0498576E-3,7.480805E-4,-6.9550873E-4,-7.147681E-3,1.0876697E-4,-4.951222E-3],"split_indices":[0,5,3,11,12,4,9,0,0,0,0,0,0,0,0],"split_type":[0,0,0,0,0,0,0,0,0,0,0,0,0,0,0],"sum_hessian":[8.9E1,4.6E1,4.3E1,1.7E1,2.9E1,1.5E1,2.8E1,5E0,1.2E1,2.3E1,6E0,3E0,1.2E1,2.2E1,6E0],"tree_param":{"num_deleted":"0","num_feature":"13","num_nodes":"15","size_leaf_vector":"1"}},{"base_weights":[5.201068E-3,2.2086996E-1,-2.7371728E-1,-2.8899789E-2,3.6129716E-1,-1.3343063E-1,-5.347393E-1,2.5829927E-3,-1.1684325E-3,4.654428E-3,1.0122507E-3,-3.958795E-3,5.967628E-4,-4.319167E-4,-6.648713E-3],"categories":[],"categories_nodes":[],"categories_segments":[],"categories_sizes":[],"default_left":[0,0,0,0,0,0,0,0,0,0,0,0,0,0,0],"id":42,"left_children":[1,3,5,7,9,11,13,-1,-1,-1,-1,-1,-1,-1,-1],"loss_changes":[5.6547785E0,1.8693886E0,1.4299834E0,5.353261E-1,8.7378836E-1,1.4426842E0,8.6680794E-1,0E0,0E0,0E0,0E0,0E0,0E0,0E0,0E0],"parents":[2147483647,0,0,1,1,2,2,3,3,4,4,5,5,6,6],"right_children":[2,4,6,8,10,12,14,-1,-1,-1,-1,-1,-1,-1,-1],"split_conditions":[-7.069706E-2,-4.64041E-1,1.1073864E0,-6.566832E-1,8.849532E-2,-2.9881522E-1,-2.49992E-1,2.5829927E-3,-1.1684325E-3,4.654428E-3,1.0122507E-3,-3.958795E-3,5.967628E-4,-4.319167E-4,-6.648713E-3],"split_indices":[0,10,4,11,8,7,2,0,0,0,0,0,0,0,0],"split_type":[0,0,0,0,0,0,0,0,0,0,0,0,0,0,0],"sum_hessian":[9.2E1,5.2E1,4E1,1.9E1,3.3E1,2.7E1,1.3E1,4E0,1.5E1,2.3E1,1E1,1.1E1,1.6E1,3E0,1E1],"tree_param":{"num_deleted":"0","num_feature":"13","num_nodes":"15","size_leaf_vector":"1"}},{"base_weights":[3.2884654E-2,1.3803561E-1,-3.8370436E-1,-3.6350604E-2,2.3959987E-1,-4.684384E-1,5.2838684E-3,1.1003598E-3,-2.285035E-3,-1.5650128E-4,3.0384709E-3,-2.3427168E-3,-6.505563E-3],"categories":[],"categories_nodes":[],"categories_segments":[],"categories_sizes":[],"default_left":[0,0,0,0,0,0,0,0,0,0,0,0,0],"id":43,"left_children":[1,3,5,7,9,11,-1,-1,-1,-1,-1,-1,-1],"loss_changes":[3.9077811E0,1.2662196E0,1.6386495E0,7.8461605E-1,7.427151E-1,5.725746E-1,0E0,0E0,0E0,0E0,0E0,0E0,0E0],"parents":[2147483647,0,0,1,1,2,2,3,3,4,4,5,5],"right_children":[2,4,6,8,10,12,-1,-1,-1,-1,-1,-1,-1],"split_conditions":[1.1073864E0,-1.011129E-1,6.228575E-1,2.0177358E-1,-7.485839E-1,5.8938664E-1,5.2838684E-3,1.1003598E-3,-2.285035E-3,-1.5650128E-4,3.0384709E-3,-2.3427168E-3,-6.505563E-3],"split_indices":[4,5,3,11,3,12,0,0,0,0,0,0,0],"split_type":[0,0,0,0,0,0,0,0,0,0,0,0,0],"sum_hessian":[8.7E1,7E1,1.7E1,2.6E1,4.4E1,1.6E1,1E0,1.5E1,1.1E1,9E0,3.5E1,8E0,8E0],"tree_param":{"num_deleted":"0","num_feature":"13","num_nodes":"13","size_leaf_vector":"1"}},{"base_weights":[-5.4165017E-2,1.6484638E-1,-2.9322228E-1,-1.6315435E-1,2.8906345E-1,-6.120212E-1,-8.576055E-2,3.013687E-3,-2.2697865E-3,3.9526946E-3,5.262661E-5,-2.4491197E-3,-8.703382E-3,9.200491E-4,-4.317625E-3],"categories":[],"categories_nodes":[],"categories_segments":[],"categories_sizes":[],"default_left":[0,0,0,0,0,0,0,0,0,0,0,0,0,0,0],"id":44,"left_children":[1,3,5,7,9,11,13,-1,-1,-1,-1,-1,-1,-1,-1],"loss_changes":[4.498619E0,1.88061E0,2.659194E0,4.5382646E-1,9.9258447E-1,1.3041325E0,1.6389112E0,0E0,0E0,0E0,0E0,0E0,0E0,0E0,0E0],"parents":[2147483647,0,0,1,1,2,2,3,3,4,4,5,5,6,6],"right_children":[2,4,6,8,10,12,14,-1,-1,-1,-1,-1,-1,-1,-1],"split_conditions":[-7.069706E-2,-1.0526219E-1,-2.9881522E-1,-1.4818642E0,4.1937009E-1,-4.8992187E-2,9.0287364E-1,3.013687E-3,-2.2697865E-3,3.9526946E-3,5.262661E-5,-2.4491197E-3,-8.703382E-3,9.200491E-4,-4.317625E-3],"split_indices":[0,5,7,6,1,6,2,0,0,0,0,0,0,0,0],"split_type":[0,0,0,0,0,0,0,0,0,0,0,0,0,0,0],"sum_hessian":[8.4E1,4.4E1,4E1,1.2E1,3.2E1,1.5E1,2.5E1,1E0,1.1E1,2.3E1,9E0,7E0,8E0,1.7E1,8E0],"tree_param":{"num_deleted":"0","num_feature":"13","num_nodes":"15","size_leaf_vector":"1"}},{"base_weights":[6.0049905E-3,1.2645149E-1,-4.9030444E-1,-1.9256717E-1,1.9577548E-1,1.766736E-1,-7.091187E-1,-6.787307E-3,-9.5492636E-4,6.371193E-5,3.2928523E-3,-4.18005E-4,5.25285E-3,-3.1138915E-3,-8.512886E-3],"categories":[],"categories_nodes":[],"categories_segments":[],"categories_sizes":[],"default_left":[0,0,0,0,0,0,0,0,0,0,0,0,0,0,0],"id":45,"left_children":[1,3,5,7,9,11,13,-1,-1,-1,-1,-1,-1,-1,-1],"loss_changes":[5.20297E0,1.5857948E0,2.606336E0,5.487094E-1,1.4645667E0,4.0276995E-1,4.700055E-1,0E0,0E0,0E0,0E0,0E0,0E0,0E0,0E0],"parents":[2147483647,0,0,1,1,2,2,3,3,4,4,5,5,6,6],"right_children":[2,4,6,8,10,12,14,-1,-1,-1,-1,-1,-1,-1,-1],"split_conditions":[1.1073864E0,-1.0539107E0,-2.49992E-1,-2.8835003E0,-2.5604862E-1,9.315089E-1,-1.5010135E-1,-6.787307E-3,-9.5492636E-4,6.371193E-5,3.2928523E-3,-4.18005E-4,5.25285E-3,-3.1138915E-3,-8.512886E-3],"split_indices":[4,3,2,1,10,0,6,0,0,0,0,0,0,0,0],"split_type":[0,0,0,0,0,0,0,0,0,0,0,0,0,0,0],"sum_hessian":[8.5E1,6.9E1,1.6E1,1.2E1,5.7E1,4E0,1.2E1,1E0,1.1E1,2.4E1,3.3E1,3E0,1E0,4E0,8E0],"tree_param":{"num_deleted":"0","num_feature":"13","num_nodes":"15","size_leaf_vector":"1"}},{"base_weights":[-3.506965E-2,-2.3161437E-1,2.3998138E-1,1.9715626E-3,-4.107626E-1,4.0135637E-1,-1.0122868E-1,-2.2428758E-3,1.0833048E-3,-5.2763324E-4,-6.8142307E-3,-1.9812607E-3,4.332607E-3,3.7464997E-4,-4.226557E-3],"categories":[],"categories_nodes":[],"categories_segments":[],"categories_sizes":[],"default_left":[0,0,0,0,0,0,0,0,0,0,0,0,0,0,0],"id":46,"left_children":[1,3,5,7,9,11,13,-1,-1,-1,-1,-1,-1,-1,-1],"loss_changes":[4.920968E0,2.2186747E0,2.1330135E0,6.018494E-1,2.870934E0,5.831189E-1,5.9537345E-1,0E0,0E0,0E0,0E0,0E0,0E0,0E0,0E0],"parents":[2147483647,0,0,1,1,2,2,3,3,4,4,5,5,6,6],"right_children":[2,4,6,8,10,12,14,-1,-1,-1,-1,-1,-1,-1,-1],"split_conditions":[5.0958335E-2,4.8075907E-2,4.1937009E-1,-2.893897E-1,-4.496063E-1,-1.3169012E0,-1.5606782E-1,-2.2428758E-3,1.0833048E-3,-5.2763324E-4,-6.8142307E-3,-1.9812607E-3,4.332607E-3,3.7464997E-4,-4.226557E-3],"split_indices":[5,6,1,3,9,3,6,0,0,0,0,0,0,0,0],"split_type":[0,0,0,0,0,0,0,0,0,0,0,0,0,0,0],"sum_hessian":[8.9E1,5.2E1,3.7E1,2.3E1,2.9E1,2.5E1,1.2E1,7E0,1.6E1,1.3E1,1.6E1,1E0,2.4E1,9E0,3E0],"tree_param":{"num_deleted":"0","num_feature":"13","num_nodes":"15","size_leaf_vector":"1"}},{"base_weights":[3.7929505E-2,2.4645272E-1,-2.2237815E-1,-7.0350684E-2,3.4573457E-1,-6.330292E-1,-3.0624982E-2,7.4224843E-4,-3.1651647E-3,4.7045853E-3,1.8968519E-3,-1.2905013E-3,-7.7131786E-3,5.2965165E-4,-5.6630466E-3],"categories":[],"categories_nodes":[],"categories_segments":[],"categories_sizes":[],"default_left":[0,0,0,0,0,0,0,0,0,0,0,0,0,0,0],"id":47,"left_children":[1,3,5,7,9,11,13,-1,-1,-1,-1,-1,-1,-1,-1],"loss_changes":[4.9943027E0,1.6284168E0,3.2091024E0,4.8615763E-1,6.6982174E-1,8.064914E-1,1.3285432E0,0E0,0E0,0E0,0E0,0E0,0E0,0E0,0E0],"parents":[2147483647,0,0,1,1,2,2,3,3,4,4,5,5,6,6],"right_children":[2,4,6,8,10,12,14,-1,-1,-1,-1,-1,-1,-1,-1],"split_conditions":[-8.466773E-2,-1.0526219E-1,-9.200915E-1,-2.4607268E-1,2.6030328E-2,-7.765231E-1,1.1882856E0,7.4224843E-4,-3.1651647E-3,4.7045853E-3,1.8968519E-3,-1.2905013E-3,-7.7131786E-3,5.2965165E-4,-5.6630466E-3],"split_indices":[0,5,3,5,1,9,12,0,0,0,0,0,0,0,0],"split_type":[0,0,0,0,0,0,0,0,0,0,0,0,0,0,0],"sum_hessian":[9E1,5E1,4E1,1.2E1,3.8E1,1.2E1,2.8E1,8E0,4E0,2E1,1.8E1,3E0,9E0,2.5E1,3E0],"tree_param":{"num_deleted":"0","num_feature":"13","num_nodes":"15","size_leaf_vector":"1"}},{"base_weights":[3.395334E-2,1.0752786E-1,-3.11658E-1,1.9660929E-1,-1.4193329E-1,3.822364E-2,-7.169832E-3,-2.8315757E-3,2.3176149E-3,-2.2604047E-4,-5.837669E-3,5.21852E-3,-8.746141E-4],"categories":[],"categories_nodes":[],"categories_segments":[],"categories_sizes":[],"default_left":[0,0,0,0,0,0,0,0,0,0,0,0,0],"id":48,"left_children":[1,3,5,7,9,11,-1,-1,-1,-1,-1,-1,-1],"loss_changes":[2.1694796E0,1.5834703E0,2.1546435E0,9.4259787E-1,9.8855436E-1,5.927056E-1,0E0,0E0,0E0,0E0,0E0,0E0,0E0],"parents":[2147483647,0,0,1,1,2,2,3,3,4,4,5,5],"right_children":[2,4,6,8,10,12,-1,-1,-1,-1,-1,-1,-1],"split_conditions":[1.1073864E0,4.4779032E-1,-6.361725E-2,-1.2128154E0,9.259531E-1,-1.6666763E0,-7.169832E-3,-2.8315757E-3,2.3176149E-3,-2.2604047E-4,-5.837669E-3,5.21852E-3,-8.746141E-4],"split_indices":[4,6,2,10,3,2,0,0,0,0,0,0,0],"split_type":[0,0,0,0,0,0,0,0,0,0,0,0,0],"sum_hessian":[8.3E1,6.9E1,1.4E1,5.1E1,1.8E1,8E0,6E0,3E0,4.8E1,1.5E1,3E0,1E0,7E0],"tree_param":{"num_deleted":"0","num_feature":"13","num_nodes":"13","size_leaf_vector":"1"}},{"base_weights":[-4.0604092E-2,8.4899984E-2,-4.380896E-1,1.4578833E-1,-3.4398636E-1,-5.550823E-1,-3.3595324E-2,-1.6603931E-3,2.2394774E-3,-1.3199602E-3,-7.239683E-3,-2.9177044E-3,-8.148368E-3,-1.3247767E-3,2.3040818E-3],"categories":[],"categories_nodes":[],"categories_segments":[],"categories_sizes":[],"default_left":[0,0,0,0,0,0,0,0,0,0,0,0,0,0,0],"id":49,"left_children":[1,3,5,7,9,11,13,-1,-1,-1,-1,-1,-1,-1,-1],"loss_changes":[4.576824E0,1.8781416E0,1.0224557E0,1.5482647E0,6.294117E-1,9.2499447E-1,1.8715565E-1,0E0,0E0,0E0,0E0,0E0,0E0,0E0,0E0],"parents":[2147483647,0,0,1,1,2,2,3,3,4,4,5,5,6,6],"right_children":[2,4,6,8,10,12,14,-1,-1,-1,-1,-1,-1,-1,-1],"split_conditions":[7.2084016E-1,1.6540481E0,4.7216687E-1,-1.0676515E0,-4.496063E-1,8.0847576E-2,-2.6249498E-1,-1.6603931E-3,2.2394774E-3,-1.3199602E-3,-7.239683E-3,-2.9177044E-3,-8.148368E-3,-1.3247767E-3,2.3040818E-3],"split_indices":[8,6,6,3,9,6,5,0,0,0,0,0,0,0,0],"split_type":[0,0,0,0,0,0,0,0,0,0,0,0,0,0,0],"sum_hessian":[9E1,6.9E1,2.1E1,6.1E1,8E0,1.6E1,5E0,1.2E1,4.9E1,6E0,2E0,9E0,7E0,4E0,1E0],"tree_param":{"num_deleted":"0","num_feature":"13","num_nodes":"15","size_leaf_vector":"1"}},{"base_weights":[-4.431005E-2,1.6539244E-1,-2.62348E-1,9.7402735E-3,3.1415328E-1,-1.7507242E-2,-4.9578232E-1,-1.6081881E-3,1.2279698E-3,4.3296316E-3,1.5926313E-3,1.4562038E-3,-2.4413518E-3,-1.2793648E-3,-8.223129E-3],"categories":[],"categories_nodes":[],"categories_segments":[],"categories_sizes":[],"default_left":[0,0,0,0,0,0,0,0,0,0,0,0,0,0,0],"id":50,"left_children":[1,3,5,7,9,11,13,-1,-1,-1,-1,-1,-1,-1,-1],"loss_changes":[4.2041926E0,1.0852225E0,2.5632603E0,4.8253644E-1,3.727045E-1,8.8584447E-1,2.657394E0,0E0,0E0,0E0,0E0,0E0,0E0,0E0,0E0],"parents":[2147483647,0,0,1,1,2,2,3,3,4,4,5,5,6,6],"right_children":[2,4,6,8,10,12,14,-1,-1,-1,-1,-1,-1,-1,-1],"split_conditions":[-7.069706E-2,-2.9627398E-1,-6.5420896E-2,-1.0526219E-1,6.859424E-2,6.3374054E-1,-3.4387732E-1,-1.6081881E-3,1.2279698E-3,4.3296316E-3,1.5926313E-3,1.4562038E-3,-2.4413518E-3,-1.2793648E-3,-8.223129E-3],"split_indices":[0,10,6,5,7,8,9,0,0,0,0,0,0,0,0],"split_type":[0,0,0,0,0,0,0,0,0,0,0,0,0,0,0],"sum_hessian":[9E1,4.6E1,4.4E1,2.3E1,2.3E1,2.2E1,2.2E1,9E0,1.4E1,1.2E1,1.1E1,1.3E1,9E0,1.1E1,1.1E1],"tree_param":{"num_deleted":"0","num_feature":"13","num_nodes":"15","size_leaf_vector":"1"}},{"base_weights":[4.4665903E-2,2.2148089E-1,-1.8664354E-1,1.8377952E-2,3.732338E-1,-4.0627178E-2,-4.0757284E-1,1.0733962E-3,-1.8408304E-3,4.7697807E-3,9.7298576E-4,2.921029E-3,-1.1119341E-3,-7.820842E-3,-1.8635277E-3],"categories":[],"categories_nodes":[],"categories_segments":[],"categories_sizes":[],"default_left":[0,0,0,0,0,0,0,0,0,0,0,0,0,0,0],"id":51,"left_children":[1,3,5,7,9,11,13,-1,-1,-1,-1,-1,-1,-1,-1],"loss_changes":[4.0494375E0,1.7191427E0,1.370591E0,4.7004107E-1,8.696456E-1,6.6642666E-1,1.2626965E0,0E0,0E0,0E0,0E0,0E0,0E0,0E0,0E0],"parents":[2147483647,0,0,1,1,2,2,3,3,4,4,5,5,6,6],"right_children":[2,4,6,8,10,12,14,-1,-1,-1,-1,-1,-1,-1,-1],"split_conditions":[-8.466773E-2,-4.0329844E-1,4.8075907E-2,9.539765E-1,3.9245848E-2,-7.9787093E-1,1.7882572E-1,1.0733962E-3,-1.8408304E-3,4.7697807E-3,9.7298576E-4,2.921029E-3,-1.1119341E-3,-7.820842E-3,-1.8635277E-3],"split_indices":[0,10,6,6,8,10,11,0,0,0,0,0,0,0,0],"split_type":[0,0,0,0,0,0,0,0,0,0,0,0,0,0,0],"sum_hessian":[9.7E1,5.5E1,4.2E1,2.4E1,3.1E1,2.6E1,1.6E1,1.7E1,7E0,2.2E1,9E0,4E0,2.2E1,5E0,1.1E1],"tree_param":{"num_deleted":"0","num_feature":"13","num_nodes":"15","size_leaf_vector":"1"}},{"base_weights":[9.987665E-3,9.904997E-2,-5.183035E-1,-7.3051095E-2,2.166192E-1,-8.041061E-3,-3.0193496E-1,3.6440062E-4,-2.3587972E-3,2.6988545E-3,-1.8347017E-3,-5.260658E-4,-4.9087633E-3],"categories":[],"categories_nodes":[],"categories_segments":[],"categories_sizes":[],"default_left":[0,0,0,0,0,0,0,0,0,0,0,0,0],"id":52,"left_children":[1,3,5,7,9,-1,11,-1,-1,-1,-1,-1,-1],"loss_changes":[4.2388616E0,1.5738261E0,5.611155E-1,5.7910085E-1,1.029834E0,0E0,3.981527E-1,0E0,0E0,0E0,0E0,0E0,0E0],"parents":[2147483647,0,0,1,1,2,2,3,3,4,4,6,6],"right_children":[2,4,6,8,10,-1,12,-1,-1,-1,-1,-1,-1],"split_conditions":[1.1189145E0,-3.986779E-1,8.3610404E-1,-2.5598383E-1,9.4152814E-1,-8.041061E-3,8.714463E-1,3.6440062E-4,-2.3587972E-3,2.6988545E-3,-1.8347017E-3,-5.260658E-4,-4.9087633E-3],"split_indices":[4,10,8,0,8,0,12,0,0,0,0,0,0],"split_type":[0,0,0,0,0,0,0,0,0,0,0,0,0],"sum_hessian":[8.8E1,7.6E1,1.2E1,3.1E1,4.5E1,4E0,8E0,1.9E1,1.2E1,4E1,5E0,4E0,4E0],"tree_param":{"num_deleted":"0","num_feature":"13","num_nodes":"13","size_leaf_vector":"1"}},{"base_weights":[-3.1080214E-2,1.5532708E-1,-2.7710393E-1,2.7549875E-1,-8.7084234E-2,-3.502861E-2,-5.926385E-1,9.503934E-4,4.206016E-3,-2.2011786E-3,1.9349701E-3,4.4521857E-3,-1.0531425E-3,-1.7731899E-3,-8.959627E-3],"categories":[],"categories_nodes":[],"categories_segments":[],"categories_sizes":[],"default_left":[0,0,0,0,0,0,0,0,0,0,0,0,0,0,0],"id":53,"left_children":[1,3,5,7,9,11,13,-1,-1,-1,-1,-1,-1,-1,-1],"loss_changes":[3.9411938E0,1.4514093E0,2.8054166E0,8.241372E-1,6.771467E-1,7.8948647E-1,1.8567519E0,0E0,0E0,0E0,0E0,0E0,0E0,0E0,0E0],"parents":[2147483647,0,0,1,1,2,2,3,3,4,4,5,5,6,6],"right_children":[2,4,6,8,10,12,14,-1,-1,-1,-1,-1,-1,-1,-1],"split_conditions":[-6.838551E-2,4.5145458E-1,-6.5420896E-2,3.24361E-1,-3.8837376E-1,-1.6666763E0,-3.4387732E-1,9.503934E-4,4.206016E-3,-2.2011786E-3,1.9349701E-3,4.4521857E-3,-1.0531425E-3,-1.7731899E-3,-8.959627E-3],"split_indices":[0,6,6,5,0,2,9,0,0,0,0,0,0,0,0],"split_type":[0,0,0,0,0,0,0,0,0,0,0,0,0,0,0],"sum_hessian":[8.4E1,4.8E1,3.6E1,3.2E1,1.6E1,2.1E1,1.5E1,1.5E1,1.7E1,1.1E1,5E0,2E0,1.9E1,7E0,8E0],"tree_param":{"num_deleted":"0","num_feature":"13","num_nodes":"15","size_leaf_vector":"1"}},{"base_weights":[-1.1061495E-2,8.5012674E-2,-4.3426743E-1,-6.7324233E-3,1.0435723E-1,-2.0419191E-1,-7.337765E-1,-4.053941E-4,2.3543215E-3,-5.1808194E-4,-3.2254362E-3,-9.080839E-4,-8.258031E-3],"categories":[],"categories_nodes":[],"categories_segments":[],"categories_sizes":[],"default_left":[0,0,0,0,0,0,0,0,0,0,0,0,0],"id":54,"left_children":[1,3,5,-1,7,9,11,-1,-1,-1,-1,-1,-1],"loss_changes":[3.7369015E0,1.1703658E0,1.0216336E0,0E0,1.4149756E0,1.816732E-1,3.392017E-1,0E0,0E0,0E0,0E0,0E0,0E0],"parents":[2147483647,0,0,1,1,2,2,4,4,5,5,6,6],"right_children":[2,4,6,-1,8,10,12,-1,-1,-1,-1,-1,-1],"split_conditions":[9.584614E-1,-2.8835003E0,6.026493E-1,-6.7324233E-3,5.0958335E-2,1.167896E0,2.5100815E-1,-4.053941E-4,2.3543215E-3,-5.1808194E-4,-3.2254362E-3,-9.080839E-4,-8.258031E-3],"split_indices":[4,1,1,0,5,8,9,0,0,0,0,0,0],"split_type":[0,0,0,0,0,0,0,0,0,0,0,0,0],"sum_hessian":[9E1,7.4E1,1.6E1,1E0,7.3E1,1E1,6E0,3.5E1,3.8E1,5E0,5E0,1E0,5E0],"tree_param":{"num_deleted":"0","num_feature":"13","num_nodes":"13","size_leaf_vector":"1"}},{"base_weights":[4.2223208E-2,1.15478806E-1,-4.9438328E-1,2.0421433E-1,-5.660912E-2,-1.3181042E-3,-6.138718E-1,-2.9444695E-5,3.1083727E-3,-2.8348272E-3,6.577748E-4,-6.554352E-3,-1.6146398E-3],"categories":[],"categories_nodes":[],"categories_segments":[],"categories_sizes":[],"default_left":[0,0,0,0,0,0,0,0,0,0,0,0,0],"id":55,"left_children":[1,3,5,7,9,-1,11,-1,-1,-1,-1,-1,-1],"loss_changes":[3.5949395E0,1.2331853E0,3.9564157E-1,1.1715732E0,7.961029E-1,0E0,4.459977E-2,0E0,0E0,0E0,0E0,0E0,0E0],"parents":[2147483647,0,0,1,1,2,2,3,3,4,4,6,6],"right_children":[2,4,6,8,10,-1,12,-1,-1,-1,-1,-1,-1],"split_conditions":[1.2526733E0,-6.838551E-2,1.9847944E-2,-4.64041E-1,-2.671672E-1,-1.3181042E-3,1.0070409E0,-2.9444695E-5,3.1083727E-3,-2.8348272E-3,6.577748E-4,-6.554352E-3,-1.6146398E-3],"split_indices":[8,0,2,10,7,0,12,0,0,0,0,0,0],"split_type":[0,0,0,0,0,0,0,0,0,0,0,0,0],"sum_hessian":[8.9E1,7.9E1,1E1,5.2E1,2.7E1,3E0,7E0,1.8E1,3.4E1,9E0,1.8E1,6E0,1E0],"tree_param":{"num_deleted":"0","num_feature":"13","num_nodes":"13","size_leaf_vector":"1"}},{"base_weights":[2.489454E-2,-3.1711644E-1,1.6246222E-1,1.9188452E-1,-5.0805116E-1,1.1465733E-3,2.8845423E-1,-1.7750215E-3,3.7513962E-3,-1.2991151E-3,-6.144086E-3,9.991638E-4,-2.3357505E-3,3.6243927E-3,1.142611E-3],"categories":[],"categories_nodes":[],"categories_segments":[],"categories_sizes":[],"default_left":[0,0,0,0,0,0,0,0,0,0,0,0,0,0,0],"id":56,"left_children":[1,3,5,7,9,11,13,-1,-1,-1,-1,-1,-1,-1,-1],"loss_changes":[3.7684426E0,2.3327641E0,1.1581649E0,5.404321E-1,6.038866E-1,6.261066E-1,3.7099314E-1,0E0,0E0,0E0,0E0,0E0,0E0,0E0,0E0],"parents":[2147483647,0,0,1,1,2,2,3,3,4,4,5,5,6,6],"right_children":[2,4,6,8,10,12,14,-1,-1,-1,-1,-1,-1,-1,-1],"split_conditions":[-8.4063053E-1,-8.635418E-1,-1.0526219E-1,-6.816346E-1,-7.3633425E-2,1.3511696E-1,2.0056641E-1,-1.7750215E-3,3.7513962E-3,-1.2991151E-3,-6.144086E-3,9.991638E-4,-2.3357505E-3,3.6243927E-3,1.142611E-3],"split_indices":[3,0,5,9,4,9,1,0,0,0,0,0,0,0,0],"split_type":[0,0,0,0,0,0,0,0,0,0,0,0,0,0,0],"sum_hessian":[7.8E1,2.2E1,5.6E1,6E0,1.6E1,2.5E1,3.1E1,2E0,4E0,4E0,1.2E1,1.8E1,7E0,2.1E1,1E1],"tree_param":{"num_deleted":"0","num_feature":"13","num_nodes":"15","size_leaf_vector":"1"}},{"base_weights":[-1.4595224E-3,7.9423234E-2,-5.6077695E-1,-7.427458E-2,2.3123E-1,-7.681088E-3,-2.2542691E-1,-2.0441612E-4,-3.4051915E-3,-6.6713286E-3,2.6941283E-3,-8.1080437E-4,-3.4274657E-3],"categories":[],"categories_nodes":[],"categories_segments":[],"categories_sizes":[],"default_left":[0,0,0,0,0,0,0,0,0,0,0,0,0],"id":57,"left_children":[1,3,5,7,9,-1,11,-1,-1,-1,-1,-1,-1],"loss_changes":[4.297017E0,1.9537609E0,6.6119313E-1,5.9501415E-1,1.6204195E0,0E0,7.381803E-2,0E0,0E0,0E0,0E0,0E0,0E0],"parents":[2147483647,0,0,1,1,2,2,3,3,4,4,6,6],"right_children":[2,4,6,8,10,-1,12,-1,-1,-1,-1,-1,-1],"split_conditions":[1.1189145E0,1.2892334E-1,-5.603817E-1,9.259531E-1,-2.8835003E0,-7.681088E-3,-1.9606122E-1,-2.0441612E-4,-3.4051915E-3,-6.6713286E-3,2.6941283E-3,-8.1080437E-4,-3.4274657E-3],"split_indices":[4,5,3,3,1,0,2,0,0,0,0,0,0],"split_type":[0,0,0,0,0,0,0,0,0,0,0,0,0],"sum_hessian":[9.3E1,8.2E1,1.1E1,4.1E1,4.1E1,6E0,5E0,3.5E1,6E0,1E0,4E1,3E0,2E0],"tree_param":{"num_deleted":"0","num_feature":"13","num_nodes":"13","size_leaf_vector":"1"}},{"base_weights":[3.913068E-3,8.959613E-2,-5.390724E-1,-5.1433887E-2,1.990246E-1,-3.0750155E-2,-7.050965E-1,4.0324585E-4,-2.4695839E-3,-6.6379714E-3,2.3537267E-3,2.2682508E-4,-9.552407E-4,-8.502833E-3,-4.1889036E-3],"categories":[],"categories_nodes":[],"categories_segments":[],"categories_sizes":[],"default_left":[0,0,0,0,0,0,0,0,0,0,0,0,0,0,0],"id":58,"left_children":[1,3,5,7,9,11,13,-1,-1,-1,-1,-1,-1,-1,-1],"loss_changes":[4.0959435E0,1.1831218E0,9.9104285E-1,6.199535E-1,1.5048014E0,1.6010895E-2,1.7804146E-2,0E0,0E0,0E0,0E0,0E0,0E0,0E0,0E0],"parents":[2147483647,0,0,1,1,2,2,3,3,4,4,5,5,6,6],"right_children":[2,4,6,8,10,12,14,-1,-1,-1,-1,-1,-1,-1,-1],"split_conditions":[1.1189145E0,5.0958335E-2,-2.49992E-1,-1.628457E-1,-2.8835003E0,-2.7263284E-1,-7.523737E-1,4.0324585E-4,-2.4695839E-3,-6.6379714E-3,2.3537267E-3,2.2682508E-4,-9.552407E-4,-8.502833E-3,-4.1889036E-3],"split_indices":[4,5,2,9,1,2,5,0,0,0,0,0,0,0,0],"split_type":[0,0,0,0,0,0,0,0,0,0,0,0,0,0,0],"sum_hessian":[8.6E1,7.5E1,1.1E1,3.3E1,4.2E1,3E0,8E0,2.3E1,1E1,1E0,4.1E1,2E0,1E0,4E0,4E0],"tree_param":{"num_deleted":"0","num_feature":"13","num_nodes":"15","size_leaf_vector":"1"}},{"base_weights":[-1.0616333E-3,7.468637E-2,-4.6129477E-1,1.5956259E-1,-2.0174181E-1,1.1963987E-1,-5.7779557E-1,2.7672767E-3,-4.6046134E-4,-1.8102446E-4,-4.5198314E-3,1.7689681E-3,2.5629997E-5,-3.2429218E-3,-7.349997E-3],"categories":[],"categories_nodes":[],"categories_segments":[],"categories_sizes":[],"default_left":[0,0,0,0,0,0,0,0,0,0,0,0,0,0,0],"id":59,"left_children":[1,3,5,7,9,11,13,-1,-1,-1,-1,-1,-1,-1,-1],"loss_changes":[3.206871E0,1.8857026E0,9.489589E-1,1.4822421E0,8.6494696E-1,1.9657005E-2,2.0001507E-1,0E0,0E0,0E0,0E0,0E0,0E0,0E0,0E0],"parents":[2147483647,0,0,1,1,2,2,3,3,4,4,5,5,6,6],"right_children":[2,4,6,8,10,12,14,-1,-1,-1,-1,-1,-1,-1,-1],"split_conditions":[1.1381912E0,4.4779032E-1,-4.4090924E-1,5.664512E-1,-3.4771255E-1,-6.875073E-1,5.297529E-1,2.7672767E-3,-4.6046134E-4,-1.8102446E-4,-4.5198314E-3,1.7689681E-3,2.5629997E-5,-3.2429218E-3,-7.349997E-3],"split_indices":[8,6,9,1,9,1,1,0,0,0,0,0,0,0,0],"split_type":[0,0,0,0,0,0,0,0,0,0,0,0,0,0,0],"sum_hessian":[9E1,7.8E1,1.2E1,6E1,1.8E1,2E0,1E1,3.8E1,2.2E1,1.1E1,7E0,1E0,1E0,5E0,5E0],"tree_param":{"num_deleted":"0","num_feature":"13","num_nodes":"15","size_leaf_vector":"1"}},{"base_weights":[-4.4197276E-2,1.6296807E-1,-2.5977474E-1,2.581032E-1,-5.085138E-2,-3.2272132E-3,-5.161756E-1,2.9161435E-3,-1.6304271E-3,1.0734405E-3,-3.8871106E-3,-2.5272681E-3,9.969776E-4,1.2723803E-4,-7.638436E-3],"categories":[],"categories_nodes":[],"categories_segments":[],"categories_sizes":[],"default_left":[0,0,0,0,0,0,0,0,0,0,0,0,0,0,0],"id":60,"left_children":[1,3,5,7,9,11,13,-1,-1,-1,-1,-1,-1,-1,-1],"loss_changes":[4.0170918E0,9.488448E-1,2.89261E0,4.9916434E-1,8.4344375E-1,6.158303E-1,2.8915315E0,0E0,0E0,0E0,0E0,0E0,0E0,0E0,0E0],"parents":[2147483647,0,0,1,1,2,2,3,3,4,4,5,5,6,6],"right_children":[2,4,6,8,10,12,14,-1,-1,-1,-1,-1,-1,-1,-1],"split_conditions":[-7.069706E-2,4.5145458E-1,-6.5420896E-2,1.5154532E0,3.314926E-1,-2.671672E-1,-7.198364E-1,2.9161435E-3,-1.6304271E-3,1.0734405E-3,-3.8871106E-3,-2.5272681E-3,9.969776E-4,1.2723803E-4,-7.638436E-3],"split_indices":[0,6,6,1,1,7,9,0,0,0,0,0,0,0,0],"split_type":[0,0,0,0,0,0,0,0,0,0,0,0,0,0,0],"sum_hessian":[8.8E1,4.5E1,4.3E1,3.1E1,1.4E1,2.2E1,2.1E1,2.9E1,2E0,1E1,4E0,6E0,1.6E1,7E0,1.4E1],"tree_param":{"num_deleted":"0","num_feature":"13","num_nodes":"15","size_leaf_vector":"1"}},{"base_weights":[-3.4275092E-2,5.6675922E-2,-5.51547E-1,-8.830971E-2,1.8348472E-1,2.7082443E-2,-6.502421E-1,2.5278964E-4,-2.641643E-3,-6.580424E-3,2.1918877E-3,2.4864674E-5,3.8137197E-4,-2.7496815E-3,-8.0350805E-3],"categories":[],"categories_nodes":[],"categories_segments":[],"categories_sizes":[],"default_left":[0,0,0,0,0,0,0,0,0,0,0,0,0,0,0],"id":61,"left_children":[1,3,5,7,9,11,13,-1,-1,-1,-1,-1,-1,-1,-1],"loss_changes":[4.4065747E0,1.4870399E0,8.1712055E-1,7.657312E-1,1.4362099E0,7.2088046E-4,4.6926165E-1,0E0,0E0,0E0,0E0,0E0,0E0,0E0,0E0],"parents":[2147483647,0,0,1,1,2,2,3,3,4,4,5,5,6,6],"right_children":[2,4,6,8,10,12,14,-1,-1,-1,-1,-1,-1,-1,-1],"split_conditions":[1.1189145E0,5.0958335E-2,-7.547378E-1,-3.3177242E-1,-2.8835003E0,-3.2596055E-1,-1.5010135E-1,2.5278964E-4,-2.641643E-3,-6.580424E-3,2.1918877E-3,2.4864674E-5,3.8137197E-4,-2.7496815E-3,-8.0350805E-3],"split_indices":[4,5,9,9,1,1,6,0,0,0,0,0,0,0,0],"split_type":[0,0,0,0,0,0,0,0,0,0,0,0,0,0,0],"sum_hessian":[9.2E1,7.9E1,1.3E1,3.7E1,4.2E1,2E0,1.1E1,2.3E1,1.4E1,1E0,4.1E1,1E0,1E0,4E0,7E0],"tree_param":{"num_deleted":"0","num_feature":"13","num_nodes":"15","size_leaf_vector":"1"}},{"base_weights":[-1.06785465E-2,1.6338956E-1,-1.9692585E-1,2.5867447E-1,-4.44252E-2,-2.8380536E-2,-4.690382E-1,3.0509993E-3,-1.3097238E-3,2.121478E-3,-1.5701064E-3,-4.3303226E-3,1.3489918E-3,-1.8672853E-3,-7.2800675E-3],"categories":[],"categories_nodes":[],"categories_segments":[],"categories_sizes":[],"default_left":[0,0,0,0,0,0,0,0,0,0,0,0,0,0,0],"id":62,"left_children":[1,3,5,7,9,11,13,-1,-1,-1,-1,-1,-1,-1,-1],"loss_changes":[2.8202713E0,9.0256417E-1,1.9129454E0,6.007352E-1,4.6660522E-1,1.8423442E0,1.0338099E0,0E0,0E0,0E0,0E0,0E0,0E0,0E0,0E0],"parents":[2147483647,0,0,1,1,2,2,3,3,4,4,5,5,6,6],"right_children":[2,4,6,8,10,12,14,-1,-1,-1,-1,-1,-1,-1,-1],"split_conditions":[-7.069706E-2,4.4779032E-1,3.7660548E-1,1.1724447E0,3.4219506E-1,-4.2098084E-1,-6.5420896E-2,3.0509993E-3,-1.3097238E-3,2.121478E-3,-1.5701064E-3,-4.3303226E-3,1.3489918E-3,-1.8672853E-3,-7.2800675E-3],"split_indices":[0,6,9,12,11,1,6,0,0,0,0,0,0,0,0],"split_type":[0,0,0,0,0,0,0,0,0,0,0,0,0,0,0],"sum_hessian":[8.5E1,4.4E1,4.1E1,3E1,1.4E1,2.6E1,1.5E1,2.7E1,3E0,4E0,1E1,7E0,1.9E1,8E0,7E0],"tree_param":{"num_deleted":"0","num_feature":"13","num_nodes":"15","size_leaf_vector":"1"}},{"base_weights":[-1.4793964E-2,1.3249263E-1,-1.7968151E-1,2.5825438E-1,-1.1945155E-1,-2.3612182E-3,-4.0612626E-1,3.5213968E-3,-1.03696715E-4,2.8049597E-3,-1.9662234E-3,-4.7356874E-4,5.1626945E-3,-2.6509755E-3,-8.334522E-3],"categories":[],"categories_nodes":[],"categories_segments":[],"categories_sizes":[],"default_left":[0,0,0,0,0,0,0,0,0,0,0,0,0,0,0],"id":63,"left_children":[1,3,5,7,9,11,13,-1,-1,-1,-1,-1,-1,-1,-1],"loss_changes":[2.1123786E0,1.4883562E0,1.6453241E0,7.854667E-1,5.4898E-1,5.84516E-1,8.638277E-1,0E0,0E0,0E0,0E0,0E0,0E0,0E0,0E0],"parents":[2147483647,0,0,1,1,2,2,3,3,4,4,5,5,6,6],"right_children":[2,4,6,8,10,12,14,-1,-1,-1,-1,-1,-1,-1,-1],"split_conditions":[-7.069706E-2,4.4779032E-1,-6.5420896E-2,4.9215955E-1,-9.8251194E-1,2.556793E0,2.0992782E-2,3.5213968E-3,-1.03696715E-4,2.8049597E-3,-1.9662234E-3,-4.7356874E-4,5.1626945E-3,-2.6509755E-3,-8.334522E-3],"split_indices":[0,6,6,7,1,0,5,0,0,0,0,0,0,0,0],"split_type":[0,0,0,0,0,0,0,0,0,0,0,0,0,0,0],"sum_hessian":[8.5E1,4.5E1,4E1,3E1,1.5E1,2.3E1,1.7E1,2.2E1,8E0,2E0,1.3E1,2.2E1,1E0,1.4E1,3E0],"tree_param":{"num_deleted":"0","num_feature":"13","num_nodes":"15","size_leaf_vector":"1"}},{"base_weights":[-5.6788374E-2,1.4523776E-1,-2.8632328E-1,2.6305112E-1,-2.3012324E-1,-4.2952992E-2,-5.056166E-1,6.693338E-4,3.545103E-3,2.2413016E-3,-2.9179447E-3,1.6257819E-3,-1.0087669E-3,-1.4758378E-3,-7.916786E-3],"categories":[],"categories_nodes":[],"categories_segments":[],"categories_sizes":[],"default_left":[0,0,0,0,0,0,0,0,0,0,0,0,0,0,0],"id":64,"left_children":[1,3,5,7,9,11,13,-1,-1,-1,-1,-1,-1,-1,-1],"loss_changes":[4.1686974E0,2.183216E0,2.2198002E0,6.399319E-1,4.015723E-1,2.6640803E-1,2.136392E0,0E0,0E0,0E0,0E0,0E0,0E0,0E0,0E0],"parents":[2147483647,0,0,1,1,2,2,3,3,4,4,5,5,6,6],"right_children":[2,4,6,8,10,12,14,-1,-1,-1,-1,-1,-1,-1,-1],"split_conditions":[-7.069706E-2,4.5145458E-1,-6.5420896E-2,-4.0329844E-1,-6.566832E-1,-5.867732E-1,-3.4387732E-1,6.693338E-4,3.545103E-3,2.2413016E-3,-2.9179447E-3,1.6257819E-3,-1.0087669E-3,-1.4758378E-3,-7.916786E-3],"split_indices":[0,6,6,10,11,9,9,0,0,0,0,0,0,0,0],"split_type":[0,0,0,0,0,0,0,0,0,0,0,0,0,0,0],"sum_hessian":[8.8E1,4.7E1,4.1E1,3.6E1,1.1E1,2E1,2.1E1,1.2E1,2.4E1,1E0,1E1,4E0,1.6E1,1E1,1.1E1],"tree_param":{"num_deleted":"0","num_feature":"13","num_nodes":"15","size_leaf_vector":"1"}},{"base_weights":[-7.906247E-3,-1.7849196E-1,1.4891545E-1,1.1262076E-1,-3.1359515E-1,-6.4768195E-3,1.7900461E-1,5.295413E-3,7.745192E-5,5.5295654E-4,-3.7029365E-3,3.3509156E-3,-5.2243315E-5],"categories":[],"categories_nodes":[],"categories_segments":[],"categories_sizes":[],"default_left":[0,0,0,0,0,0,0,0,0,0,0,0,0],"id":65,"left_children":[1,3,5,7,9,-1,11,-1,-1,-1,-1,-1,-1],"loss_changes":[2.5144737E0,1.805179E0,1.2904162E0,6.5177035E-1,6.688578E-1,0E0,1.3820258E0,0E0,0E0,0E0,0E0,0E0,0E0],"parents":[2147483647,0,0,1,1,2,2,3,3,4,4,6,6],"right_children":[2,4,6,8,10,-1,12,-1,-1,-1,-1,-1,-1],"split_conditions":[-5.4421768E-2,-7.504145E-1,-2.8835003E0,-8.9404005E-1,-5.273881E-1,-6.4768195E-3,1.987372E-1,5.295413E-3,7.745192E-5,5.5295654E-4,-3.7029365E-3,3.3509156E-3,-5.2243315E-5],"split_indices":[5,2,1,5,6,0,1,0,0,0,0,0,0],"split_type":[0,0,0,0,0,0,0,0,0,0,0,0,0],"sum_hessian":[9.2E1,4.4E1,4.8E1,1.4E1,3E1,1E0,4.7E1,2E0,1.2E1,4E0,2.6E1,2.5E1,2.2E1],"tree_param":{"num_deleted":"0","num_feature":"13","num_nodes":"13","size_leaf_vector":"1"}},{"base_weights":[1.0311718E-2,1.6841687E-1,-1.8967141E-1,-5.0964735E-2,3.1390706E-1,1.5610795E-2,-5.054782E-1,-3.2109793E-3,3.6637185E-4,4.4280454E-3,2.4721335E-4,-5.1783207E-3,8.7643426E-4,-3.4300325E-4,-7.3763705E-3],"categories":[],"categories_nodes":[],"categories_segments":[],"categories_sizes":[],"default_left":[0,0,0,0,0,0,0,0,0,0,0,0,0,0,0],"id":66,"left_children":[1,3,5,7,9,11,13,-1,-1,-1,-1,-1,-1,-1,-1],"loss_changes":[2.7195046E0,1.5480559E0,2.4714122E0,4.850479E-1,1.0700376E0,9.6759176E-1,1.6155207E0,0E0,0E0,0E0,0E0,0E0,0E0,0E0,0E0],"parents":[2147483647,0,0,1,1,2,2,3,3,4,4,5,5,6,6],"right_children":[2,4,6,8,10,12,14,-1,-1,-1,-1,-1,-1,-1,-1],"split_conditions":[-7.069706E-2,-2.9627398E-1,4.1300285E-1,-6.367201E-1,3.9245848E-2,-5.7088035E-1,2.1923521E-1,-3.2109793E-3,3.6637185E-4,4.4280454E-3,2.4721335E-4,-5.1783207E-3,8.7643426E-4,-3.4300325E-4,-7.3763705E-3],"split_indices":[0,10,2,9,8,1,0,0,0,0,0,0,0,0,0],"split_type":[0,0,0,0,0,0,0,0,0,0,0,0,0,0,0],"sum_hessian":[8.4E1,4.7E1,3.7E1,1.9E1,2.8E1,2.3E1,1.4E1,4E0,1.5E1,1.9E1,9E0,2E0,2.1E1,5E0,9E0],"tree_param":{"num_deleted":"0","num_feature":"13","num_nodes":"15","size_leaf_vector":"1"}},{"base_weights":[-9.256571E-3,-1.6095473E-1,1.8706682E-1,1.3779631E-1,-2.938686E-1,2.225026E-1,-3.3595385E-3,4.6502505E-3,3.4459794E-4,-2.236517E-3,-6.9852644E-3,-1.0571126E-3,2.8538122E-3],"categories":[],"categories_nodes":[],"categories_segments":[],"categories_sizes":[],"default_left":[0,0,0,0,0,0,0,0,0,0,0,0,0],"id":67,"left_children":[1,3,5,7,9,11,-1,-1,-1,-1,-1,-1,-1],"loss_changes":[2.799826E0,2.1450262E0,8.3463E-1,5.588249E-1,8.9508486E-1,8.350359E-1,0E0,0E0,0E0,0E0,0E0,0E0,0E0],"parents":[2147483647,0,0,1,1,2,2,3,3,4,4,5,5],"right_children":[2,4,6,8,10,12,-1,-1,-1,-1,-1,-1,-1],"split_conditions":[1.2892334E-1,-3.204144E-1,5.6983E-1,-1.5258048E0,9.259531E-1,-4.0329844E-1,-3.3595385E-3,4.6502505E-3,3.4459794E-4,-2.236517E-3,-6.9852644E-3,-1.0571126E-3,2.8538122E-3],"split_indices":[5,6,0,2,3,10,0,0,0,0,0,0,0],"split_type":[0,0,0,0,0,0,0,0,0,0,0,0,0],"sum_hessian":[9.2E1,5.2E1,4E1,1.6E1,3.6E1,3.8E1,2E0,3E0,1.3E1,3.2E1,4E0,6E0,3.2E1],"tree_param":{"num_deleted":"0","num_feature":"13","num_nodes":"13","size_leaf_vector":"1"}},{"base_weights":[-5.779163E-2,2.0128791E-1,-1.7773223E-1,3.2619172E-1,7.5668492E-3,-2.7282087E-2,-4.772684E-1,-1.6091466E-3,3.6669304E-3,1.3403089E-3,-1.0191188E-3,3.7396E-3,-9.3397935E-4,-5.895159E-3,-1.845921E-3],"categories":[],"categories_nodes":[],"categories_segments":[],"categories_sizes":[],"default_left":[0,0,0,0,0,0,0,0,0,0,0,0,0,0,0],"id":68,"left_children":[1,3,5,7,9,11,13,-1,-1,-1,-1,-1,-1,-1,-1],"loss_changes":[2.7392268E0,6.750338E-1,2.6908946E0,3.9438987E-1,1.7980084E-1,1.1225941E0,5.482235E-1,0E0,0E0,0E0,0E0,0E0,0E0,0E0,0E0],"parents":[2147483647,0,0,1,1,2,2,3,3,4,4,5,5,6,6],"right_children":[2,4,6,8,10,12,14,-1,-1,-1,-1,-1,-1,-1,-1],"split_conditions":[-3.9202845E-1,5.493677E-1,1.7837463E-1,-1.8265728E0,-1.5175906E-1,-1.0629654E0,4.7216687E-1,-1.6091466E-3,3.6669304E-3,1.3403089E-3,-1.0191188E-3,3.7396E-3,-9.3397935E-4,-5.895159E-3,-1.845921E-3],"split_indices":[6,1,4,12,4,12,6,0,0,0,0,0,0,0,0],"split_type":[0,0,0,0,0,0,0,0,0,0,0,0,0,0,0],"sum_hessian":[8.6E1,2.7E1,5.9E1,1.6E1,1.1E1,4E1,1.9E1,1E0,1.5E1,5E0,6E0,5E0,3.5E1,1.3E1,6E0],"tree_param":{"num_deleted":"0","num_feature":"13","num_nodes":"15","size_leaf_vector":"1"}},{"base_weights":[-3.2503963E-2,1.5546596E-1,-2.1159467E-1,-7.1322344E-2,2.6367792E-1,-3.9649192E-2,-4.768627E-1,1.854205E-3,-1.8153979E-3,3.3793896E-3,1.7217695E-4,-1.1155785E-3,4.376694E-3,-1.6354381E-3,-7.1116337E-3],"categories":[],"categories_nodes":[],"categories_segments":[],"categories_sizes":[],"default_left":[0,0,0,0,0,0,0,0,0,0,0,0,0,0,0],"id":69,"left_children":[1,3,5,7,9,11,13,-1,-1,-1,-1,-1,-1,-1,-1],"loss_changes":[3.028962E0,1.0986193E0,2.0792284E0,4.5812437E-1,5.432532E-1,1.0442023E0,1.2050891E0,0E0,0E0,0E0,0E0,0E0,0E0,0E0,0E0],"parents":[2147483647,0,0,1,1,2,2,3,3,4,4,5,5,6,6],"right_children":[2,4,6,8,10,12,14,-1,-1,-1,-1,-1,-1,-1,-1],"split_conditions":[-7.069706E-2,5.0958335E-2,4.1300285E-1,-3.204144E-1,8.378702E-1,1.7615854E0,-1.5010135E-1,1.854205E-3,-1.8153979E-3,3.3793896E-3,1.7217695E-4,-1.1155785E-3,4.376694E-3,-1.6354381E-3,-7.1116337E-3],"split_indices":[0,5,2,6,12,0,6,0,0,0,0,0,0,0,0],"split_type":[0,0,0,0,0,0,0,0,0,0,0,0,0,0,0],"sum_hessian":[8.8E1,4.3E1,4.5E1,1.4E1,2.9E1,2.8E1,1.7E1,4E0,1E1,2.2E1,7E0,2.5E1,3E0,8E0,9E0],"tree_param":{"num_deleted":"0","num_feature":"13","num_nodes":"15","size_leaf_vector":"1"}},{"base_weights":[2.5836984E-2,9.993317E-2,-3.6236718E-1,-7.691194E-2,2.2510213E-1,1.9044256E-1,-6.0253537E-1,1.9062737E-4,-3.5522198E-3,-6.381595E-3,2.6085025E-3,5.047598E-3,-1.4326691E-4,-6.5561063E-3,-6.242895E-4],"categories":[],"categories_nodes":[],"categories_segments":[],"categories_sizes":[],"default_left":[0,0,0,0,0,0,0,0,0,0,0,0,0,0,0],"id":70,"left_children":[1,3,5,7,9,11,13,-1,-1,-1,-1,-1,-1,-1,-1],"loss_changes":[2.509955E0,1.633206E0,1.9734908E0,8.348038E-1,1.4934433E0,3.29044E-1,2.4573398E-1,0E0,0E0,0E0,0E0,0E0,0E0,0E0,0E0],"parents":[2147483647,0,0,1,1,2,2,3,3,4,4,5,5,6,6],"right_children":[2,4,6,8,10,12,14,-1,-1,-1,-1,-1,-1,-1,-1],"split_conditions":[1.1073864E0,-3.6497107E-1,-2.49992E-1,9.539765E-1,-2.8835003E0,-1.6666763E0,5.3416044E-1,1.9062737E-4,-3.5522198E-3,-6.381595E-3,2.6085025E-3,5.047598E-3,-1.4326691E-4,-6.5561063E-3,-6.242895E-4],"split_indices":[4,10,2,6,1,2,3,0,0,0,0,0,0,0,0],"split_type":[0,0,0,0,0,0,0,0,0,0,0,0,0,0,0],"sum_hessian":[8.5E1,7.2E1,1.3E1,3E1,4.2E1,4E0,9E0,2.3E1,7E0,1E0,4.1E1,1E0,3E0,8E0,1E0],"tree_param":{"num_deleted":"0","num_feature":"13","num_nodes":"15","size_leaf_vector":"1"}},{"base_weights":[1.3011451E-3,1.4461179E-1,-2.540116E-1,3.0481637E-2,2.7951768E-1,-5.5263853E-1,4.199091E-2,3.1297358E-3,-2.1051985E-4,4.036071E-3,1.4432623E-3,-6.8678183E-4,-7.0823547E-3,1.9263217E-3,-4.957512E-3],"categories":[],"categories_nodes":[],"categories_segments":[],"categories_sizes":[],"default_left":[0,0,0,0,0,0,0,0,0,0,0,0,0,0,0],"id":71,"left_children":[1,3,5,7,9,11,13,-1,-1,-1,-1,-1,-1,-1,-1],"loss_changes":[3.2565682E0,8.6909914E-1,2.8518243E0,4.724394E-1,3.7792063E-1,1.1562037E0,1.472602E0,0E0,0E0,0E0,0E0,0E0,0E0,0E0,0E0],"parents":[2147483647,0,0,1,1,2,2,3,3,4,4,5,5,6,6],"right_children":[2,4,6,8,10,12,14,-1,-1,-1,-1,-1,-1,-1,-1],"split_conditions":[3.9830765E-1,-2.9374126E-2,-5.603817E-1,-1.0629654E0,1.9105294E-1,-7.547378E-1,9.621345E-1,3.1297358E-3,-2.1051985E-4,4.036071E-3,1.4432623E-3,-6.8678183E-4,-7.0823547E-3,1.9263217E-3,-4.957512E-3],"split_indices":[8,10,3,12,11,9,3,0,0,0,0,0,0,0,0],"split_type":[0,0,0,0,0,0,0,0,0,0,0,0,0,0,0],"sum_hessian":[8.7E1,5.6E1,3.1E1,3.1E1,2.5E1,1.5E1,1.6E1,4E0,2.7E1,1.2E1,1.3E1,4E0,1.1E1,1.3E1,3E0],"tree_param":{"num_deleted":"0","num_feature":"13","num_nodes":"15","size_leaf_vector":"1"}},{"base_weights":[1.4418835E-2,9.011501E-2,-3.7006968E-1,-6.50671E-2,1.9846417E-1,2.776749E-1,-5.5514544E-1,9.125942E-4,-2.0837046E-3,2.6889704E-3,-7.494068E-4,5.012727E-3,3.6051433E-4,-2.1104089E-3,-7.008176E-3],"categories":[],"categories_nodes":[],"categories_segments":[],"categories_sizes":[],"default_left":[0,0,0,0,0,0,0,0,0,0,0,0,0,0,0],"id":72,"left_children":[1,3,5,7,9,11,13,-1,-1,-1,-1,-1,-1,-1,-1],"loss_changes":[2.652737E0,1.2907662E0,1.9523771E0,7.358835E-1,8.8670266E-1,1.9803426E-1,4.5361614E-1,0E0,0E0,0E0,0E0,0E0,0E0,0E0,0E0],"parents":[2147483647,0,0,1,1,2,2,3,3,4,4,5,5,6,6],"right_children":[2,4,6,8,10,12,14,-1,-1,-1,-1,-1,-1,-1,-1],"split_conditions":[1.1189145E0,-1.011129E-1,-1.0049465E-1,2.0177358E-1,3.9830765E-1,-1.6666763E0,-1.2494454E-1,9.125942E-4,-2.0837046E-3,2.6889704E-3,-7.494068E-4,5.012727E-3,3.6051433E-4,-2.1104089E-3,-7.008176E-3],"split_indices":[4,5,9,11,8,2,2,0,0,0,0,0,0,0,0],"split_type":[0,0,0,0,0,0,0,0,0,0,0,0,0,0,0],"sum_hessian":[8.9E1,7.5E1,1.4E1,3.1E1,4.4E1,3E0,1.1E1,1.5E1,1.6E1,3.5E1,9E0,1E0,2E0,4E0,7E0],"tree_param":{"num_deleted":"0","num_feature":"13","num_nodes":"15","size_leaf_vector":"1"}},{"base_weights":[3.1241234E-3,-1.756962E-1,2.1315989E-1,1.8713272E-1,-2.9175872E-1,3.66546E-1,2.4335986E-2,4.5239925E-3,4.8443954E-4,-1.4722535E-3,-6.0685948E-3,-6.108093E-4,3.898178E-3,1.2691986E-3,-3.920835E-3],"categories":[],"categories_nodes":[],"categories_segments":[],"categories_sizes":[],"default_left":[0,0,0,0,0,0,0,0,0,0,0,0,0,0,0],"id":73,"left_children":[1,3,5,7,9,11,13,-1,-1,-1,-1,-1,-1,-1,-1],"loss_changes":[3.2674963E0,2.0338073E0,1.1495984E0,4.195578E-1,1.5501878E0,2.4274683E-1,8.614039E-1,0E0,0E0,0E0,0E0,0E0,0E0,0E0,0E0],"parents":[2147483647,0,0,1,1,2,2,3,3,4,4,5,5,6,6],"right_children":[2,4,6,8,10,12,14,-1,-1,-1,-1,-1,-1,-1,-1],"split_conditions":[5.0958335E-2,-3.204144E-1,2.0056641E-1,-1.5258048E0,2.4430068E-1,-1.553793E0,-1.2857307E-2,4.5239925E-3,4.8443954E-4,-1.4722535E-3,-6.0685948E-3,-6.108093E-4,3.898178E-3,1.2691986E-3,-3.920835E-3],"split_indices":[5,6,1,2,2,3,8,0,0,0,0,0,0,0,0],"split_type":[0,0,0,0,0,0,0,0,0,0,0,0,0,0,0],"sum_hessian":[8.5E1,4.6E1,3.9E1,1.1E1,3.5E1,2.1E1,1.8E1,3E0,8E0,2.5E1,1E1,1E0,2E1,1.5E1,3E0],"tree_param":{"num_deleted":"0","num_feature":"13","num_nodes":"15","size_leaf_vector":"1"}},{"base_weights":[-1.8725554E-2,1.2863292E-1,-2.6861078E-1,-5.6065343E-2,3.9515737E-1,-5.940106E-1,-1.8676957E-2,5.5674673E-4,-3.8427722E-3,4.739542E-3,4.8216627E-4,-3.1177996E-4,-6.9350945E-3,1.4126139E-3,-3.6209722E-3],"categories":[],"categories_nodes":[],"categories_segments":[],"categories_sizes":[],"default_left":[0,0,0,0,0,0,0,0,0,0,0,0,0,0,0],"id":74,"left_children":[1,3,5,7,9,11,13,-1,-1,-1,-1,-1,-1,-1,-1],"loss_changes":[2.9803684E0,2.5327115E0,2.4287586E0,1.158301E0,5.512419E-1,7.0639324E-1,1.0398197E0,0E0,0E0,0E0,0E0,0E0,0E0,0E0,0E0],"parents":[2147483647,0,0,1,1,2,2,3,3,4,4,5,5,6,6],"right_children":[2,4,6,8,10,12,14,-1,-1,-1,-1,-1,-1,-1,-1],"split_conditions":[3.9830765E-1,-6.811352E-2,-5.603817E-1,1.3386121E0,1.0250121E0,-7.547378E-1,8.9281857E-1,5.5674673E-4,-3.8427722E-3,4.739542E-3,4.8216627E-4,-3.1177996E-4,-6.9350945E-3,1.4126139E-3,-3.6209722E-3],"split_indices":[8,10,3,6,11,9,9,0,0,0,0,0,0,0,0],"split_type":[0,0,0,0,0,0,0,0,0,0,0,0,0,0,0],"sum_hessian":[7.9E1,5E1,2.9E1,3E1,2E1,1.2E1,1.7E1,2.3E1,7E0,1.6E1,4E0,2E0,1E1,1.2E1,5E0],"tree_param":{"num_deleted":"0","num_feature":"13","num_nodes":"15","size_leaf_vector":"1"}},{"base_weights":[2.666586E-2,1.8831483E-1,-1.6072108E-1,-5.907053E-2,2.9990473E-1,-6.3634574E-1,-4.068478E-2,-2.14208E-3,1.0263034E-3,3.8512796E-3,1.4430681E-5,-8.004888E-4,-7.838521E-3,-3.0718977E-3,5.594859E-4],"categories":[],"categories_nodes":[],"categories_segments":[],"categories_sizes":[],"default_left":[0,0,0,0,0,0,0,0,0,0,0,0,0,0,0],"id":75,"left_children":[1,3,5,7,9,11,13,-1,-1,-1,-1,-1,-1,-1,-1],"loss_changes":[2.938193E0,1.4532125E0,2.5432606E0,4.4844398E-1,9.151349E-1,6.7577004E-1,9.700579E-1,0E0,0E0,0E0,0E0,0E0,0E0,0E0,0E0],"parents":[2147483647,0,0,1,1,2,2,3,3,4,4,5,5,6,6],"right_children":[2,4,6,8,10,12,14,-1,-1,-1,-1,-1,-1,-1,-1],"split_conditions":[-7.069706E-2,-4.622558E-2,-1.0798362E0,-5.5839056E-1,5.664512E-1,-7.765231E-1,-3.0265483E-1,-2.14208E-3,1.0263034E-3,3.8512796E-3,1.4430681E-5,-8.004888E-4,-7.838521E-3,-3.0718977E-3,5.594859E-4],"split_indices":[0,5,3,0,1,9,7,0,0,0,0,0,0,0,0],"split_type":[0,0,0,0,0,0,0,0,0,0,0,0,0,0,0],"sum_hessian":[9.5E1,5.1E1,4.4E1,1.6E1,3.5E1,8E0,3.6E1,8E0,8E0,2.7E1,8E0,2E0,6E0,9E0,2.7E1],"tree_param":{"num_deleted":"0","num_feature":"13","num_nodes":"15","size_leaf_vector":"1"}},{"base_weights":[-2.4819888E-2,8.072979E-2,-4.6525794E-1,1.1724942E-1,-3.955635E-1,-5.5104257E-3,-6.180479E-1,-6.2561487E-3,1.3932167E-3,-9.1418263E-4,-4.4874526E-3,3.361511E-4,-8.1006286E-4,-2.4694728E-3,-7.7272975E-3],"categories":[],"categories_nodes":[],"categories_segments":[],"categories_sizes":[],"default_left":[0,0,0,0,0,0,0,0,0,0,0,0,0,0,0],"id":76,"left_children":[1,3,5,7,9,11,13,-1,-1,-1,-1,-1,-1,-1,-1],"loss_changes":[3.8495839E0,1.2117813E0,1.120511E0,1.1201527E0,3.9851308E-2,1.7492115E-2,4.980073E-1,0E0,0E0,0E0,0E0,0E0,0E0,0E0,0E0],"parents":[2147483647,0,0,1,1,2,2,3,3,4,4,5,5,6,6],"right_children":[2,4,6,8,10,12,14,-1,-1,-1,-1,-1,-1,-1,-1],"split_conditions":[1.1073864E0,1.2526733E0,-2.49992E-1,-2.8835003E0,-1.1009144E0,9.3121725E-1,-1.5010135E-1,-6.2561487E-3,1.3932167E-3,-9.1418263E-4,-4.4874526E-3,3.361511E-4,-8.1006286E-4,-2.4694728E-3,-7.7272975E-3],"split_indices":[4,8,2,1,1,0,6,0,0,0,0,0,0,0,0],"split_type":[0,0,0,0,0,0,0,0,0,0,0,0,0,0,0],"sum_hessian":[8.1E1,6.6E1,1.5E1,6.2E1,4E0,4E0,1.1E1,1E0,6.1E1,1E0,3E0,3E0,1E0,4E0,7E0],"tree_param":{"num_deleted":"0","num_feature":"13","num_nodes":"15","size_leaf_vector":"1"}},{"base_weights":[-1.6853197E-2,1.5131035E-1,-2.152089E-1,2.4913797E-1,-8.437291E-2,2.1945082E-3,-4.3271208E-1,1.3276057E-3,3.6460517E-3,-2.2963071E-3,1.3519151E-3,9.782661E-4,-2.8506755E-3,-1.610099E-4,-6.6962545E-3],"categories":[],"categories_nodes":[],"categories_segments":[],"categories_sizes":[],"default_left":[0,0,0,0,0,0,0,0,0,0,0,0,0,0,0],"id":77,"left_children":[1,3,5,7,9,11,13,-1,-1,-1,-1,-1,-1,-1,-1],"loss_changes":[3.2014024E0,1.2199497E0,2.0815308E0,4.487927E-1,5.413392E-1,6.5973115E-1,2.1606345E0,0E0,0E0,0E0,0E0,0E0,0E0,0E0,0E0],"parents":[2147483647,0,0,1,1,2,2,3,3,4,4,5,5,6,6],"right_children":[2,4,6,8,10,12,14,-1,-1,-1,-1,-1,-1,-1,-1],"split_conditions":[-7.069706E-2,4.5145458E-1,-7.755239E-2,3.24361E-1,-4.64041E-1,6.3374054E-1,-7.198364E-1,1.3276057E-3,3.6460517E-3,-2.2963071E-3,1.3519151E-3,9.782661E-4,-2.8506755E-3,-1.610099E-4,-6.6962545E-3],"split_indices":[0,6,6,5,10,8,9,0,0,0,0,0,0,0,0],"split_type":[0,0,0,0,0,0,0,0,0,0,0,0,0,0,0],"sum_hessian":[9.4E1,5.1E1,4.3E1,3.6E1,1.5E1,2.2E1,2.1E1,1.9E1,1.7E1,9E0,6E0,1.7E1,5E0,8E0,1.3E1],"tree_param":{"num_deleted":"0","num_feature":"13","num_nodes":"15","size_leaf_vector":"1"}},{"base_weights":[-2.4365121E-2,4.10335E-2,-4.7994044E-1,-8.1828125E-3,7.485898E-2,-5.324721E-4,-5.1728505E-1,-3.2364862E-4,2.7817946E-3,-2.8992142E-3,-6.8666437E-3],"categories":[],"categories_nodes":[],"categories_segments":[],"categories_sizes":[],"default_left":[0,0,0,0,0,0,0,0,0,0,0],"id":78,"left_children":[1,3,5,-1,7,-1,9,-1,-1,-1,-1],"loss_changes":[2.6117716E0,2.299394E0,1.477375E-1,0E0,1.6440637E0,0E0,1.8602824E-1,0E0,0E0,0E0,0E0],"parents":[2147483647,0,0,1,1,2,2,4,4,6,6],"right_children":[2,4,6,-1,8,-1,10,-1,-1,-1,-1],"split_conditions":[1.2626759E0,-2.007012E0,-1.6192693E0,-8.1828125E-3,3.24361E-1,-5.324721E-4,5.297529E-1,-3.2364862E-4,2.7817946E-3,-2.8992142E-3,-6.8666437E-3],"split_indices":[8,1,11,0,5,0,1,0,0,0,0],"split_type":[0,0,0,0,0,0,0,0,0,0,0],"sum_hessian":[8.6E1,7.6E1,1E1,2E0,7.4E1,1E0,9E0,4.9E1,2.5E1,5E0,4E0],"tree_param":{"num_deleted":"0","num_feature":"13","num_nodes":"11","size_leaf_vector":"1"}},{"base_weights":[-1.7432239E-2,-1.6945408E-1,1.4157821E-1,5.037643E-3,-2.0967583E-1,-2.2064143E-1,2.4832371E-1,-1.4153162E-4,-3.2380456E-3,1.7557144E-5,-6.102754E-3,4.1184956E-3,1.817578E-4],"categories":[],"categories_nodes":[],"categories_segments":[],"categories_sizes":[],"default_left":[0,0,0,0,0,0,0,0,0,0,0,0,0],"id":79,"left_children":[1,3,5,-1,7,9,11,-1,-1,-1,-1,-1,-1],"loss_changes":[2.2720854E0,1.4053725E0,1.833395E0,0E0,1.0218956E0,9.5425975E-1,1.3473794E0,0E0,0E0,0E0,0E0,0E0,0E0],"parents":[2147483647,0,0,1,1,2,2,4,4,5,5,6,6],"right_children":[2,4,6,-1,8,10,12,-1,-1,-1,-1,-1,-1],"split_conditions":[2.4291487E-2,-1.5258048E0,-1.0676515E0,5.037643E-3,-4.4090924E-1,-6.5550275E-2,2.0056641E-1,-1.4153162E-4,-3.2380456E-3,1.7557144E-5,-6.102754E-3,4.1184956E-3,1.817578E-4],"split_indices":[5,2,3,0,9,8,1,0,0,0,0,0,0],"split_type":[0,0,0,0,0,0,0,0,0,0,0,0,0],"sum_hessian":[9.2E1,4.7E1,4.5E1,2E0,4.5E1,1E1,3.5E1,1.7E1,2.8E1,7E0,3E0,2E1,1.5E1],"tree_param":{"num_deleted":"0","num_feature":"13","num_nodes":"13","size_leaf_vector":"1"}},{"base_weights":[5.228705E-4,-1.4373213E-1,1.5460156E-1,2.295522E-2,-3.9058483E-1,-6.119959E-3,1.8666187E-1,-5.6653596E-3,8.7604043E-4,-1.2947002E-3,-6.1264113E-3,3.3224314E-3,2.631259E-5],"categories":[],"categories_nodes":[],"categories_segments":[],"categories_sizes":[],"default_left":[0,0,0,0,0,0,0,0,0,0,0,0,0],"id":80,"left_children":[1,3,5,7,9,-1,11,-1,-1,-1,-1,-1,-1],"loss_changes":[2.0226173E0,1.9428855E0,1.19564E0,1.1548183E0,1.0223434E0,0E0,1.1511564E0,0E0,0E0,0E0,0E0,0E0,0E0],"parents":[2147483647,0,0,1,1,2,2,3,3,4,4,6,6],"right_children":[2,4,6,8,10,-1,12,-1,-1,-1,-1,-1,-1],"split_conditions":[5.0958335E-2,-1.0049465E-1,-2.8835003E0,-9.1475755E-1,7.814236E-2,-6.119959E-3,2.0056641E-1,-5.6653596E-3,8.7604043E-4,-1.2947002E-3,-6.1264113E-3,3.3224314E-3,2.631259E-5],"split_indices":[5,9,1,12,12,0,1,0,0,0,0,0,0],"split_type":[0,0,0,0,0,0,0,0,0,0,0,0,0],"sum_hessian":[8.9E1,4.6E1,4.3E1,2.8E1,1.8E1,1E0,4.2E1,2E0,2.6E1,9E0,9E0,2.3E1,1.9E1],"tree_param":{"num_deleted":"0","num_feature":"13","num_nodes":"13","size_leaf_vector":"1"}},{"base_weights":[4.632912E-3,-2.968817E-1,9.767959E-2,-1.0275841E-3,-6.222185E-1,2.2804639E-1,-9.6703194E-2,1.0483614E-3,-9.162112E-4,-1.4159607E-3,-6.5988805E-3,2.6869564E-3,-1.1836739E-3,3.7077404E-4,-3.8324862E-3],"categories":[],"categories_nodes":[],"categories_segments":[],"categories_sizes":[],"default_left":[0,0,0,0,0,0,0,0,0,0,0,0,0,0,0],"id":81,"left_children":[1,3,5,7,9,11,13,-1,-1,-1,-1,-1,-1,-1,-1],"loss_changes":[2.4978335E0,2.0206573E0,1.745245E0,1.24692045E-1,8.761072E-2,6.091449E-1,1.0875679E0,0E0,0E0,0E0,0E0,0E0,0E0,0E0,0E0],"parents":[2147483647,0,0,1,1,2,2,3,3,4,4,5,5,6,6],"right_children":[2,4,6,8,10,12,14,-1,-1,-1,-1,-1,-1,-1,-1],"split_conditions":[-8.2197547E-1,4.1300285E-1,5.493677E-1,4.7928414E-1,-5.6464434E-1,1.2526733E0,1.0825881E-1,1.0483614E-3,-9.162112E-4,-1.4159607E-3,-6.5988805E-3,2.6869564E-3,-1.1836739E-3,3.7077404E-4,-3.8324862E-3],"split_indices":[3,2,1,11,4,8,6,0,0,0,0,0,0,0,0],"split_type":[0,0,0,0,0,0,0,0,0,0,0,0,0,0,0],"sum_hessian":[8.7E1,2E1,6.7E1,1.1E1,9E0,4E1,2.7E1,5E0,6E0,1E0,8E0,3.6E1,4E0,1.9E1,8E0],"tree_param":{"num_deleted":"0","num_feature":"13","num_nodes":"15","size_leaf_vector":"1"}},{"base_weights":[1.0679208E-2,1.5609974E-1,-1.8348865E-1,-1.9160053E-2,2.9575956E-1,4.3717515E-2,-4.5099127E-1,7.7549665E-4,-1.8895953E-3,3.3379048E-3,-2.5381206E-4,4.1519324E-3,-1.418972E-4,-6.7341058E-3,-2.0571474E-3],"categories":[],"categories_nodes":[],"categories_segments":[],"categories_sizes":[],"default_left":[0,0,0,0,0,0,0,0,0,0,0,0,0,0,0],"id":82,"left_children":[1,3,5,7,9,11,13,-1,-1,-1,-1,-1,-1,-1,-1],"loss_changes":[2.5698817E0,1.2784579E0,2.3900676E0,4.0876403E-1,3.6265683E-1,4.7913638E-1,8.434453E-1,0E0,0E0,0E0,0E0,0E0,0E0,0E0,0E0],"parents":[2147483647,0,0,1,1,2,2,3,3,4,4,5,5,6,6],"right_children":[2,4,6,8,10,12,14,-1,-1,-1,-1,-1,-1,-1,-1],"split_conditions":[-8.466773E-2,-4.0329844E-1,-6.5420896E-2,9.539765E-1,5.664512E-1,-1.6666763E0,4.33502E-1,7.7549665E-4,-1.8895953E-3,3.3379048E-3,-2.5381206E-4,4.1519324E-3,-1.418972E-4,-6.7341058E-3,-2.0571474E-3],"split_indices":[0,10,6,6,1,2,11,0,0,0,0,0,0,0,0],"split_type":[0,0,0,0,0,0,0,0,0,0,0,0,0,0,0],"sum_hessian":[8.9E1,5.1E1,3.8E1,2.3E1,2.8E1,2.1E1,1.7E1,1.5E1,8E0,2.5E1,3E0,2E0,1.9E1,8E0,9E0],"tree_param":{"num_deleted":"0","num_feature":"13","num_nodes":"15","size_leaf_vector":"1"}},{"base_weights":[1.8749885E-3,1.4118044E-1,-1.4675915E-1,-3.702454E-3,2.6391605E-1,-4.4322398E-1,-2.5522731E-2,1.0669079E-3,-1.872798E-3,4.228526E-3,1.548995E-3,-5.3396344E-4,-5.5483263E-3,3.7655994E-4,-3.868548E-3],"categories":[],"categories_nodes":[],"categories_segments":[],"categories_sizes":[],"default_left":[0,0,0,0,0,0,0,0,0,0,0,0,0,0,0],"id":83,"left_children":[1,3,5,7,9,11,13,-1,-1,-1,-1,-1,-1,-1,-1],"loss_changes":[1.9256297E0,8.5452706E-1,1.6060928E0,4.8609212E-1,3.8499463E-1,5.3597975E-1,7.6790786E-1,0E0,0E0,0E0,0E0,0E0,0E0,0E0,0E0],"parents":[2147483647,0,0,1,1,2,2,3,3,4,4,5,5,6,6],"right_children":[2,4,6,8,10,12,14,-1,-1,-1,-1,-1,-1,-1,-1],"split_conditions":[-7.069706E-2,-2.9627398E-1,-9.200915E-1,9.539765E-1,1.356402E-1,-3.3031958E-1,9.5323205E-1,1.0669079E-3,-1.872798E-3,4.228526E-3,1.548995E-3,-5.3396344E-4,-5.5483263E-3,3.7655994E-4,-3.868548E-3],"split_indices":[0,10,3,6,11,4,7,0,0,0,0,0,0,0,0],"split_type":[0,0,0,0,0,0,0,0,0,0,0,0,0,0,0],"sum_hessian":[9.1E1,4.7E1,4.4E1,2.2E1,2.5E1,1.2E1,3.2E1,1.4E1,8E0,9E0,1.6E1,3E0,9E0,2.8E1,4E0],"tree_param":{"num_deleted":"0","num_feature":"13","num_nodes":"15","size_leaf_vector":"1"}},{"base_weights":[-1.4619659E-2,6.07901E-2,-3.6419326E-1,-6.398511E-2,1.7223457E-1,1.3935061E-1,-5.298491E-1,5.9674133E-4,-2.2025087E-3,-5.994954E-3,2.0567907E-3,-7.032752E-4,4.8903152E-3,-1.0544062E-3,-5.9742876E-3],"categories":[],"categories_nodes":[],"categories_segments":[],"categories_sizes":[],"default_left":[0,0,0,0,0,0,0,0,0,0,0,0,0,0,0],"id":84,"left_children":[1,3,5,7,9,11,13,-1,-1,-1,-1,-1,-1,-1,-1],"loss_changes":[2.5264592E0,1.1095555E0,1.4918895E0,7.474442E-1,1.2073296E0,4.0099463E-1,3.0986452E-1,0E0,0E0,0E0,0E0,0E0,0E0,0E0,0E0],"parents":[2147483647,0,0,1,1,2,2,3,3,4,4,5,5,6,6],"right_children":[2,4,6,8,10,12,14,-1,-1,-1,-1,-1,-1,-1,-1],"split_conditions":[1.1189145E0,5.0958335E-2,-1.0049465E-1,4.8075907E-2,-2.8835003E0,5.7496214E-1,-1.9922173E-1,5.9674133E-4,-2.2025087E-3,-5.994954E-3,2.0567907E-3,-7.032752E-4,4.8903152E-3,-1.0544062E-3,-5.9742876E-3],"split_indices":[4,5,9,6,1,3,6,0,0,0,0,0,0,0,0],"split_type":[0,0,0,0,0,0,0,0,0,0,0,0,0,0,0],"sum_hessian":[9.4E1,7.8E1,1.6E1,3.7E1,4.1E1,4E0,1.2E1,2.1E1,1.6E1,1E0,4E1,3E0,1E0,2E0,1E1],"tree_param":{"num_deleted":"0","num_feature":"13","num_nodes":"15","size_leaf_vector":"1"}},{"base_weights":[-1.1667848E-2,1.6341677E-1,-2.5938028E-1,-2.8175028E-2,2.984702E-1,-9.3704015E-2,-5.4529184E-1,-8.415214E-4,3.5439744E-3,3.8785292E-3,1.0882252E-3,-3.5495579E-3,8.671077E-4,4.942703E-4,-6.5791593E-3],"categories":[],"categories_nodes":[],"categories_segments":[],"categories_sizes":[],"default_left":[0,0,0,0,0,0,0,0,0,0,0,0,0,0,0],"id":85,"left_children":[1,3,5,7,9,11,13,-1,-1,-1,-1,-1,-1,-1,-1],"loss_changes":[3.7722623E0,1.3280412E0,1.6541793E0,5.009601E-1,4.6632957E-1,1.1619868E0,9.032545E-1,0E0,0E0,0E0,0E0,0E0,0E0,0E0,0E0],"parents":[2147483647,0,0,1,1,2,2,3,3,4,4,5,5,6,6],"right_children":[2,4,6,8,10,12,14,-1,-1,-1,-1,-1,-1,-1,-1],"split_conditions":[-6.838551E-2,-4.0329844E-1,4.1300285E-1,7.432673E-1,3.9245848E-2,-2.671672E-1,-6.3054264E-1,-8.415214E-4,3.5439744E-3,3.8785292E-3,1.0882252E-3,-3.5495579E-3,8.671077E-4,4.942703E-4,-6.5791593E-3],"split_indices":[0,10,2,7,8,7,10,0,0,0,0,0,0,0,0],"split_type":[0,0,0,0,0,0,0,0,0,0,0,0,0,0,0],"sum_hessian":[8.5E1,5E1,3.5E1,2.1E1,2.9E1,2.3E1,1.2E1,1.9E1,2E0,1.9E1,1E1,9E0,1.4E1,2E0,1E1],"tree_param":{"num_deleted":"0","num_feature":"13","num_nodes":"15","size_leaf_vector":"1"}},{"base_weights":[-3.6068592E-2,5.4742325E-2,-3.2667464E-1,-5.932085E-3,7.174451E-2,4.861529E-3,-3.857192E-1,-5.5530807E-4,1.7243574E-3,-1.8293799E-3,-5.7186964E-3],"categories":[],"categories_nodes":[],"categories_segments":[],"categories_sizes":[],"default_left":[0,0,0,0,0,0,0,0,0,0,0],"id":86,"left_children":[1,3,5,-1,7,-1,9,-1,-1,-1,-1],"loss_changes":[2.5513422E0,8.577864E-1,1.2913585E0,0E0,9.451077E-1,0E0,7.2583556E-1,0E0,0E0,0E0,0E0],"parents":[2147483647,0,0,1,1,2,2,4,4,6,6],"right_children":[2,4,6,-1,8,-1,10,-1,-1,-1,-1],"split_conditions":[6.872958E-1,-2.8835003E0,-1.6666763E0,-5.932085E-3,5.0958335E-2,4.861529E-3,1.9847944E-2,-5.5530807E-4,1.7243574E-3,-1.8293799E-3,-5.7186964E-3],"split_indices":[4,1,2,0,5,0,2,0,0,0,0],"split_type":[0,0,0,0,0,0,0,0,0,0,0],"sum_hessian":[9.5E1,7.3E1,2.2E1,1E0,7.2E1,1E0,2.1E1,3.2E1,4E1,1.1E1,1E1],"tree_param":{"num_deleted":"0","num_feature":"13","num_nodes":"11","size_leaf_vector":"1"}},{"base_weights":[1.1616999E-2,1.6654687E-1,-1.7240718E-1,2.0512291E-4,2.9273006E-1,-3.7836277E-1,4.1385088E-2,9.6759346E-4,-1.9292897E-3,3.690586E-3,8.210458E-4,-5.316918E-4,-4.9698725E-3,4.098042E-3,-1.5947032E-4],"categories":[],"categories_nodes":[],"categories_segments":[],"categories_sizes":[],"default_left":[0,0,0,0,0,0,